tree
version=v4
num_class=1
num_tree_per_iteration=1
label_index=0
max_feature_idx=20
objective=regression
feature_names=Column_0 Column_1 Column_2 Column_3 Column_4 Column_5 Column_6 Column_7 Column_8 Column_9 Column_10 Column_11 Column_12 Column_13 Column_14 Column_15 Column_16 Column_17 Column_18 Column_19 Column_20
feature_infos=[-1.4588099718093872:1.3868968486785889] [-1.6797181367874146:2.6369843482971191] [-1.8200353384017944:1.5142197608947754] [-1.6269408464431763:1.8869974613189697] [-0.88977921009063721:2.9512939453125] [-0.58151888847351074:1.7196344137191772] [-0.57596069574356079:1.7362295389175415] [-0.57596069574356079:1.7362295389175415] [-0.57596069574356079:1.7362295389175415] [-0.48232913017272949:3.984278678894043] [-0.50589567422866821:3.4566507339477539] [-0.404803067445755:2.4703369140625] [-0.53059417009353638:3.8157880306243896] [-0.55244201421737671:2.8154022693634033] [-0.49208986759185791:2.032149076461792] [-0.5551912784576416:2.6292128562927246] [-0.48399683833122253:3.8653380870819092] [-0.4305383563041687:4.1865777969360352] [-0.57269454002380371:2.2538993358612061] [-0.52132242918014526:3.261016845703125] [-0.53565746545791626:3.4210655689239502]
tree_sizes=1863 1887 1923 1801 1873 2278 1810 1976 1973 2035 1918 1955 1815 1856 1836 1920 1967 1968 2033 1895 1928 1967 2173 2250 1997 2076 2012 2001 2060 1966 1946 1862 1939 2139 2072 1960 1893 1878 2140 2204 2125 1959 1951 1928 1943 2336 2276 2291 2414 1992 1999 2157 2343 2166 1853 1969 2162 2038 2155 2123 2186 2236 2362 2195 2165 2001 2157 2183 2153 2246 2313 2243 2269 2295 2279 2212 2331 2249 2254 2258 2092 1907 2261 2281 2462 2253 2294

Tree=0
num_leaves=19
num_cat=0
split_feature=1 1 2 0 0 1 0 15 2 2 1 1 1 1 1 1 2 1
split_gain=9.33616e+08 1.72816e+08 9.24588e+07 2.85677e+07 1.69104e+07 9.7982e+06 5.12876e+06 3.73535e+06 3.10291e+06 2.68204e+06 1.50676e+06 886135 629587 305273 131213 127505 87554.9 22407.6
threshold=1.6818874478340151 0.22252129763364795 1.3318775296211245 -0.39166991412639612 1.0000000180025095e-35 0.70439237356185924 -0.39166991412639612 1.5615008473396303 0.75880256295204174 1.0192911326885226 0.51970538496971141 -1.0638231635093687 1.0000000180025095e-35 0.70439237356185924 -0.44295731186866755 0.34724727272987371 1.1755844950675967 -0.11439673230051993
decision_type=2 2 2 2 2 2 2 2 2 2 2 2 2 2 2 2 2 2
left_child=1 4 -2 13 6 9 11 8 -7 -5 15 -1 17 -3 -8 -11 -10 -6
right_child=2 3 -4 5 12 7 14 -9 16 10 -12 -13 -14 -15 -16 -17 -18 -19
leaf_value=2106.2174329411 2320.1271642732945 2137.3629516932974 2472.9284091485065 2167.7608035469407 2143.26641277725 2189.4790161251462 2124.2323393311649 2233.7911869874151 2220.1441281638854 2178.026481105062 2199.4123494584796 2115.2467652734977 2157.3570693684055 2148.2031769523846 2130.3919137992502 2185.1464556221486 2208.9676575756503 2147.7158928697681
leaf_weight=24.999999999999996 7.9999999999999982 4.9999999999999982 7 7.0000000000000027 9 8.0000000000000053 14.000000000000002 4.9999999999999991 4.9999999999999982 5.0000000000000018 7.9999999999999991 29.000000000000004 4.9999999999999991 6 13.999999999999998 6 5 5.0000000000000009
leaf_count=25 8 5 7 7 9 8 14 5 5 5 8 29 5 6 14 6 5 5
internal_value=2167.44 2146.29 2393 2186.6 2122.35 2196.4 2116.45 2210.64 2203.87 2183.68 2189.5 2110.96 2147.98 2143.06 2127.17 2182.05 2215.04 2144.72
internal_weight=176 161 15 60 101 49 82 23 18 26 19 54 19 11 28 11 10 14
internal_count=176 161 15 60 101 49 82 23 18 26 19 54 19 11 28 11 10 14
is_linear=0
shrinkage=1


Tree=1
num_leaves=19
num_cat=0
split_feature=1 1 2 0 0 1 0 15 2 2 1 1 1 1 1 1 2 1
split_gain=8.79116e+08 1.62694e+08 8.70805e+07 2.69086e+07 1.591e+07 9.23103e+06 4.8242e+06 3.51945e+06 2.92436e+06 2.52579e+06 1.41834e+06 834182 592720 287691 127257 120036 82470.9 20938.8
threshold=1.6818874478340151 0.22252129763364795 1.3318775296211245 -0.39166991412639612 1.0000000180025095e-35 0.70439237356185924 -0.39166991412639612 1.5615008473396303 0.75880256295204174 1.0192911326885226 0.51970538496971141 -1.0638231635093687 1.0000000180025095e-35 0.70439237356185924 -0.2779343426227569 0.34724727272987371 1.1755844950675967 -0.11439673230051993
decision_type=2 2 2 2 2 2 2 2 2 2 2 2 2 2 2 2 2 2
left_child=1 4 -2 13 6 9 11 8 -7 -5 15 -1 17 -3 -8 -11 -10 -6
right_child=2 3 -4 5 12 7 14 -9 16 10 -12 -13 -14 -15 -16 -17 -18 -19
leaf_value=-57.864544040634343 149.69216254340279 -27.663028349034931 297.98197389414611 1.840455115949603 -21.927355272900922 22.915066494411871 -38.984101275275727 65.929081313189343 52.683407628676477 11.804515066707831 32.554078414351849 -49.104183462870481 -8.256972395812765 -17.139929734996109 -31.678286973296618 18.713218643938909 41.835657312729772 -17.614584745519295
leaf_weight=24.999999999999996 7.9999999999999982 4.9999999999999982 7 7.0000000000000027 9 8.0000000000000053 22.000000000000004 4.9999999999999991 4.9999999999999982 5.0000000000000018 7.9999999999999991 29.000000000000004 4.9999999999999991 6 5.9999999999999991 6 5 5.0000000000000009
leaf_count=25 8 5 7 7 9 8 22 5 5 5 8 29 5 6 6 6 5 5
internal_value=1.53293 -18.9834 220.409 20.1229 -42.2119 29.634 -47.9431 43.4592 36.8876 17.2842 22.9344 -53.2594 -17.3555 -22.1296 -37.537 15.7078 47.7277 -20.5231
internal_weight=176 161 15 60 101 49 82 23 18 26 19 54 19 11 28 11 10 14
internal_count=176 161 15 60 101 49 82 23 18 26 19 54 19 11 28 11 10 14
is_linear=0
shrinkage=0.03


Tree=2
num_leaves=19
num_cat=0
split_feature=2 2 15 12 2 16 18 2 9 18 18 0 16 4 2 12 2 2
split_gain=4.50517e+08 1.44108e+08 9.41701e+07 7.31759e+07 3.41618e+07 1.07482e+07 1.05539e+07 5.40292e+06 5.05041e+06 3.78822e+06 3.53012e+06 2.86209e+06 1.96935e+06 1.63022e+06 1.36038e+06 896742 294169 197652
threshold=0.65460705757141124 1.488170921802521 1.992331922054291 2.2861958742141728 -0.33524991571903223 1.5561549067497256 1.8323897719383242 0.91509580612182628 1.8849729895591738 1.7332110404968264 1.7332110404968264 -1.0000000180025095e-35 0.32309621572494512 0.71066792309284221 -1.1688136458396909 1.483787000179291 0.44621615111827856 1.2276821732521059
decision_type=2 2 2 2 2 2 2 2 2 2 2 2 2 2 2 2 2 2
left_child=4 3 -3 5 10 7 8 -2 11 13 14 12 15 -9 -1 -6 -13 -15
right_child=1 2 -4 -5 6 -7 -8 9 -10 -11 -12 16 -14 17 -16 -17 -18 -19
leaf_value=-55.05252500162085 -0.15130278050060003 91.828178710937507 258.76754638671872 151.37172226849725 -36.462805281929342 64.123736469107612 26.867635426240806 11.152469671544884 1.6767461956988323 50.38424350425845 -26.001451308559364 -4.6293511244829935 -14.246601356183978 34.729928624770217 -44.863397392205826 -21.091493216121897 -14.579426129450562 25.555873526114002
leaf_weight=24 6.9999999999999991 7.9999999999999982 5 4.9999999999999991 16.000000000000004 6.9999999999999991 4.9999999999999991 7.0000000000000062 8.9999999999999982 5.9999999999999991 6.9999999999999991 5.0000000000000018 6.9999999999999991 4.9999999999999991 34 4.9999999999999991 6 7.9999999999999991
leaf_count=24 7 8 5 5 16 7 5 7 9 6 7 5 7 5 34 5 6 8
internal_value=1.49419 69.8863 157.521 44.2764 -32.1529 30.5453 -14.238 23.2503 -18.5668 29.5272 -46.7162 -23.2308 -28.3194 23.0504 -49.1671 -32.9204 -10.1394 29.3228
internal_weight=176 58 13 45 118 40 53 33 48 26 65 39 28 20 58 21 11 13
internal_count=176 58 13 45 118 40 53 33 48 26 65 39 28 20 58 21 11 13
is_linear=0
shrinkage=0.03


Tree=3
num_leaves=18
num_cat=0
split_feature=1 2 1 2 1 2 1 1 2 2 1 1 1 1 1 1 2
split_gain=8.94916e+08 1.4322e+08 1.24608e+08 2.06782e+07 1.91138e+07 1.41244e+07 7.87647e+06 4.24393e+06 4.01342e+06 3.00131e+06 1.32902e+06 1.04653e+06 819853 325141 321005 244241 4061.78
threshold=1.4099585413932803 1.3318775296211245 0.22252129763364795 0.81090039014816295 1.8080481886863711 -0.43944527208805079 0.70439237356185924 1.0098250210285189 0.39411830902099615 0.2378252372145653 0.51970538496971141 -1.0638231635093687 0.92241227626800548 0.34724727272987371 -0.01677738036960363 -0.38300025463104242 0.60250937938690197
decision_type=2 2 2 2 2 2 2 2 2 2 2 2 2 2 2 2 2
left_child=2 4 5 7 -2 11 10 9 15 -4 13 -1 -8 -5 16 -7 -10
right_child=1 -3 3 6 -6 8 12 -9 14 -11 -12 -13 -14 -15 -16 -17 -18
leaf_value=-54.893909547156888 87.194353698059686 273.74476309317129 -25.615496611542735 6.3146949678308752 153.09106752748843 -37.332361714377328 42.336607064260569 13.772788506091482 -17.883369571461387 -0.42086381700303821 29.831312015721053 -46.23034238114316 60.599567224839141 16.833480864978224 -11.444423100914754 -30.193881606300277 -22.037921717026652
leaf_weight=29 9.0000000000000053 7.9999999999999991 9.0000000000000053 5.0000000000000053 7.9999999999999991 20.000000000000004 6.9999999999999982 6.9999999999999991 5.0000000000000018 7.9999999999999991 5.9999999999999991 35 5 6 6.9999999999999991 9.9999999999999982 5
leaf_count=29 9 8 9 5 8 20 7 7 5 8 6 35 5 6 7 10 5
internal_value=2.52951 169.356 -22.9891 14.836 118.919 -41.0469 31.8392 -5.75615 -28.4545 -13.8312 18.5302 -50.2356 50.3844 12.1524 -16.6585 -35.0612 -20.1586
internal_weight=189 25 164 53 17 111 29 24 47 17 17 64 12 11 17 30 10
internal_count=189 25 164 53 17 111 29 24 47 17 17 64 12 11 17 30 10
is_linear=0
shrinkage=0.03


Tree=4
num_leaves=19
num_cat=0
split_feature=1 2 1 0 3 0 1 2 0 0 1 1 1 1 1 1 1 2
split_gain=8.42594e+08 1.34862e+08 1.17305e+08 1.9568e+07 1.83942e+07 1.3286e+07 8.98001e+06 4.21515e+06 3.77518e+06 2.63446e+06 1.41479e+06 985130 960581 700032 649251 302549 233216 3822.56
threshold=1.4099585413932803 1.3318775296211245 0.22252129763364795 -0.39166991412639612 0.56927071511745464 -0.39166991412639612 0.70439237356185924 0.91509580612182628 1.0000000180025095e-35 1.0311834812164309 0.82828688621521007 -1.0638231635093687 0.51970538496971141 1.9731494784355166 0.82828688621521007 -0.01677738036960363 -0.44295731186866755 0.60250937938690197
decision_type=2 2 2 2 2 2 2 2 2 2 2 2 2 2 2 2 2 2
left_child=2 4 5 14 -2 11 9 -8 16 -5 -9 -1 -11 -6 -4 17 -7 -10
right_child=1 -3 3 6 13 8 7 10 15 12 -12 -13 -14 -15 -16 -17 -18 -19
leaf_value=-53.252751087306699 76.268087278554063 265.63380570023145 -27.743623607197748 -0.78904952499892655 124.33549431295958 -37.185975527731777 19.79277771996669 40.327158523309436 -17.357387443991257 13.547915886605139 63.84602180032168 -44.847383292434557 28.951043581102713 156.39303251378675 -12.701395710215847 -11.105925969943195 -30.620721427462747 -21.38974810431985
leaf_weight=29 7.0000000000000062 7.9999999999999991 5.9999999999999982 9.0000000000000018 4.9999999999999982 15.000000000000002 6.0000000000000027 5.9999999999999982 5.0000000000000018 9.9999999999999982 5 35 5.9999999999999991 5 5 6.9999999999999991 14.999999999999998 5
leaf_count=29 7 8 6 9 5 15 6 6 5 10 5 35 6 5 5 7 15 5
internal_value=2.46057 164.337 -22.3008 14.3991 115.393 -39.8214 23.72 40.4884 -27.6084 12.2014 51.4967 -48.7332 19.4682 141.754 -21.0825 -16.1677 -34.0161 -19.5657
internal_weight=189 25 164 53 17 111 42 17 47 25 11 64 16 10 11 17 30 10
internal_count=189 25 164 53 17 111 42 17 47 25 11 64 16 10 11 17 30 10
is_linear=0
shrinkage=0.03


Tree=5
num_leaves=23
num_cat=0
split_feature=2 2 12 3 0 3 2 2 4 4 0 0 3 4 2 2 2 4 18 3 2 2
split_gain=4.67095e+08 1.47744e+08 1.10088e+08 8.5094e+07 3.08451e+07 2.23572e+07 1.79426e+07 1.27283e+07 8.32467e+06 4.01328e+06 3.16956e+06 1.22756e+06 2.28957e+06 1.93664e+06 1.01258e+06 749947 696465 625971 608020 525032 514420 416013
threshold=0.49831400811672216 1.488170921802521 2.5870993137359624 1.4477552175521853 1.0000000180025095e-35 0.56927071511745464 0.96719348430633556 -0.75203168392181385 1.0000000180025095e-35 0.71066792309284221 1.0311834812164309 -0.39166991412639612 1.0000000180025095e-35 1.0000000180025095e-35 -1.0000000180025095e-35 0.86299809813499462 -0.33524991571903223 -0.56968981772661198 1.7332110404968264 1.4477552175521853 -1.1688136458396909 0.86299809813499462
decision_type=2 2 2 2 2 2 2 2 2 2 2 2 2 2 2 2 2 2 2 2 2 2
left_child=4 2 5 -3 7 9 -7 20 -6 10 15 17 13 14 -13 -2 -14 18 -9 -8 -1 -11
right_child=1 3 -4 -5 8 6 19 11 -10 21 -12 12 16 -15 -16 -17 -18 -19 -20 -21 -22 -23
leaf_value=-50.748833535026471 -14.656449746524579 88.78060630923413 179.60398724724266 257.80645019531249 40.764210456399354 86.974945256159828 40.514422362280683 -41.777123942951562 -7.146949134239784 20.767126410989206 22.457859120088465 -12.138381275850184 -19.755219080307906 0.75934685202205887 -31.537327162798714 1.6635744341681982 -33.474018053471646 -25.428377301251444 -27.328976184620576 27.889767442640359 -43.481831149807221 34.058239557602825
leaf_weight=30 5.0000000000000018 5.9999999999999982 4.9999999999999991 5 4.9999999999999991 9.0000000000000018 5.9999999999999973 9.0000000000000018 8.9999999999999982 4.9999999999999982 4.9999999999999991 4.9999999999999991 4.9999999999999991 4.9999999999999991 4.9999999999999991 5 15.000000000000002 7.9999999999999991 4.9999999999999991 9 23 5
leaf_count=30 5 6 5 5 5 9 6 9 9 5 5 5 5 5 5 5 15 8 5 9 23 5
internal_value=2.39519 67.4757 46.8814 167.241 -31.7464 33.0001 53.6271 -37.0808 10.1317 13.0632 3.19678 -27.1562 -23.5068 -14.4949 -22.0544 -6.56046 -30.1598 -32.8292 -36.8477 33.1747 -47.6831 27.6844
internal_weight=189 65 54 11 124 49 24 110 14 25 15 57 35 15 10 10 20 22 14 15 53 10
internal_count=189 65 54 11 124 49 24 110 14 25 15 57 35 15 10 10 20 22 14 15 53 10
is_linear=0
shrinkage=0.03


Tree=6
num_leaves=18
num_cat=0
split_feature=1 1 1 1 0 0 0 0 1 1 1 1 1 1 1 0 1
split_gain=7.17169e+08 1.33898e+08 3.9523e+07 2.8491e+07 1.57411e+07 1.14741e+07 3.42221e+06 3.15338e+06 3.06639e+06 797790 608758 588238 537291 417436 213243 208897 195022
threshold=1.8080481886863711 0.22252129763364795 2.1099295616149907 1.31683886051178 1.0311834812164309 -0.39166991412639612 1.0000000180025095e-35 -0.39166991412639612 0.51970538496971141 0.70439237356185924 -1.0638231635093687 0.51970538496971141 0.82828688621521007 1.0000000180025095e-35 -0.44295731186866755 -1.0000000180025095e-35 0.34724727272987371
decision_type=2 2 2 2 2 2 2 2 2 2 2 2 2 2 2 2 2
left_child=1 5 -2 4 7 10 14 12 16 -10 -1 -9 -3 -8 -7 -5 -6
right_child=2 3 -4 15 8 6 13 11 9 -11 -12 -13 -14 -15 -16 -17 -18
leaf_value=-49.99802495268203 149.14243652343748 -24.718757977552819 251.28295527068656 54.718802992876824 6.8956180482752147 -35.235494589479821 -18.997997702419166 -4.7727637764259576 25.246747952974751 39.076611463758681 -42.873633966476582 6.6614116753472219 -11.472582774442783 -8.7570814550118374 -29.34578202558485 69.798124640969689 15.137095371934233
leaf_weight=28.999999999999996 7.9999999999999982 6.9999999999999982 7 5 5.0000000000000018 15.999999999999995 9.9999999999999982 8.0000000000000053 9.0000000000000018 7.9999999999999991 31.000000000000004 7.9999999999999991 5 5.9999999999999991 18.000000000000004 4.9999999999999982 6
leaf_count=29 8 7 7 5 5 16 10 8 9 8 31 8 5 6 18 5 6
internal_value=-0.260617 -17.2741 198.157 16.4917 8.11154 -37.5302 -26.8215 -7.78357 23.9779 31.9456 -46.3946 0.950003 -19.3402 -15.2361 -32.2127 62.8752 11.4871
internal_weight=191 176 15 66 56 110 50 28 28 17 60 16 12 16 34 10 11
internal_count=191 176 15 66 56 110 50 28 28 17 60 16 12 16 34 10 11
is_linear=0
shrinkage=0.03


Tree=7
num_leaves=20
num_cat=0
split_feature=1 1 2 1 0 0 0 2 6 1 1 1 1 7 1 1 0 1 4
split_gain=6.75299e+08 1.26047e+08 5.88519e+07 2.68417e+07 1.48232e+07 1.07949e+07 3.22012e+06 3.09509e+06 3.052e+06 2.88669e+06 751343 572961 432495 415645 392858 207579 196778 183646 48801.4
threshold=1.8080481886863711 0.22252129763364795 1.488170921802521 1.31683886051178 1.0311834812164309 -0.39166991412639612 1.0000000180025095e-35 -0.12685886025428769 1.0000000180025095e-35 0.51970538496971141 0.70439237356185924 -1.0638231635093687 0.311512440443039 1.0000000180025095e-35 1.0000000180025095e-35 -0.2779343426227569 1.0000000180025095e-35 0.34724727272987371 0.71066792309284221
decision_type=2 2 2 2 2 2 2 2 2 2 2 2 2 2 2 2 2 2 2
left_child=1 5 8 4 7 11 15 13 -2 17 -11 -1 -9 -3 -8 -7 -5 -6 -14
right_child=2 3 -4 16 9 6 14 12 -10 10 -12 -13 18 -15 -16 -17 -18 -19 -20
leaf_value=-48.503238110099879 124.2685753676471 -13.93380225168147 276.93151482077207 53.109426556755523 6.692805606617644 -33.027335108840127 -18.43370064008354 -5.2170861090988412 168.13249712775735 24.497668711903319 37.918786304615161 -41.591560207747186 2.721637178308824 -25.687173497817092 -8.4986758063269452 -26.70609697700726 67.745237139533543 14.69042676581711 6.9840585506663597
leaf_weight=28.999999999999996 4.9999999999999982 7.0000000000000018 4.9999999999999991 4.9999999999999982 5.0000000000000018 23.999999999999996 9.9999999999999982 5.9999999999999991 5 9.0000000000000018 7.9999999999999991 31.000000000000004 4.9999999999999982 5 5.9999999999999991 10.000000000000002 5 6 5
leaf_count=29 5 7 5 5 5 24 10 6 5 9 8 31 5 5 6 10 5 6 5
internal_value=-0.246647 -16.756 192.292 16.0049 7.87098 -36.4093 -26.0224 -7.55373 147.648 23.2678 30.9985 -45.0074 1.09782 -19.0031 -14.7842 -31.252 61.0259 11.1485 4.90119
internal_weight=191 176 15 66 56 110 50 28 10 28 17 60 16 12 16 34 10 11 10
internal_count=191 176 15 66 56 110 50 28 10 28 17 60 16 12 16 34 10 11 10
is_linear=0
shrinkage=0.03


Tree=8
num_leaves=20
num_cat=0
split_feature=1 1 2 1 2 2 1 2 2 6 1 1 7 1 1 1 1 2 4
split_gain=6.36099e+08 1.18656e+08 5.54409e+07 2.5288e+07 1.30326e+07 1.01561e+07 3.32744e+06 3.02987e+06 2.98855e+06 2.87508e+06 707600 539268 391730 369727 337944 325278 195984 84387.3 45972
threshold=1.8080481886863711 0.22252129763364795 1.488170921802521 1.31683886051178 0.91509580612182628 -0.43944527208805079 0.51970538496971141 0.31597177684307104 -0.12685886025428769 1.0000000180025095e-35 0.70439237356185924 -1.0638231635093687 1.0000000180025095e-35 1.0000000180025095e-35 0.311512440443039 0.34724727272987371 -0.44295731186866755 0.75880256295204174 0.71066792309284221
decision_type=2 2 2 2 2 2 2 2 2 2 2 2 2 2 2 2 2 2 2
left_child=1 5 9 4 8 11 15 16 12 -2 -8 -1 -3 -9 -10 -6 -7 -5 -16
right_child=2 3 -4 17 6 7 10 13 14 -11 -12 -13 -14 -15 18 -17 -18 -19 -20
leaf_value=-47.053140076312822 120.61361787683826 -13.521675844864102 268.7864665670956 52.2050212545956 4.3144780005783314 -33.200329847631991 23.770814852871727 -17.886164979840267 -4.72040745454676 163.18742015165441 36.795266746238426 -40.347825672603491 -24.931668126723338 -8.2478952926885878 2.6415892118566182 14.256939126937114 -27.58969860772401 65.095094963522513 6.7786453606100645
leaf_weight=28.999999999999996 4.9999999999999982 7.0000000000000018 4.9999999999999991 4.9999999999999982 6.0000000000000018 15.999999999999995 9.0000000000000018 9.9999999999999982 4.9999999999999991 5 7.9999999999999991 31.000000000000004 5 5.9999999999999991 4.9999999999999982 6 18.000000000000004 5 5
leaf_count=29 5 7 5 5 6 16 9 10 5 5 8 31 5 6 5 6 18 5 5
internal_value=-0.230422 -16.2535 186.636 15.5325 7.63746 -35.3219 21.5688 -25.2469 -7.35005 143.306 30.0795 -43.6617 -18.4428 -14.3457 1.58736 9.3627 -30.3197 59.231 4.75705
internal_weight=191 176 15 66 56 110 29 50 27 10 17 60 12 16 15 12 34 10 10
internal_count=191 176 15 66 56 110 29 50 27 10 17 60 12 16 15 12 34 10 10
is_linear=0
shrinkage=0.03


Tree=9
num_leaves=20
num_cat=0
split_feature=2 15 12 9 0 0 2 2 4 4 9 2 16 20 4 17 2 2 2
split_gain=2.74028e+08 1.08095e+08 7.89304e+07 3.66296e+07 2.4567e+07 1.13826e+07 1.04914e+07 5.95664e+06 5.88296e+06 1.7418e+06 1.67878e+06 1.57426e+06 1.08739e+06 1.67807e+06 464682 300814 47464 37842 335785
threshold=0.49831400811672216 1.992331922054291 2.5870993137359624 3.0284247398376469 1.0000000180025095e-35 1.0311834812164309 -0.54364079236984242 1.1755844950675967 1.0000000180025095e-35 1.0000000180025095e-35 1.8849729895591738 -1.0125204622745512 0.50245019793510448 1.2448678612709048 0.71066792309284221 0.10976245999336244 -0.43944527208805079 -0.75203168392181385 -0.6478363275527953
decision_type=2 2 2 2 2 2 2 2 2 2 2 2 2 2 2 2 2 2 2
left_child=4 2 3 5 6 9 11 -7 -6 -2 12 -1 13 16 -11 -9 -8 -13 -19
right_child=1 -3 -4 -5 8 7 10 15 -10 14 -12 17 -14 -15 -16 -17 -18 18 -20
leaf_value=-44.713701484875799 -11.218206951000068 169.31715856333247 148.5301849724265 100.7612078520831 35.514092335420493 53.095439410142468 -34.064495346966908 22.779103935809164 -4.7709166843288546 0.32685432309009993 -6.8300530655657665 -36.712795281661172 -13.611594780815974 -13.752413963035302 11.673423274402886 13.466363740808823 -28.482262517755675 -26.760242982246499 -37.868999423668036
leaf_weight=35 8.0000000000000018 5.9999999999999991 4.9999999999999991 4.9999999999999991 4.9999999999999991 7.0000000000000027 4.9999999999999991 12.000000000000002 8.9999999999999982 5.9999999999999982 5.9999999999999991 17.000000000000004 7.9999999999999991 7.9999999999999991 7 4.9999999999999991 23.000000000000004 7 5.9999999999999982
leaf_count=35 8 6 5 5 5 7 5 12 9 6 6 17 8 8 7 5 23 7 6
internal_value=-2.9248 49.4195 36.0561 24.5346 -27.6959 15.8603 -32.261 29.929 9.76621 -0.283714 -21.8561 -40.2189 -23.885 -26.1238 6.47925 20.135 -29.5969 -34.8436 -32.1375
internal_weight=190 61 55 50 129 45 115 24 14 21 50 65 44 36 13 17 28 30 13
internal_count=190 61 55 50 129 45 115 24 14 21 50 65 44 36 13 17 28 30 13
is_linear=0
shrinkage=0.03


Tree=10
num_leaves=19
num_cat=0
split_feature=1 1 2 1 2 0 1 1 2 1 0 1 1 1 9 1 1 1
split_gain=4.63576e+08 8.47372e+07 6.33532e+07 1.63705e+07 1.16923e+07 6.63578e+06 6.37884e+06 5.38424e+06 2.38304e+06 1.87707e+06 1.37804e+06 1.29934e+06 625764 314805 310575 249608 186870 74727.7
threshold=1.4099585413932803 0.15878819674253467 1.488170921802521 1.8080481886863711 0.91509580612182628 -0.39166991412639612 0.70439237356185924 1.1233346462249758 0.13362987339496615 0.34724727272987371 1.0000000180025095e-35 0.82828688621521007 -0.95355659723281849 0.51970538496971141 0.38419276475906378 0.59539720416069042 -0.44295731186866755 -0.11439673230051993
decision_type=2 2 2 2 2 2 2 2 2 2 2 2 2 2 2 2 2 2
left_child=1 5 3 -2 7 12 9 8 15 -6 16 -8 -1 -11 -10 -3 -7 -12
right_child=2 4 -4 -5 6 10 11 -9 14 13 17 -13 -14 -15 -16 -17 -18 -19
leaf_value=-44.205872887556644 74.377282768501004 -14.035688286452991 225.58480353860296 140.06040527343751 -2.9258440937715373 -31.750530963027689 30.516118164062505 22.25483606557377 -3.9394657189505442 11.972008056640625 -19.374773740415218 53.507217443129584 -37.452685523324455 21.822080292754119 5.3090048756318931 -23.265580804543411 -26.129262873163281 -13.800524399701288
leaf_weight=33 9.0000000000000018 6.0000000000000018 4.9999999999999991 5.9999999999999991 5.0000000000000062 16.999999999999996 4.9999999999999982 5.9999999999999991 8.9999999999999982 4.9999999999999991 7.9999999999999991 5 31 8.9999999999999982 4.9999999999999991 6 15.000000000000002 4.9999999999999991
leaf_count=33 9 6 5 6 5 17 5 6 9 5 8 5 31 9 5 6 15 5
internal_value=-2.83237 -18.9308 133.417 101.404 9.37286 -34.7645 23.1354 -3.1326 -9.05417 12.8124 -25.8273 42.4279 -40.9984 18.4143 -0.622001 -18.805 -29.2053 -17.3528
internal_weight=190 170 20 15 61 109 29 32 26 19 45 10 64 14 14 12 32 13
internal_count=190 170 20 15 61 109 29 32 26 19 45 10 64 14 14 12 32 13
is_linear=0
shrinkage=0.03


Tree=11
num_leaves=19
num_cat=0
split_feature=2 15 12 9 2 18 18 2 9 18 2 16 4 2 2 17 3 3
split_gain=2.43093e+08 9.79271e+07 6.90435e+07 3.21916e+07 2.06421e+07 1.18172e+07 1.04916e+07 3.85008e+06 3.15079e+06 2.30805e+06 1.60247e+06 1.82859e+06 1.31379e+06 1.06945e+06 943018 447919 88083 1984.54
threshold=0.49831400811672216 1.992331922054291 2.5870993137359624 3.0284247398376469 -0.43944527208805079 1.7828003764152529 1.931568503379822 1.0192911326885226 1.8849729895591738 1.7332110404968264 0.31597177684307104 0.50245019793510448 0.71066792309284221 0.81090039014816295 -1.1688136458396909 0.10976245999336244 0.56927071511745464 1.0000000180025095e-35
decision_type=2 2 2 2 2 2 2 2 2 2 2 2 2 2 2 2 2 2
left_child=4 2 3 6 9 8 7 12 10 14 11 17 13 -2 -1 16 -9 -6
right_child=1 -3 -4 -5 5 -7 -8 15 -10 -11 -12 -13 -14 -15 -16 -17 -18 -19
leaf_value=-42.898581916564723 -15.953096223718969 160.67697176573708 139.03606445312502 94.525370689840884 -28.662504717852606 27.135069580078124 55.476584257238052 18.378413633753034 0.13574136239510995 -20.94555231165003 -8.185259721544055 -9.4009037759270466 10.808982279871552 1.6083958322030525 -35.003426108964369 11.828696121465965 24.429320972583913 -25.31981769064198
leaf_weight=28 5.0000000000000027 5.9999999999999991 4.9999999999999991 4.9999999999999991 11.000000000000002 5.9999999999999991 4.9999999999999991 6.0000000000000027 7.9999999999999991 7.9999999999999991 7.9999999999999991 6.9999999999999991 6.9999999999999991 7.9999999999999991 37 5.9999999999999991 7.9999999999999991 15.999999999999998
leaf_count=28 5 6 5 5 11 6 5 6 8 8 8 7 7 8 37 6 8 16
internal_value=-2.74159 46.5597 33.8414 23.0654 -26.0726 -12.3392 14.9334 9.73967 -17.1209 -36.5765 -20.4004 -23.2421 0.418457 -5.21601 -38.4651 19.0123 21.985 -26.7825
internal_weight=190 61 55 50 129 56 45 40 50 73 42 34 20 13 65 20 14 27
internal_count=190 61 55 50 129 56 45 40 50 73 42 34 20 13 65 20 14 27
is_linear=0
shrinkage=0.03


Tree=12
num_leaves=18
num_cat=0
split_feature=1 1 2 1 0 0 1 1 2 2 3 1 1 1 1 1 3
split_gain=3.90237e+08 7.01833e+07 6.20909e+07 1.22599e+07 1.03939e+07 7.50319e+06 4.83437e+06 2.16e+06 1.84835e+06 1.27816e+06 1.25584e+06 593857 464093 267315 174536 113395 25323.5
threshold=1.4099585413932803 0.25696944445371633 1.488170921802521 1.8080481886863711 -0.39166991412639612 -0.39166991412639612 0.69028088450431835 -0.19130713492631909 0.91509580612182628 1.0192911326885226 0.56927071511745464 -0.86478054523468006 0.51970538496971141 0.82828688621521007 -0.38300025463104242 0.087154503911733641 0.56927071511745464
decision_type=2 2 2 2 2 2 2 2 2 2 2 2 2 2 2 2 2
left_child=1 5 3 -2 13 11 9 14 -8 -6 -10 -1 -11 -3 -7 16 -9
right_child=2 4 -4 -5 6 7 8 15 10 12 -12 -13 -14 -15 -16 -17 -18
leaf_value=-41.428895503249123 61.69235348123896 -18.231209556704666 214.86789177389707 117.72297444661459 -1.4247241264665622 -29.324306166919303 17.215951950717972 -17.763445276331009 24.680991444307217 8.2420007668078803 45.33632466920664 -34.204785482139066 18.994232200339987 -8.5571545230641064 -23.628366600242821 -11.175900208379181 -13.78939427992877
leaf_weight=32 7.0000000000000027 5.9999999999999982 4.9999999999999991 7.9999999999999991 7.0000000000000027 20.000000000000004 7.0000000000000027 8.0000000000000018 4.9999999999999982 6.9999999999999991 7 22 7.9999999999999991 5 10.999999999999998 6.9999999999999991 4.9999999999999991
leaf_count=32 7 6 5 8 7 20 7 8 5 7 7 22 8 5 11 7 5
internal_value=-0.712886 -16.6369 123.751 92.1573 11.8503 -30.7428 18.7898 -22.4122 29.8429 9.15185 37.0053 -38.5545 14.0645 -13.9509 -27.3857 -14.6052 -16.3521
internal_weight=177 157 20 15 52 105 41 51 19 22 12 54 15 11 31 20 13
internal_count=177 157 20 15 52 105 41 51 19 22 12 54 15 11 31 20 13
is_linear=0
shrinkage=0.03


Tree=13
num_leaves=19
num_cat=0
split_feature=1 1 2 1 2 2 1 1 1 2 1 1 1 1 4 1 3 1
split_gain=3.675e+08 6.6067e+07 5.85112e+07 1.15427e+07 8.58493e+06 7.06609e+06 4.32922e+06 3.99709e+06 2.20863e+06 1.02134e+06 957719 357960 220364 219634 205073 155929 106742 46396.4
threshold=1.4099585413932803 0.25696944445371633 1.488170921802521 1.8080481886863711 0.81090039014816295 -0.54364079236984242 1.1233346462249758 0.70439237356185924 -0.19130713492631909 -0.12685886025428769 0.34724727272987371 -1.0638231635093687 -0.38300025463104242 0.82828688621521007 0.71066792309284221 0.59539720416069042 1.0000000180025095e-35 0.087154503911733641
decision_type=2 2 2 2 2 2 2 2 2 2 2 2 2 2 2 2 2 2
left_child=1 5 3 -2 6 11 9 10 12 16 -6 -1 -7 -9 17 -12 -3 -10
right_child=2 4 -4 -5 7 8 -8 13 14 -11 15 -13 -14 -15 -16 -17 -18 -19
leaf_value=-40.746552365010956 59.867649200869245 -18.675468929515151 208.54824419806988 114.23488715277779 2.2783454132080045 -28.944207969764609 22.235717988855701 31.231220563044321 -18.111962273566267 -1.0379464128282332 14.284383106500332 -34.629868829900566 -22.925901604729727 42.132248589010793 -9.5964167160284344 21.519514520363725 -11.825572509765625 -13.770614904184811
leaf_weight=27 7.0000000000000027 5.0000000000000036 4.9999999999999991 7.9999999999999991 5.0000000000000062 23 4.9999999999999991 5.9999999999999982 9.0000000000000018 8 6.9999999999999982 23 10.999999999999998 5 5.9999999999999991 6 5 5.9999999999999991
leaf_count=27 7 5 5 8 5 23 5 6 9 8 7 23 11 5 6 6 5 6
internal_value=-0.686262 -16.1394 120.098 89.4282 11.4998 -29.8254 -2.1889 22.3266 -22.3314 -9.05904 13.498 -38.0077 -27.0701 36.5214 -14.567 17.7627 -15.4018 -16.4783
internal_weight=177 157 20 15 52 105 23 29 55 18 18 50 34 11 21 13 10 15
internal_count=177 157 20 15 52 105 23 29 55 18 18 50 34 11 21 13 10 15
is_linear=0
shrinkage=0.03


Tree=14
num_leaves=19
num_cat=0
split_feature=1 1 1 1 3 1 4 3 1 12 1 1 1 4 4 1 9 3
split_gain=3.46086e+08 6.21957e+07 4.62404e+07 6.6388e+06 6.62232e+06 6.21947e+06 5.04032e+06 4.0959e+06 1.44079e+06 2.31452e+06 963945 714217 550253 440890 394145 338389 61723.4 219795
threshold=1.4099585413932803 0.25696944445371633 1.9731494784355166 -0.50048688054084767 0.56927071511745464 1.1938774585723879 1.3508467674255373 1.0000000180025095e-35 0.54138207435607921 1.483787000179291 -0.82182225584983815 -0.19130713492631909 0.69028088450431835 1.3508467674255373 0.71066792309284221 0.78262919187545787 -0.38406378030776972 -1.0000000180025095e-35
decision_type=2 2 2 2 2 2 2 2 2 2 2 2 2 2 2 2 2 2
left_child=1 3 4 10 -2 7 -4 -3 13 12 -1 -5 -10 -9 16 -14 17 -13
right_child=2 5 6 11 -6 -7 -8 8 9 -11 -12 14 15 -15 -16 -17 -18 -19
leaf_value=-38.798171895046735 44.034184570312476 -10.696888363177958 134.05086799172798 -24.215803465518647 94.302747874540415 39.638420210040977 186.96221335018382 -2.2559407893946917 14.571342829951522 -2.0080374684053308 -30.774920302421599 -24.919552289177361 30.313179271260246 8.759657399352168 -9.3132438084336595 18.80103862089269 -14.795668693991269 -16.224954924406823
leaf_weight=34 5.0000000000000018 8.9999999999999982 4.9999999999999982 19 5 5.9999999999999991 5 5.9999999999999982 8.0000000000000053 4.9999999999999991 28 5.0000000000000044 5.9999999999999982 7 5.9999999999999991 5 4.9999999999999991 8
leaf_count=34 5 9 5 19 5 6 5 6 8 5 28 5 6 7 6 5 5 8
internal_value=-0.66032 -15.6565 116.552 -28.9354 69.8536 11.1607 162.096 7.36818 11.7795 16.1239 -35.2302 -19.7985 20.8811 3.6969 -16.2153 25.2972 -18.4517 -19.734
internal_weight=177 157 20 105 10 52 10 46 37 24 62 43 19 13 24 11 18 13
internal_count=177 157 20 105 10 52 10 46 37 24 62 43 19 13 24 11 18 13
is_linear=0
shrinkage=0.03


Tree=15
num_leaves=19
num_cat=0
split_feature=1 1 2 1 2 1 1 1 0 0 16 1 1 1 2 2 2 0
split_gain=4.10294e+08 8.30769e+07 3.95834e+07 1.76074e+07 9.65409e+06 6.21108e+06 2.86569e+06 2.18198e+06 1.52701e+06 1.42815e+06 1.07343e+06 717520 281776 235759 104653 98995.3 68608.2 27202
threshold=1.8080481886863711 0.22252129763364795 1.488170921802521 1.4099585413932803 0.81090039014816295 -0.50048688054084767 1.0098250210285189 0.59539720416069042 1.0000000180025095e-35 -0.39166991412639612 0.59212723374366771 -0.82182225584983815 0.087154503911733641 0.34724727272987371 0.39411830902099615 -0.12685886025428769 0.60250937938690197 -1.1030966341495512
decision_type=2 2 2 2 2 2 2 2 2 2 2 2 2 2 2 2 2 2
left_child=1 5 -2 4 6 11 9 13 -7 -3 -9 17 16 -6 -11 -13 -10 -1
right_child=2 3 -4 -5 7 8 -8 10 12 14 -12 15 -14 -15 -16 -17 -18 -19
leaf_value=-38.613459287525927 109.88083080150463 -18.682418105576058 214.43758492891905 59.280242730798854 6.0841492058249091 -24.149803387530437 15.302843645881206 32.997363215266034 -11.798026625689333 0.61631509219898872 16.737076661156827 -31.881855395872194 -6.879110228741756 14.242901010041189 -5.2268469063180394 -26.862702009871199 -17.124785672040051 -34.421322377838692
leaf_weight=20.999999999999996 7.9999999999999982 9.0000000000000018 6 6.9999999999999991 4.9999999999999991 23 4.9999999999999991 11.000000000000002 5.0000000000000018 5.0000000000000018 5.9999999999999991 20.000000000000004 5.9999999999999991 9.9999999999999982 6 10.999999999999998 7 16.000000000000004
leaf_count=21 8 9 6 7 5 23 5 11 5 5 6 20 6 10 6 11 7 16
internal_value=0.278052 -12.3979 155.894 14.7183 9.15153 -28.3183 -4.80889 20.0392 -19.0167 -9.88809 27.3901 -33.8904 -12.3605 11.5818 -2.58897 -30.1931 -15.0214 -36.8984
internal_weight=187 173 14 64 57 109 25 32 41 20 17 68 18 15 11 31 12 37
internal_count=187 173 14 64 57 109 25 32 41 20 17 68 18 15 11 31 12 37
is_linear=0
shrinkage=0.03


Tree=16
num_leaves=20
num_cat=0
split_feature=1 1 2 1 2 1 1 1 0 0 4 1 1 1 4 4 2 2 0
split_gain=3.86378e+08 7.82082e+07 3.72925e+07 1.65816e+07 9.08919e+06 5.84514e+06 2.69908e+06 2.06295e+06 1.43602e+06 1.34459e+06 847686 675124 397639 265375 257278 115000 92908.5 64537.5 25463.8
threshold=1.8080481886863711 0.22252129763364795 1.488170921802521 1.4099585413932803 0.81090039014816295 -0.50048688054084767 1.0098250210285189 0.69028088450431835 1.0000000180025095e-35 -0.39166991412639612 0.71066792309284221 -0.82182225584983815 0.51970538496971141 0.087154503911733641 0.71066792309284221 1.3508467674255373 -0.12685886025428769 0.60250937938690197 -1.1030966341495512
decision_type=2 2 2 2 2 2 2 2 2 2 2 2 2 2 2 2 2 2 2
left_child=1 5 -2 4 6 11 9 12 -7 -3 -9 18 15 17 -11 -6 -13 -10 -1
right_child=2 3 -4 -5 7 8 -8 10 13 14 -12 16 -14 -15 -16 -17 -18 -19 -20
leaf_value=-37.460543600507258 106.62510344328705 -18.128104026710584 208.10992099449282 57.5268838200099 5.6496862882726298 -23.428445680296267 14.852759767420153 21.014623834314481 -11.451025695800777 -6.6533694207863707 37.058125560322743 -30.930157525361469 18.136172394929108 -6.6761201439529181 2.4888981897690714 11.997422745501407 -26.064080909522804 -16.618277777013642 -33.39509720132957
leaf_weight=20.999999999999996 7.9999999999999982 9.0000000000000018 6 6.9999999999999991 5.0000000000000018 23 4.9999999999999991 6.9999999999999982 5.0000000000000018 6.0000000000000018 6 20.000000000000004 7.9999999999999991 5.9999999999999991 5 6 10.999999999999998 7 16.000000000000004
leaf_count=21 8 9 6 7 5 23 5 7 5 6 6 20 8 6 5 6 11 7 16
internal_value=0.273782 -12.0272 151.286 14.2825 8.88025 -27.474 -4.66557 19.4446 -18.4506 -9.59492 28.6459 -32.8795 13.0318 -11.9956 -2.51254 9.18925 -29.2929 -14.5779 -35.7973
internal_weight=187 173 14 64 57 109 25 32 41 20 13 68 19 18 11 11 31 12 37
internal_count=187 173 14 64 57 109 25 32 41 20 13 68 19 18 11 11 31 12 37
is_linear=0
shrinkage=0.03


Tree=17
num_leaves=20
num_cat=0
split_feature=1 1 2 1 2 1 1 1 0 0 4 1 1 1 4 4 2 2 0
split_gain=3.63854e+08 7.36292e+07 3.51341e+07 1.56147e+07 8.55909e+06 5.50076e+06 2.54215e+06 1.94299e+06 1.35044e+06 1.26594e+06 798561 635233 374295 249929 242333 108290 87195.3 60708.2 23836.4
threshold=1.8080481886863711 0.22252129763364795 1.488170921802521 1.4099585413932803 0.81090039014816295 -0.50048688054084767 1.0098250210285189 0.69028088450431835 1.0000000180025095e-35 -0.39166991412639612 0.71066792309284221 -0.82182225584983815 0.51970538496971141 0.087154503911733641 0.71066792309284221 1.3508467674255373 -0.12685886025428769 0.60250937938690197 -1.1030966341495512
decision_type=2 2 2 2 2 2 2 2 2 2 2 2 2 2 2 2 2 2 2
left_child=1 5 -2 4 6 11 9 12 -7 -3 -9 18 15 17 -11 -6 -13 -10 -1
right_child=2 3 -4 -5 7 8 -8 10 13 14 -12 16 -14 -15 -16 -17 -18 -19 -20
leaf_value=-36.342056254165442 103.46584011501737 -17.590237547486684 201.96897420914445 55.825383988501315 5.4835189953972288 -22.728634889280642 14.415913875804229 20.393064293659911 -11.114231010885794 -6.4570407729852377 35.964606793513056 -30.006869698140154 17.598804072627313 -6.4791198217673385 2.4156953609690945 11.643400403632491 -25.289202979835306 -16.126751261966326 -32.399466560316377
leaf_weight=20.999999999999996 7.9999999999999982 9.0000000000000018 6 6.9999999999999991 5.0000000000000018 23 4.9999999999999991 6.9999999999999982 5.0000000000000018 6.0000000000000018 6 20.000000000000004 7.9999999999999991 5.9999999999999991 5 6 10.999999999999998 7 16.000000000000004
leaf_count=21 8 9 6 7 5 23 5 7 5 6 6 20 8 6 5 6 11 7 16
internal_value=0.269939 -11.6671 146.815 13.8607 8.61839 -26.6549 -4.52649 18.87 -17.9014 -9.3104 27.7998 -31.8988 12.6464 -11.6415 -2.43828 8.91835 -28.4197 -14.1476 -34.7292
internal_weight=187 173 14 64 57 109 25 32 41 20 13 68 19 18 11 11 31 12 37
internal_count=187 173 14 64 57 109 25 32 41 20 13 68 19 18 11 11 31 12 37
is_linear=0
shrinkage=0.03


Tree=18
num_leaves=21
num_cat=0
split_feature=1 1 1 1 0 0 3 1 0 1 0 1 1 1 1 1 1 2 1 2
split_gain=3.76251e+08 7.301e+07 5.15318e+07 1.67238e+07 6.01692e+06 5.31882e+06 4.19535e+06 1.89764e+06 1.79239e+06 1.51703e+06 1.38688e+06 693800 299994 281915 181072 155617 139356 69437.7 46631.7 45982.9
threshold=1.6818874478340151 0.22252129763364795 2.1099295616149907 1.1938774585723879 1.0311834812164309 -0.39166991412639612 0.56927071511745464 0.59539720416069042 1.0311834812164309 -0.19130713492631909 -0.39166991412639612 0.57937014102935802 0.70439237356185924 -1.0638231635093687 0.34724727272987371 0.70439237356185924 -0.51738402247428883 1.2797798514366152 0.087154503911733641 0.60250937938690197
decision_type=2 2 2 2 2 2 2 2 2 2 2 2 2 2 2 2 2 2 2 2
left_child=1 5 8 4 10 13 -5 14 -2 16 15 -12 -9 -1 -6 -3 -7 -16 19 -11
right_child=2 3 -4 6 7 9 -8 12 -10 18 11 -13 -14 -15 17 -17 -18 -19 -20 -21
leaf_value=-34.902937251296009 80.20697294347427 -16.258137637867648 209.6878806992828 26.983107762571244 3.7179812958661222 -26.804085720188006 63.109868264120124 17.73228117101333 111.79553208295036 -10.61041255263031 -3.0896860596373839 10.736298810173482 27.973915066189235 -29.99813457882701 13.393505895278036 -8.7852276336169624 -21.45535529748717 8.002280551686006 -8.9497735326430377 -14.969518522669055
leaf_weight=31.999999999999996 4.9999999999999982 5 5.9999999999999991 5.9999999999999982 5.0000000000000027 9.0000000000000018 6 4.9999999999999991 5 6.0000000000000018 8.9999999999999982 5.0000000000000009 7.9999999999999991 28.000000000000004 4.9999999999999982 6 20 5 4.9999999999999991 6
leaf_count=32 5 5 6 6 5 9 6 5 5 6 9 5 8 28 5 6 20 5 5 6
internal_value=1.61908 -11.4283 140.268 13.5916 6.31341 -26.7691 45.419 15.8404 96.9521 -19.0209 -4.37731 1.88908 24.2005 -32.6678 8.48253 -12.2981 -23.2018 10.8041 -11.7946 -12.8959
internal_weight=187 171 16 65 53 106 12 28 10 46 25 14 13 60 15 11 29 10 17 12
internal_count=187 171 16 65 53 106 12 28 10 46 25 14 13 60 15 11 29 10 17 12
is_linear=0
shrinkage=0.03


Tree=19
num_leaves=19
num_cat=0
split_feature=1 1 1 1 2 2 3 1 1 1 2 1 1 3 1 1 4 4
split_gain=3.54375e+08 6.8733e+07 4.85266e+07 1.57514e+07 5.33621e+06 5.0028e+06 3.9514e+06 2.07558e+06 1.42706e+06 1.25639e+06 731926 389317 266855 236129 189661 131498 114951 105043
threshold=1.6818874478340151 0.22252129763364795 2.1099295616149907 1.1938774585723879 0.81090039014816295 -0.43944527208805079 0.56927071511745464 0.59539720416069042 -0.19130713492631909 1.9731494784355166 -0.54364079236984242 0.311512440443039 -1.0793257951736448 0.56927071511745464 0.70439237356185924 -0.51738402247428883 0.71066792309284221 1.3508467674255373
decision_type=2 2 2 2 2 2 2 2 2 2 2 2 2 2 2 2 2 2
left_child=1 5 9 4 10 12 -5 11 15 -2 -3 -6 -1 -12 -9 -7 -10 -13
right_child=2 3 -4 6 7 8 -8 14 16 -11 13 17 -14 -15 -16 -17 -18 -19
leaf_value=-34.097402205319753 79.146481359145241 -13.096612391941978 203.5003782978996 26.186884663065928 -0.021853179931640595 -26.008799713470111 61.247609102843228 17.210743300494027 -13.309824779613592 107.20888585707719 -4.4473991762936773 6.3959535621194297 -29.337372725017577 3.1842882550348999 25.448092336130667 -20.814897369840249 -7.8686087486392164 12.326072890590613
leaf_weight=28.999999999999996 4.9999999999999982 7.0000000000000027 5.9999999999999991 5.9999999999999982 5.0000000000000062 9.0000000000000018 6 4.9999999999999991 11.000000000000002 5 8.9999999999999982 4.9999999999999982 31.000000000000004 5.9999999999999991 8.9999999999999982 20 5.9999999999999991 7
leaf_count=29 5 7 6 6 5 9 6 5 11 5 9 5 31 6 9 20 6 7
internal_value=1.57688 -11.0855 136.135 13.1905 6.12703 -25.9702 44.0788 14.128 -18.4557 94.1005 -5.15987 7.01889 -31.691 -1.39365 22.6493 -22.5107 -11.4468 9.92872
internal_weight=187 171 16 65 53 106 12 31 46 10 22 17 60 15 14 29 17 12
internal_count=187 171 16 65 53 106 12 31 46 10 22 17 60 15 14 29 17 12
is_linear=0
shrinkage=0.03


Tree=20
num_leaves=20
num_cat=0
split_feature=1 1 1 1 0 0 3 0 1 1 0 1 1 1 1 1 1 4 2
split_gain=3.3377e+08 6.47047e+07 4.56966e+07 1.48358e+07 5.35949e+06 4.70617e+06 3.72164e+06 1.71637e+06 1.68779e+06 1.34299e+06 1.24219e+06 641379 268684 251583 161499 148209 124082 108134 66085.7
threshold=1.6818874478340151 0.22252129763364795 2.1099295616149907 1.1938774585723879 1.0311834812164309 -0.39166991412639612 0.56927071511745464 1.0311834812164309 0.59539720416069042 -0.19130713492631909 -0.39166991412639612 0.51970538496971141 0.70439237356185924 -1.0638231635093687 0.34724727272987371 0.70439237356185924 -0.51738402247428883 0.71066792309284221 1.2797798514366152
decision_type=2 2 2 2 2 2 2 2 2 2 2 2 2 2 2 2 2 2 2
left_child=1 5 7 4 10 13 -5 -2 14 16 15 -12 -10 -1 -6 -3 -7 -11 -16
right_child=2 3 -4 6 8 9 -8 -9 12 17 11 -13 -14 -15 18 -17 -18 -19 -20
leaf_value=-32.852723913460139 75.189959932215089 -15.496517441693474 197.49544705750512 25.414156799941768 3.4988852018468495 -25.237109764015269 59.440304095158801 105.68437054802389 16.704544821346506 -12.914127180769633 -4.6032236061633469 8.1517530457402607 26.391041078920715 -28.224403697383782 12.706813354492191 -8.2246083293977339 -20.193556746297805 -7.6364201329966068 7.4741538911707259
leaf_weight=31.999999999999996 4.9999999999999982 5 5.9999999999999991 5.9999999999999982 5.0000000000000027 9.0000000000000018 6 5 4.9999999999999991 11.000000000000002 7 7 7.9999999999999991 28.000000000000004 4.9999999999999982 6 20 5.9999999999999991 5
leaf_count=32 5 5 6 6 5 9 6 5 5 11 7 7 8 28 5 6 20 6 5
internal_value=1.53587 -10.7529 132.123 12.801 5.94588 -25.1948 42.7781 91.3329 14.9374 -17.9064 -4.14386 1.78664 22.8216 -30.7434 7.99823 -11.6401 -21.8402 -11.1071 10.1907
internal_weight=187 171 16 65 53 106 12 10 28 46 25 14 13 60 15 11 29 17 10
internal_count=187 171 16 65 53 106 12 10 28 46 25 14 13 60 15 11 29 17 10
is_linear=0
shrinkage=0.03


Tree=21
num_leaves=20
num_cat=0
split_feature=1 2 1 3 2 1 0 1 1 0 1 3 1 1 1 3 1 1 1
split_gain=3.09599e+08 6.02001e+07 4.26216e+07 7.6496e+06 6.51071e+06 3.96094e+06 2.60986e+06 2.0805e+06 1.50488e+06 1.27432e+06 617886 368229 346682 301926 220334 135046 74375.2 11198.9 3898.72
threshold=1.4099585413932803 1.3318775296211245 0.15878819674253467 0.56927071511745464 0.91509580612182628 0.82828688621521007 -0.39166991412639612 1.1233346462249758 0.34724727272987371 -0.39166991412639612 -0.19130713492631909 1.0000000180025095e-35 0.25696944445371633 -1.0638231635093687 0.59539720416069042 -1.0000000180025095e-35 -0.38300025463104242 0.70439237356185924 0.51970538496971141
decision_type=2 2 2 2 2 2 2 2 2 2 2 2 2 2 2 2 2 2 2
left_child=2 3 6 -2 7 8 13 9 -6 11 16 -4 -11 -1 18 -14 -8 -16 -10
right_child=1 -3 4 -5 5 -7 10 -9 14 12 -12 -13 15 -15 17 -17 -18 -19 -20
leaf_value=-32.097115555091101 43.607675970372973 169.37042769820602 -20.284818617876844 86.526361204713254 -1.8562987659016572 40.310005919512577 -22.443414387635141 14.418698604808135 10.422752865062035 -7.5169493641572735 -11.041564558861962 -9.0322201387999481 -1.6911875017951508 -27.080871942970045 16.213234791475188 4.933444519042971 -18.635090891940532 20.365799345128675 13.04092581356273
leaf_weight=27 7.0000000000000062 7.9999999999999991 4.9999999999999982 8.9999999999999982 6.0000000000000062 4.9999999999999991 21 4.9999999999999991 5.0000000000000018 5.0000000000000062 6.9999999999999991 6 5.0000000000000018 30 4.9999999999999982 5.9999999999999964 11.999999999999998 5 5
leaf_count=27 7 8 5 9 6 5 21 5 5 5 7 6 5 30 5 6 12 5 5
internal_value=2.2004 102.444 -12.8908 68.1371 6.31691 16.0927 -25.3596 -3.17396 11.2989 -6.47316 -19.3876 -14.284 -1.04767 -29.5091 15.2352 1.93387 -21.1191 18.4709 11.8483
internal_weight=184 24 160 16 63 31 97 32 26 27 40 11 16 57 20 11 33 10 10
internal_count=184 24 160 16 63 31 97 32 26 27 40 11 16 57 20 11 33 10 10
is_linear=0
shrinkage=0.03


Tree=22
num_leaves=22
num_cat=0
split_feature=2 15 12 0 9 18 2 18 2 4 3 15 3 2 16 6 9 2 2 4 18
split_gain=1.59724e+08 7.2216e+07 4.54021e+07 1.70035e+07 1.33774e+07 9.32384e+06 4.98614e+06 3.19942e+06 1.15385e+06 990081 1.8701e+06 803922 706718 696046 510956 415730 290370 222428 186052 183877 162201
threshold=0.75880256295204174 2.1234544515609746 2.5870993137359624 1.0000000180025095e-35 3.0284247398376469 1.8323897719383242 -0.54364079236984242 1.8323897719383242 1.0192911326885226 1.0000000180025095e-35 1.0000000180025095e-35 1.5615008473396303 0.56927071511745464 -1.0125204622745512 0.50245019793510448 1.0000000180025095e-35 1.0631170868873598 0.13362987339496615 0.49831400811672216 -0.56968981772661198 1.5844429731369021
decision_type=2 2 2 2 2 2 2 2 2 2 2 2 2 2 2 2 2 2 2 2 2
left_child=3 2 4 6 7 16 13 8 11 12 -11 -2 19 -1 15 -10 18 -12 -5 -8 -15
right_child=1 -3 -4 5 -6 -7 9 -9 14 10 17 -13 -14 20 -16 -17 -18 -19 -20 -21 -22
leaf_value=-30.371054083231673 -2.9214998100173308 141.87915820012327 102.70758080710827 -2.0305524782274569 66.391671070772063 43.624066377527576 -22.200472663704666 36.723898351332714 22.531415183937145 5.2882923363857559 -11.377598167741805 12.705716965619255 -7.9129204221631664 -24.621607858491632 8.5290975815141721 11.34761849796071 3.0114148667279412 -20.044880801930145 -9.8685582688275506 -16.375142665553732 -17.709044638241039
leaf_weight=30 6.9999999999999982 5.9999999999999991 6.9999999999999991 6.0000000000000053 4.9999999999999991 4.9999999999999991 13.000000000000004 4.9999999999999991 9.0000000000000018 6.0000000000000027 6.9999999999999982 5 5.9999999999999991 24.000000000000004 6.9999999999999991 4.9999999999999991 4.9999999999999991 5 5 11 4.9999999999999991
leaf_count=30 7 6 7 6 5 5 13 5 9 6 7 5 6 24 7 5 5 5 5 11 5
internal_value=2.13875 44.3514 32.3882 -16.3495 20.7291 8.29962 -21.1904 14.5623 11.1036 -13.963 -8.3288 3.64079 -17.3045 -27.0367 15.3304 18.6462 -2.94148 -15.125 -5.65036 -19.6097 -23.4948
internal_weight=184 56 50 128 43 21 107 38 33 48 18 12 30 59 21 14 16 12 11 24 29
internal_count=184 56 50 128 43 21 107 38 33 48 18 12 30 59 21 14 16 12 11 24 29
is_linear=0
shrinkage=0.03


Tree=23
num_leaves=23
num_cat=0
split_feature=2 15 12 0 9 18 2 18 2 4 3 15 3 2 16 6 9 2 2 4 18 2
split_gain=1.50406e+08 6.80175e+07 4.27538e+07 1.60087e+07 1.26029e+07 8.78342e+06 4.69081e+06 3.01442e+06 1.08635e+06 931618 1.76143e+06 757280 665042 654589 481108 391187 273535 209641 175277 173035 152127 877.794
threshold=0.75880256295204174 2.1234544515609746 2.5870993137359624 1.0000000180025095e-35 3.0284247398376469 1.8323897719383242 -0.54364079236984242 1.8323897719383242 1.0192911326885226 1.0000000180025095e-35 1.0000000180025095e-35 1.5615008473396303 0.56927071511745464 -1.0125204622745512 0.50245019793510448 1.0000000180025095e-35 1.0631170868873598 0.13362987339496615 0.49831400811672216 -0.56968981772661198 1.5844429731369021 -0.90832507610321034
decision_type=2 2 2 2 2 2 2 2 2 2 2 2 2 2 2 2 2 2 2 2 2 2
left_child=3 2 4 6 7 16 13 8 11 12 -11 -2 19 -1 15 -10 18 -12 -5 -8 21 -15
right_child=1 -3 -4 5 -6 -7 9 -9 14 10 17 -13 -14 20 -16 -17 -18 -19 -20 -21 -22 -23
leaf_value=-29.462948715868979 -2.8350894702320373 137.69256086380756 99.669749669894372 -1.9706343653944651 64.438973675896136 42.341003453871785 -21.53954271156368 35.643781810087312 21.862900538182508 5.1322441526319134 -11.041077717525861 12.332019572538487 -7.6794246285860668 -21.389791466081626 8.2768282006492075 11.013865248736215 2.922843879250919 -19.455326071346505 -9.5783063462201294 -15.888313804832659 -17.18819036147174 -24.782612379642948
leaf_weight=30 6.9999999999999982 5.9999999999999991 6.9999999999999991 6.0000000000000053 4.9999999999999991 4.9999999999999991 13.000000000000004 4.9999999999999991 9.0000000000000018 6.0000000000000027 6.9999999999999982 5 5.9999999999999991 7.0000000000000062 6.9999999999999991 4.9999999999999991 4.9999999999999991 5 5 11 4.9999999999999991 17
leaf_count=30 7 6 7 6 5 5 13 5 9 6 7 5 6 7 7 5 5 5 5 11 5 17
internal_value=2.0793 43.0423 31.432 -15.8616 20.118 8.05556 -20.5588 14.1324 10.7752 -13.5486 -8.08327 3.53398 -16.79 -26.2293 14.8765 18.0941 -2.85489 -14.6791 -5.48407 -19.0262 -22.7944 -23.886
internal_weight=184 56 50 128 43 21 107 38 33 48 18 12 30 59 21 14 16 12 11 24 29 24
internal_count=184 56 50 128 43 21 107 38 33 48 18 12 30 59 21 14 16 12 11 24 29 24
is_linear=0
shrinkage=0.03


Tree=24
num_leaves=20
num_cat=0
split_feature=1 1 2 1 1 2 1 6 0 0 1 1 4 1 4 1 0 2 0
split_gain=2.77473e+08 4.75317e+07 2.68438e+07 1.22324e+07 3.62121e+06 3.45685e+06 1.44154e+06 1.33643e+06 1.2971e+06 668196 514039 465092 418768 222393 87343.4 74060.7 41867.5 39132.3 19737.6
threshold=1.8080481886863711 0.22252129763364795 1.488170921802521 1.1938774585723879 -0.40852676331996912 0.44621615111827856 0.69028088450431835 1.0000000180025095e-35 -1.0000000180025095e-35 1.0000000180025095e-35 -0.82182225584983815 0.34724727272987371 0.71066792309284221 0.087154503911733641 1.0000000180025095e-35 0.51970538496971141 -0.39166991412639612 -0.23105438798665998 -1.1030966341495512
decision_type=2 2 2 2 2 2 2 2 2 2 2 2 2 2 2 2 2 2 2
left_child=1 4 7 5 10 12 11 -2 -5 16 18 -7 -3 14 -11 -13 -6 -12 -1
right_child=2 3 -4 8 9 6 -8 -9 -10 13 17 15 -14 -15 -16 -17 -18 -19 -20
leaf_value=-29.691618677669545 73.751723920036781 -11.262254906958276 170.58999791880123 27.408033160041356 -21.412571841969203 0.31559695190853532 20.282330007029103 101.61532111672793 49.235876845062762 -14.895251094630503 -24.374767134969268 6.5415903080685007 -1.0335744188652665 -4.5513278198242189 -9.5639009115729525 10.780465191378452 -17.006952663741945 -21.134087433510636 -26.270935608376067
leaf_weight=23.999999999999996 4.9999999999999982 8.9999999999999982 5.9999999999999991 5 5.0000000000000009 8.0000000000000018 8.9999999999999982 5 5.9999999999999982 6.0000000000000018 21 7.0000000000000027 5.9999999999999991 4.9999999999999991 7 9.9999999999999982 13 13.999999999999998 13.000000000000002
leaf_count=24 5 9 6 5 5 8 9 5 6 6 21 7 6 5 7 10 13 14 13
internal_value=1.20998 -10.1857 120.185 11.2112 -22.0723 4.75897 10.0429 88.552 39.6507 -14.2378 -25.9643 6.29045 -7.20492 -10.0543 -12.1197 9.08368 -18.3424 -23.1425 -28.5639
internal_weight=184 168 16 60 108 49 34 10 11 36 72 25 15 18 13 17 18 35 37
internal_count=184 168 16 60 108 49 34 10 11 36 72 25 15 18 13 17 18 35 37
is_linear=0
shrinkage=0.03


Tree=25
num_leaves=21
num_cat=0
split_feature=1 1 7 1 1 3 3 1 4 1 13 1 3 7 1 1 13 4 3 1
split_gain=2.61345e+08 4.47497e+07 2.54761e+07 1.15225e+07 3.40633e+06 1.65146e+06 1.31402e+06 906701 488242 483764 398398 273375 296229 271977 206736 54564.9 10605.6 4616.51 2797.55 353.247
threshold=1.8080481886863711 0.22252129763364795 1.0000000180025095e-35 1.1938774585723879 -0.40852676331996912 0.56927071511745464 1.0000000180025095e-35 0.57937014102935802 0.71066792309284221 -0.82182225584983815 1.1841027736663821 0.34724727272987371 0.56927071511745464 1.0000000180025095e-35 0.70439237356185924 -0.19130713492631909 1.3945930004119875 -0.56968981772661198 1.0000000180025095e-35 -1.2021474838256834
decision_type=2 2 2 2 2 2 2 2 2 2 2 2 2 2 2 2 2 2 2 2
left_child=1 4 -2 6 9 -5 -3 11 15 19 13 -8 -13 14 -9 18 -11 -17 -6 -1
right_child=2 3 -4 5 8 -7 7 10 -10 16 -12 12 -14 -15 -16 17 -18 -19 -20 -21
leaf_value=-28.964537717904623 89.681279626794762 -6.4451723960593901 173.03930147058824 27.096111340131916 -18.997351654553025 51.345070908490342 -3.290464825043911 11.701235100241254 -7.6361939180814309 -22.985717496576999 4.2332910806624611 -0.49488126285740602 8.5513694483797309 8.1206183811875654 20.83840138154871 -15.412791497902791 -19.537938132364243 -12.714938552211702 -15.936732335973668 -26.076398304721756
leaf_weight=19.999999999999996 10.999999999999998 7.9999999999999991 4.9999999999999991 5.9999999999999982 5.9999999999999991 5 6.0000000000000027 5.0000000000000053 8.9999999999999982 29 5.9999999999999991 5.9999999999999982 7 5.9999999999999991 5 6 5.9999999999999991 7.0000000000000018 7.9999999999999991 17.000000000000004
leaf_count=20 11 8 5 6 6 5 6 5 9 29 6 6 7 6 5 6 6 7 8 17
internal_value=1.17823 -9.88133 116.644 10.8799 -21.4148 38.4819 4.61776 6.78689 -13.8163 -25.1896 10.9195 1.96953 4.40404 13.3847 16.4312 -15.8404 -22.4521 -14.0685 -17.3741 -27.7115
internal_weight=184 168 16 60 108 11 49 41 36 72 22 19 13 16 10 27 35 13 14 37
internal_count=184 168 16 60 108 11 49 41 36 72 22 19 13 16 10 27 35 13 14 37
is_linear=0
shrinkage=0.03


Tree=26
num_leaves=20
num_cat=0
split_feature=2 15 12 9 2 18 15 18 2 4 9 2 12 2 2 9 16 3 2
split_gain=1.32205e+08 6.81263e+07 3.54451e+07 1.02629e+07 9.01698e+06 3.83332e+06 3.13202e+06 3.33628e+06 2.2738e+06 1.67608e+06 728571 695208 420542 345852 145873 130013 87430.6 66512.9 287.149
threshold=0.65460705757141124 2.1234544515609746 2.5870993137359624 3.0284247398376469 -0.43944527208805079 1.8323897719383242 1.7488188147544863 1.8323897719383242 1.0192911326885226 0.71066792309284221 1.0631170868873598 0.39411830902099615 1.2413924932479861 -1.0125204622745512 0.86299809813499462 0.54499065876007091 1.3768010139465334 1.4477552175521853 -1.3511556982994077
decision_type=2 2 2 2 2 2 2 2 2 2 2 2 2 2 2 2 2 2 2
left_child=4 2 3 6 13 9 7 8 14 11 12 15 -11 18 -2 16 -6 -10 -1
right_child=1 -3 -4 -5 5 -7 -8 -9 17 10 -12 -13 -14 -15 -16 -17 -18 -19 -20
leaf_value=-27.804458156185255 -0.58606903076171846 142.62497297399185 90.480817836707743 58.865573515050549 -18.353300444039181 14.527864229796364 32.02070222078914 32.651240485696235 14.696546784077789 -11.508277349337721 6.712103845932905 -4.8407493641337416 -0.1466371783088235 -21.786071897132373 -7.0872607870662918 -12.147923068194324 -13.130813769172221 10.323822927005956 -24.873818415963886
leaf_weight=18 8.0000000000000018 4.9999999999999991 6.9999999999999991 4.9999999999999991 18.000000000000007 5.9999999999999991 6.9999999999999991 4.9999999999999991 12.000000000000002 7.0000000000000018 4.9999999999999991 5.9999999999999991 5 32 4.9999999999999991 6.9999999999999991 4.9999999999999991 5.9999999999999991 14.999999999999998
leaf_count=18 8 5 7 5 18 6 7 5 12 7 5 6 5 32 5 7 5 6 15
internal_value=1.1464 37.6673 27.8842 18.5863 -16.5411 -8.02969 13.7769 10.1505 6.42792 -10.606 -2.82017 -14.2645 -6.81484 -24.2426 -3.12177 -16.1268 -17.2799 13.3042 -26.5516
internal_weight=184 60 55 48 124 59 43 36 31 53 17 36 12 65 13 30 23 18 33
internal_count=184 60 55 48 124 59 43 36 31 53 17 36 12 65 13 30 23 18 33
is_linear=0
shrinkage=0.03


Tree=27
num_leaves=20
num_cat=0
split_feature=1 2 1 3 1 0 1 1 7 1 2 1 1 3 2 2 0 16 2
split_gain=1.78385e+08 5.957e+07 2.4762e+07 4.23708e+06 2.61881e+06 2.37014e+06 2.04472e+06 629031 451373 362430 321632 308688 244257 121730 79341.1 73313.2 16447.8 12376.9 9438.17
threshold=1.31683886051178 1.3839753866195681 0.22252129763364795 0.56927071511745464 -0.50048688054084767 -0.39166991412639612 0.59539720416069042 0.29104016721248632 1.0000000180025095e-35 -0.19130713492631909 0.91509580612182628 -0.80094358325004567 0.70439237356185924 0.56927071511745464 0.39411830902099615 1.1755844950675967 -1.1030966341495512 1.01809298992157 -0.23105438798665998
decision_type=2 2 2 2 2 2 2 2 2 2 2 2 2 2 2 2 2 2 2
left_child=2 3 4 -2 11 -4 7 -7 15 17 -8 16 -12 14 -11 -9 -1 -6 -13
right_child=1 -3 5 -5 9 6 10 8 -10 13 12 18 -14 -15 -16 -17 -18 -19 -20
leaf_value=-27.127349240732382 35.979153238932263 170.54862477022061 -9.6382062219690408 67.735448902271415 -16.183489015946471 -6.8113538315716866 10.219904494989109 4.8786235671746896 -2.7715944536994486 -16.025685424804681 13.765623240751381 -22.410333335818219 23.372617357597974 -7.474519853435579 -10.576106717821578 9.310742035750506 -24.163827082147662 -19.202343329757944 -19.256311893672734
leaf_weight=25 8.0000000000000053 4.9999999999999991 7.9999999999999991 7.9999999999999991 16.000000000000004 5.0000000000000027 6.0000000000000027 6.0000000000000027 4.9999999999999991 5.0000000000000018 4.9999999999999982 13.000000000000002 6 5.9999999999999991 7 8.9999999999999982 14.999999999999998 5.9999999999999991 8.9999999999999982
leaf_count=25 8 5 8 8 16 5 6 6 5 5 5 13 6 6 7 9 15 6 9
internal_value=-0.705611 81.0375 -12.0449 52.1796 -20.5162 5.24285 8.09357 2.614 4.99265 -14.4667 16.0892 -24.3895 19.1694 -11.1835 -12.9607 7.58214 -26.0791 -17.0901 -21.2132
internal_weight=173 21 152 16 102 50 42 25 20 40 17 62 11 18 12 15 40 22 22
internal_count=173 21 152 16 102 50 42 25 20 40 17 62 11 18 12 15 40 22 22
is_linear=0
shrinkage=0.03


Tree=28
num_leaves=21
num_cat=0
split_feature=1 2 1 3 1 0 1 1 7 1 0 1 1 4 4 1 1 0 16 13
split_gain=1.67996e+08 5.61288e+07 2.33122e+07 3.9897e+06 2.46364e+06 2.23195e+06 1.92616e+06 592446 425075 340883 302973 290144 229972 201340 115671 54888.7 25641.5 15355.3 11809.7 8902.16
threshold=1.31683886051178 1.3839753866195681 0.22252129763364795 0.56927071511745464 -0.50048688054084767 -0.39166991412639612 0.59539720416069042 0.29104016721248632 1.0000000180025095e-35 -0.19130713492631909 1.0311834812164309 -0.80094358325004567 0.70439237356185924 0.71066792309284221 1.3508467674255373 0.087154503911733641 0.51970538496971141 -1.1030966341495512 1.01809298992157 0.76312220096588146
decision_type=2 2 2 2 2 2 2 2 2 2 2 2 2 2 2 2 2 2 2 2
left_child=2 3 4 -2 11 -4 7 -7 14 18 -8 17 -12 15 16 -11 -9 -1 -6 -13
right_child=1 -3 5 -5 9 6 10 8 -10 13 12 19 -14 -15 -16 -17 -18 -19 -20 -21
leaf_value=-26.316771459085533 34.913104383680519 165.53248779296877 -9.3526297336154531 65.728473714192717 -15.700999907499508 -6.6110199333639672 9.9183333900326556 3.7516553452435644 -2.6900770434211281 -15.33321423640016 13.360751917221965 -21.521816462838881 22.682932899350021 -6.2076561899654203 11.086464592428769 -10.663338738113151 6.9446841430664064 -23.443713168718958 -18.635717153080176 -18.29424445353763
leaf_weight=25 8.0000000000000053 4.9999999999999991 7.9999999999999991 7.9999999999999991 16.000000000000004 5.0000000000000027 6.0000000000000009 5.0000000000000018 4.9999999999999991 6.0000000000000018 5 15.000000000000002 6 5.9999999999999991 4.9999999999999991 6 5 14.999999999999998 5.9999999999999991 6.9999999999999991
leaf_count=25 8 5 8 8 16 5 6 5 5 6 5 15 6 6 5 6 5 15 6 7
internal_value=-0.681772 78.6454 -11.686 50.6335 -19.9055 5.0881 7.85447 2.53612 4.84457 -14.0379 15.6148 -23.6623 18.6044 -10.8537 7.3575 -13.1059 5.40142 -25.3006 -16.5822 -20.5824
internal_weight=173 21 152 16 102 50 42 25 20 40 17 62 11 18 15 12 10 40 22 22
internal_count=173 21 152 16 102 50 42 25 20 40 17 62 11 18 15 12 10 40 22 22
is_linear=0
shrinkage=0.03


Tree=29
num_leaves=20
num_cat=0
split_feature=1 15 1 12 0 0 1 1 1 7 1 0 1 1 1 3 15 1 1
split_gain=1.58212e+08 5.59024e+07 2.19481e+07 5.07905e+06 2.33105e+06 2.10196e+06 1.81421e+06 558110 551117 400440 309272 285396 216522 139570 117493 59237.8 43997.4 20845.6 12715.2
threshold=1.31683886051178 1.992331922054291 0.22252129763364795 2.5870993137359624 -0.39166991412639612 -0.39166991412639612 0.59539720416069042 0.29104016721248632 -0.19130713492631909 1.0000000180025095e-35 1.6818874478340151 1.0311834812164309 0.70439237356185924 -1.2021474838256834 0.087154503911733641 0.56927071511745464 1.7488188147544863 -0.2779343426227569 -0.11439673230051993
decision_type=2 2 2 2 2 2 2 2 2 2 2 2 2 2 2 2 2 2 2
left_child=2 3 4 10 13 -4 7 -7 16 15 -2 -8 -13 -1 18 -9 17 -6 -10
right_child=1 -3 5 -5 8 6 11 9 14 -11 -12 12 -14 -15 -16 -17 -18 -19 -20
leaf_value=-25.693398034281319 41.62295420162009 163.01729578354781 -9.075514752423322 73.494312815946699 -16.72831086323523 -6.4165781267951481 9.6256612108574533 4.3349868235868536 -10.048090892118568 -2.6109570918363683 29.473802131204039 12.967788732192094 22.013600764040085 -21.997956286657971 -6.2299463540999618 8.487074192160426 -19.973805182961858 -13.801215356101446 -13.188345911362592
leaf_weight=22 6.0000000000000053 4.9999999999999991 7.9999999999999991 4.9999999999999991 19.000000000000004 5.0000000000000027 6.0000000000000009 5.0000000000000027 4.9999999999999991 4.9999999999999991 5 5 6 33 5.9999999999999991 9.9999999999999982 4.9999999999999991 7.0000000000000027 4.9999999999999991
leaf_count=22 6 5 8 5 19 5 6 5 5 5 5 5 6 33 6 10 5 7 5
internal_value=-0.658562 76.3239 -11.3375 48.3878 -19.3129 4.9384 7.62301 2.46153 -14.3501 4.70209 36.4162 15.1545 18.056 -23.5201 -9.7214 7.14112 -16.7001 -15.9963 -11.7335
internal_weight=173 21 152 16 102 50 42 25 47 20 11 17 11 55 16 15 31 26 10
internal_count=173 21 152 16 102 50 42 25 47 20 11 17 11 55 16 15 31 26 10
is_linear=0
shrinkage=0.03


Tree=30
num_leaves=20
num_cat=0
split_feature=1 2 1 3 1 2 2 2 1 7 1 15 6 1 4 2 1 1 1
split_gain=2.13373e+08 3.7471e+07 2.49909e+07 6.5823e+06 5.44808e+06 2.83598e+06 2.32474e+06 1.43898e+06 867386 857606 445102 299524 235202 225766 162178 134293 78940.6 60086.2 22483.8
threshold=1.5549779534339907 1.488170921802521 0.29104016721248632 0.56927071511745464 1.1938774585723879 0.31597177684307104 0.81090039014816295 1.1234868168830874 -0.67693784832954396 1.0000000180025095e-35 0.69028088450431835 1.0000000180025095e-35 1.0000000180025095e-35 0.57937014102935802 1.3508467674255373 -0.43944527208805079 -1.2021474838256834 -0.11439673230051993 -0.2779343426227569
decision_type=2 2 2 2 2 2 2 2 2 2 2 2 2 2 2 2 2 2 2
left_child=2 3 5 -2 6 8 9 -5 16 12 14 17 13 -4 -8 -10 -1 -7 -17
right_child=1 -3 4 7 -6 11 10 -9 15 -11 -12 -13 -14 -15 -16 18 -18 -19 -20
leaf_value=-24.950290108296407 39.520961124195743 164.09470415900736 -2.1119235678280077 96.071253733915455 29.641961579499419 -12.332788966444669 3.3685101780421287 68.226409768497234 -19.657243894867548 -12.400279347594354 15.604093899197048 -1.391343365837546 -5.2067029526654407 6.4544130969438394 10.135599435274717 -16.485435487286171 -21.715941791337791 -8.1510357900766213 -13.709214861834484
leaf_weight=20 5.0000000000000027 4.9999999999999991 5.0000000000000053 4.9999999999999982 7.9999999999999991 6.0000000000000009 7.0000000000000018 5 14.999999999999998 6.9999999999999991 7.9999999999999991 4.9999999999999991 4.9999999999999991 6 6 21 29 9 8.0000000000000018
leaf_count=20 5 5 5 5 8 6 7 5 15 7 8 5 5 6 6 21 29 9 8
internal_value=1.06399 93.3516 -10.1721 68.8398 7.02965 -18.0872 2.86036 82.9625 -20.2917 -3.72286 10.0542 -7.78638 0.126766 2.57641 6.54554 -17.1365 -23.0843 -9.89453 -15.7694
internal_weight=185 20 165 15 52 113 44 10 93 23 21 20 16 11 13 44 49 15 29
internal_count=185 20 165 15 52 113 44 10 93 23 21 20 16 11 13 44 49 15 29
is_linear=0
shrinkage=0.03


Tree=31
num_leaves=19
num_cat=0
split_feature=1 2 1 1 0 0 0 1 1 7 1 15 15 4 0 0 1 1
split_gain=2.00988e+08 3.52992e+07 2.3525e+07 5.13e+06 2.75151e+06 2.66828e+06 2.41087e+06 815944 524178 300686 291361 282043 272281 211557 126406 91648.8 56635.7 21045.7
threshold=1.5549779534339907 1.488170921802521 0.29104016721248632 1.1938774585723879 -0.39166991412639612 1.0000000180025095e-35 1.0311834812164309 -0.67693784832954396 0.69028088450431835 1.0000000180025095e-35 0.82828688621521007 1.0000000180025095e-35 1.2992557883262636 1.3508467674255373 -0.39166991412639612 -1.1030966341495512 -0.11439673230051993 -0.2779343426227569
decision_type=2 2 2 2 2 2 2 2 2 2 2 2 2 2 2 2 2 2
left_child=2 6 5 4 9 7 -2 15 12 -4 -10 16 13 -6 -9 -1 -7 -16
right_child=1 -3 3 -5 8 11 -8 14 10 -11 -12 -13 -14 -15 17 -17 -18 -19
leaf_value=-24.094496816659902 55.639218428056303 159.26839154411766 -5.2898821376746819 28.763680600766783 3.3956311269906845 -11.968870599465289 82.391524297995645 -19.071432264719576 16.244049656827688 -14.993691154928767 6.5779469568589146 -1.3504214253145108 -1.6815679460413313 10.692856465324027 -15.993216312643474 -20.804168673109732 -7.9091919481885293 -13.303015611436626
leaf_weight=23 9.0000000000000018 4.9999999999999991 6.9999999999999982 7.9999999999999991 9.0000000000000018 6.0000000000000009 5.9999999999999991 14.999999999999998 6.9999999999999982 5 5 4.9999999999999991 4.9999999999999991 5.9999999999999991 21 26 9 8.0000000000000018
leaf_count=23 9 5 7 8 9 6 6 15 7 5 5 5 5 6 21 26 9 8
internal_value=1.03685 90.606 -9.8683 6.82138 2.77562 -17.5478 66.8151 -19.6861 7.36564 -9.42388 12.3044 -7.55607 4.35575 6.3662 -16.6258 -22.3946 -9.60177 -15.2995
internal_weight=185 20 165 52 44 113 15 93 32 12 12 20 20 15 44 49 15 29
internal_count=185 20 165 52 44 113 15 93 32 12 12 20 20 15 44 49 15 29
is_linear=0
shrinkage=0.03


Tree=32
num_leaves=20
num_cat=0
split_feature=1 2 1 3 1 0 0 2 1 1 7 1 15 15 4 0 0 1 1
split_gain=1.89286e+08 3.32625e+07 2.21451e+07 6.07392e+06 4.83051e+06 2.59154e+06 2.5105e+06 1.44129e+06 767547 493686 283312 274309 265582 256439 199287 118982 86279 53383.4 19699
threshold=1.5549779534339907 1.488170921802521 0.29104016721248632 0.56927071511745464 1.1938774585723879 -0.39166991412639612 1.0000000180025095e-35 1.1234868168830874 -0.67693784832954396 0.69028088450431835 1.0000000180025095e-35 0.82828688621521007 1.0000000180025095e-35 1.2992557883262636 1.3508467674255373 -0.39166991412639612 -1.1030966341495512 -0.11439673230051993 -0.2779343426227569
decision_type=2 2 2 2 2 2 2 2 2 2 2 2 2 2 2 2 2 2 2
left_child=2 3 6 -2 5 10 8 -5 16 13 -4 -11 17 14 -7 -10 -1 -8 -17
right_child=1 -3 4 7 -6 9 12 -9 15 11 -12 -13 -14 -15 -16 18 -18 -19 -20
leaf_value=-23.3747914182985 36.722131922104751 154.58402372472426 -5.1334207712092876 91.294448529411781 27.911423656322338 3.2948815934736637 -11.615691068055197 63.953837531594658 -18.503078407136019 15.763591480523772 -14.552700572294345 6.384477808335248 -1.3107032237333411 -1.6321100594015683 10.377329496790152 -15.515693738313647 -20.182434860755656 -7.6745235267052276 -12.908852267795133
leaf_weight=23 5.0000000000000027 4.9999999999999991 6.9999999999999982 4.9999999999999982 7.9999999999999991 9.0000000000000018 6.0000000000000009 5 14.999999999999998 6.9999999999999982 5 5 4.9999999999999991 4.9999999999999991 5.9999999999999991 21 26 9 8.0000000000000018
leaf_count=23 5 5 7 5 8 9 6 5 15 7 5 5 5 5 6 21 26 9 8
internal_value=1.00941 87.9322 -9.57354 64.8381 6.61925 2.69337 -17.0244 78.393 -19.0985 7.14797 -9.1462 11.9409 -7.33256 4.22693 6.17802 -16.1303 -21.7255 -9.31767 -14.8435
internal_weight=185 20 165 15 52 44 113 10 93 32 12 12 20 20 15 44 49 15 29
internal_count=185 20 165 15 52 44 113 10 93 32 12 12 20 20 15 44 49 15 29
is_linear=0
shrinkage=0.03


Tree=33
num_leaves=22
num_cat=0
split_feature=2 15 12 2 2 18 4 4 16 15 2 20 2 2 2 2 2 9 4 4 9
split_gain=7.64027e+07 5.29621e+07 1.81891e+07 5.76156e+06 2.50212e+06 1.44429e+06 1.38557e+06 956698 534189 455945 330119 194120 179870 318491 162575 129609 112638 45096 35074 28988.8 14245.2
threshold=0.65460705757141124 2.1234544515609746 2.5870993137359624 -0.54364079236984242 0.96719348430633556 1.7828003764152529 0.71066792309284221 1.0000000180025095e-35 0.59212723374366771 1.7488188147544863 1.3318775296211245 2.0362125039100651 0.44621615111827856 0.18572755157947543 0.029434193857014183 -1.0125204622745512 0.18572755157947543 1.0631170868873598 -0.56968981772661198 0.71066792309284221 1.0000000180025095e-35
decision_type=2 2 2 2 2 2 2 2 2 2 2 2 2 2 2 2 2 2 2 2 2
left_child=3 2 4 15 6 7 -2 14 10 12 11 19 13 -9 18 -1 -16 -17 -5 -6 -15
right_child=1 -3 -4 5 8 -7 -8 9 -10 -11 -12 -13 -14 20 16 17 -18 -19 -20 -21 -22
leaf_value=-21.673785033394669 14.014580131853135 121.24266019933366 73.699725557215061 -15.956330783957299 4.7769764081169521 3.9743764554537266 32.584361459237549 -0.68955210088373464 1.8385446457124093 -13.247895130830653 16.793893522880449 13.414332710641331 1.1358300431048283 -9.7745422497917662 -6.6863012019923493 -19.094512038305787 -12.716890058673794 -14.808986475327437 -12.535471790454999 7.9869440041125657 -6.9770427389705878
leaf_weight=31 6.9999999999999973 4.9999999999999991 4.9999999999999991 10 5.0000000000000053 8.9999999999999982 8 9.0000000000000089 6.9999999999999991 4.9999999999999991 6.9999999999999991 5.9999999999999991 5.9999999999999991 4.9999999999999982 5.9999999999999982 19.000000000000004 6 4.9999999999999991 8.0000000000000036 7 5
leaf_count=31 7 5 5 10 5 9 8 9 7 5 7 6 6 5 6 19 6 5 8 7 5
internal_value=0.228102 28.9467 19.8563 -12.9858 13.9839 -7.19606 24.0689 -8.8755 9.19625 -5.06145 11.2408 9.00018 -3.37779 -4.80178 -12.66 -20.2231 -9.78202 -18.267 -14.5138 6.70024 -8.45902
internal_weight=181 57 52 124 47 69 15 60 32 30 25 18 25 19 30 55 12 24 18 12 10
internal_count=181 57 52 124 47 69 15 60 32 30 25 18 25 19 30 55 12 24 18 12 10
is_linear=0
shrinkage=0.03


Tree=34
num_leaves=21
num_cat=0
split_feature=1 1 1 3 0 1 1 2 15 1 0 3 1 1 4 2 9 2 1 0
split_gain=1.60351e+08 3.09949e+07 9.39705e+06 3.74252e+06 2.73432e+06 1.79573e+06 1.50677e+06 444677 312795 354027 259890 224638 189228 167354 123667 28938.3 24104.7 17545.6 16854.4 56.2766
threshold=1.9731494784355166 0.22252129763364795 1.1938774585723879 0.56927071511745464 -0.39166991412639612 -0.51738402247428883 0.64048960804939281 0.91509580612182628 1.2992557883262636 0.29104016721248632 1.0000000180025095e-35 1.0000000180025095e-35 -0.13238021731376645 -0.82182225584983815 1.3508467674255373 1.1755844950675967 0.54499065876007091 -0.23105438798665998 0.087154503911733641 -1.1030966341495512
decision_type=2 2 2 2 2 2 2 2 2 2 2 2 2 2 2 2 2 2 2 2
left_child=1 5 4 -4 11 13 8 -8 9 -6 16 -3 -12 19 -11 -9 17 -7 -14 -1
right_child=-2 2 3 -5 6 10 7 15 -10 14 12 -13 18 -15 -16 -17 -18 -19 -20 -21
leaf_value=-21.963669236052585 122.95285126738496 -14.884980181525739 17.948427660596238 48.732755997454532 -2.6673093369427812 -15.745796844147051 6.1457536046645185 19.314758157169123 -3.6645201310955109 4.0575244423195169 -12.826738367215002 -5.7459034998276639 -7.5511949307801309 -17.555883796989143 9.8224006077500636 15.023268024283393 -11.148837316176472 -13.150360820275226 -4.916743751974666 -19.65994187216722
leaf_weight=23.999999999999996 8.9999999999999982 4.9999999999999982 8.9999999999999982 5.9999999999999991 5.0000000000000062 9.0000000000000053 5.0000000000000027 4.9999999999999982 5.9999999999999991 7.9999999999999982 7.0000000000000027 5 5.9999999999999982 23 6 7 4.9999999999999991 12.999999999999998 5 13.000000000000002
leaf_count=24 9 5 9 6 5 9 5 5 6 8 7 5 6 23 6 7 5 13 5 13
internal_value=0.223864 -6.26569 9.66809 30.5035 3.61079 -16.4325 6.96783 13.8316 2.26385 4.14551 -11.8545 -10.4179 -8.96207 -19.8405 6.58054 16.9565 -13.7425 -14.2787 -6.40907 -21.2095
internal_weight=181 172 67 15 52 105 42 17 25 19 45 10 18 60 14 12 27 22 11 37
internal_count=181 172 67 15 52 105 42 17 25 19 45 10 18 60 14 12 27 22 11 37
is_linear=0
shrinkage=0.03


Tree=35
num_leaves=20
num_cat=0
split_feature=1 1 1 3 0 1 1 2 15 1 1 2 3 1 4 4 2 4 1
split_gain=1.50973e+08 2.9181e+07 8.8496e+06 3.52562e+06 2.57564e+06 1.68896e+06 1.41929e+06 418783 294586 333442 245665 244755 211616 157568 116497 47429.2 27331.6 24830.5 6510.97
threshold=1.9731494784355166 0.22252129763364795 1.1938774585723879 0.56927071511745464 -0.39166991412639612 -0.51738402247428883 0.64048960804939281 0.91509580612182628 1.2992557883262636 0.29104016721248632 -0.19130713492631909 0.029434193857014183 1.0000000180025095e-35 -0.82182225584983815 1.3508467674255373 1.0000000180025095e-35 1.1755844950675967 1.0000000180025095e-35 -0.01677738036960363
decision_type=2 2 2 2 2 2 2 2 2 2 2 2 2 2 2 2 2 2 2
left_child=1 5 4 -4 12 13 8 -8 9 -6 17 -12 -3 -1 -11 -13 -9 -7 -17
right_child=-2 2 3 -5 6 10 7 16 -10 14 11 15 -14 -15 -16 18 -18 -19 -20
leaf_value=-20.576589115276491 119.30479895958534 -14.447186315199913 17.415892367520172 47.294741250960548 -2.5888590554630015 -12.507140461228644 5.9649961942784886 18.746677210190722 -3.5563867931678645 3.9373014888057005 -14.673088558421407 -9.3771022931267236 -5.5769063074448519 -17.031487252371651 9.5325591340612181 -6.5186569572897515 14.578917408258143 -15.150457985008154 -4.6363033092723178
leaf_weight=37 8.9999999999999982 4.9999999999999982 8.9999999999999982 5.9999999999999991 5.0000000000000062 16.000000000000004 5.0000000000000027 4.9999999999999982 5.9999999999999991 7.9999999999999982 5.0000000000000027 4.9999999999999991 5 23 6 5 7 8.9999999999999982 4.9999999999999982
leaf_count=37 9 5 9 6 5 16 5 5 6 8 5 5 5 23 6 5 7 9 5
internal_value=0.218678 -6.07826 9.38225 29.6017 3.50404 -15.9431 6.76222 13.4237 2.19684 4.02291 -11.5032 -8.9331 -10.1115 -19.2483 6.38608 -6.93507 16.4563 -13.5154 -5.633
internal_weight=181 172 67 15 52 105 42 17 25 19 45 20 10 60 14 15 12 25 10
internal_count=181 172 67 15 52 105 42 17 25 19 45 20 10 60 14 15 12 25 10
is_linear=0
shrinkage=0.03


Tree=36
num_leaves=19
num_cat=0
split_feature=1 1 1 1 2 0 0 1 1 15 1 1 4 1 4 1 1 2
split_gain=1.4713e+08 3.28866e+07 1.99572e+07 4.03808e+06 3.99489e+06 2.29564e+06 1.66671e+06 1.2054e+06 423097 336538 242075 165513 150295 123365 75453.8 45507.3 12821.2 1322.66
threshold=1.5549779534339907 2.1099295616149907 0.25696944445371633 1.1938774585723879 0.86299809813499462 -0.39166991412639612 -0.39166991412639612 0.70439237356185924 0.087154503911733641 1.7488188147544863 0.311512440443039 -0.38300025463104242 1.3508467674255373 -1.0793257951736448 0.71066792309284221 -0.13238021731376645 -0.60199180245399464 0.2378252372145653
decision_type=2 2 2 2 2 2 2 2 2 2 2 2 2 2 2 2 2 2
left_child=2 4 6 5 -2 -4 13 9 11 10 -7 16 -12 -1 15 17 -8 -13
right_child=1 -3 3 -5 -6 7 8 -9 -10 -11 12 14 -14 -15 -16 -17 -18 -19
leaf_value=-20.744117242454163 67.354995065608463 137.11057256980021 -9.8987583235855947 29.607848900966953 33.04251967133068 -0.8640041934742636 -16.35114816171151 14.703463545870187 -5.2351261082401992 -3.7165050416834213 3.6980139781810619 -11.506215610191466 9.5718955937138315 -17.620638497539979 -7.4055304044835717 -14.27166665999615 -13.764239236380307 -9.4924428270683894
leaf_weight=27 7.0000000000000018 5.9999999999999991 8.9999999999999982 5.9999999999999991 6 5.0000000000000062 8.0000000000000018 11.999999999999998 7.9999999999999991 4.9999999999999991 7.9999999999999991 6.0000000000000018 7.9999999999999991 34 4.9999999999999991 6.0000000000000027 12.999999999999998 6
leaf_count=27 7 6 9 6 6 5 8 12 8 5 8 6 8 34 5 6 13 6
internal_value=0.527262 79.3801 -8.5404 6.63968 51.8918 3.65087 -15.6599 6.87763 -11.6717 3.22309 4.8853 -12.8274 6.67635 -19.0349 -10.9492 -11.887 -14.8227 -10.5863
internal_weight=185 19 166 53 13 47 113 38 52 26 21 44 16 61 23 18 21 12
internal_count=185 19 166 53 13 47 113 38 52 26 21 44 16 61 23 18 21 12
is_linear=0
shrinkage=0.03


Tree=37
num_leaves=19
num_cat=0
split_feature=1 1 1 1 2 1 15 4 1 1 1 16 3 4 1 2 2 2
split_gain=1.38912e+08 2.51711e+07 2.2509e+07 6.11245e+06 2.11068e+06 1.8449e+06 944058 874607 566273 315174 228281 178827 114086 98561.2 76420.7 64565.6 36223.7 23608.1
threshold=1.6818874478340151 2.1099295616149907 0.29104016721248632 1.1938774585723879 -0.54364079236984242 -0.44295731186866755 1.2992557883262636 1.3508467674255373 0.70439237356185924 0.087154503911733641 -0.86478054523468006 0.90599676966667186 0.56927071511745464 0.71066792309284221 -0.01677738036960363 0.65460705757141124 -0.12685886025428769 -0.12685886025428769
decision_type=2 2 2 2 2 2 2 2 2 2 2 2 2 2 2 2 2 2
left_child=2 7 5 4 -4 10 8 -2 12 13 -1 -8 -6 14 16 -11 -7 -12
right_child=1 -3 3 -5 6 9 11 -9 -10 15 17 -13 -14 -15 -16 -17 -18 -19
leaf_value=-19.651625662087735 64.448644875919129 133.06468733990778 -10.956936982920473 31.067865781679259 2.8103549194335904 -13.735199529929231 -4.9284623448988976 43.835377269071678 15.037564804489548 -8.400522296007944 -16.737820235172592 3.0181849389917708 8.101435265871558 -7.8609836816006027 -16.004761496151186 -3.8492703816588492 -10.489138735335395 -14.267907236460092
leaf_weight=36 4.9999999999999982 5.9999999999999991 6.9999999999999991 8.9999999999999982 6.0000000000000062 6.0000000000000027 4.9999999999999982 5 10.999999999999998 4.9999999999999982 25 5 9.9999999999999982 5.9999999999999991 5.0000000000000027 7 14.999999999999998 10.999999999999998
leaf_count=36 5 6 7 9 6 6 5 5 11 5 25 5 10 6 5 7 15 11
internal_value=0.514103 84.7173 -7.50317 8.68308 4.04424 -14.8997 6.90426 54.6784 9.81146 -10.0212 -17.863 -0.964298 6.14725 -11.5812 -12.4062 -5.79963 -11.4774 -16.0248
internal_weight=185 16 169 53 44 116 37 10 27 44 72 10 16 32 26 12 21 36
internal_count=185 16 169 53 44 116 37 10 27 44 72 10 16 32 26 12 21 36
is_linear=0
shrinkage=0.03


Tree=38
num_leaves=22
num_cat=0
split_feature=1 1 1 1 0 1 1 4 17 1 1 4 3 4 1 2 2 2 2 1 4
split_gain=1.30838e+08 2.3704e+07 2.11887e+07 5.75531e+06 2.23735e+06 1.73492e+06 863893 823906 397243 296696 214892 156840 195199 92759.8 72128.8 60841.4 34214.3 17704.2 3971.42 119.932 111.499
threshold=1.6818874478340151 2.1099295616149907 0.29104016721248632 1.1938774585723879 -0.39166991412639612 -0.44295731186866755 0.70439237356185924 1.3508467674255373 1.0921276211738589 0.087154503911733641 -0.82182225584983815 1.3508467674255373 0.56927071511745464 0.71066792309284221 -0.01677738036960363 0.65460705757141124 -0.12685886025428769 -0.12685886025428769 -1.0125204622745512 -0.19130713492631909 0.71066792309284221
decision_type=2 2 2 2 2 2 2 2 2 2 2 2 2 2 2 2 2 2 2 2 2
left_child=2 7 5 4 -4 10 8 -2 11 13 18 12 -6 14 16 -11 -7 -12 -1 -18 -8
right_child=1 -3 3 -5 6 9 20 -9 -10 15 17 -13 -14 -15 -16 -17 19 -19 -20 -21 -22
leaf_value=-19.489140562077161 62.553095954446235 129.13818987736937 -9.3459087111923722 30.14607180417239 -0.76559258853687873 -13.329898876753003 12.480038106949605 42.546101505055141 -3.5089862172743853 -8.1534478897206952 -16.148116042892653 9.1062612688982938 7.5616580200195314 -7.6290202331542973 -15.534033239028025 -3.7354188021807597 -10.788477655767082 -13.843726179793073 -17.099713590852502 -9.096350352803217 14.989260368972527
leaf_weight=28.999999999999996 4.9999999999999982 5.9999999999999991 8.9999999999999982 8.9999999999999982 5.0000000000000053 6.0000000000000027 5.9999999999999982 5 4.9999999999999991 4.9999999999999982 23 7.9999999999999991 5 5.9999999999999991 5.0000000000000027 7 9 10.999999999999998 9.0000000000000018 5.9999999999999973 6
leaf_count=29 5 6 9 9 5 6 6 5 5 5 23 8 5 6 5 7 9 11 9 6 6
internal_value=0.501506 82.2208 -7.27926 8.42509 3.9238 -14.4556 7.35301 53.0702 3.91869 -9.72467 -17.3292 5.99009 3.43138 -11.2383 -12.0386 -5.62868 -11.1366 -15.4454 -18.9697 -10.1765 13.8484
internal_weight=185 16 169 53 44 116 35 10 23 44 72 18 10 32 26 12 21 34 38 15 12
internal_count=185 16 169 53 44 116 35 10 23 44 72 18 10 32 26 12 21 34 38 15 12
is_linear=0
shrinkage=0.03


Tree=39
num_leaves=22
num_cat=0
split_feature=2 15 2 12 12 18 16 2 0 9 18 4 20 9 16 12 0 2 5 2 4
split_gain=5.80554e+07 3.39993e+07 1.63981e+07 4.10026e+06 3.03742e+06 3.01232e+06 2.43246e+06 2.31937e+06 999200 660786 332481 403545 294832 181897 168175 163722 156969 127742 77019.7 52801.5 18027.6
threshold=1.3318775296211245 1.992331922054291 0.31597177684307104 1.9936509728431704 0.88198012113571178 1.8323897719383242 1.5561549067497256 -0.75203168392181385 1.0311834812164309 2.2423017024993901 1.7332110404968264 -0.56968981772661198 1.6405401825904848 0.25912775844335562 0.50245019793510448 1.483787000179291 -1.1030966341495512 0.75880256295204174 1.0000000180025095e-35 1.0000000180025095e-35 0.71066792309284221
decision_type=2 2 2 2 2 2 2 2 2 2 2 2 2 2 2 2 2 2 2 2 2
left_child=2 4 7 5 -2 6 8 16 17 10 11 19 -12 -10 15 -13 -1 20 -18 -9 -4
right_child=1 -3 3 -5 -6 -7 -8 9 13 -11 12 14 -14 -15 -16 -17 18 -19 -20 -21 -22
leaf_value=-18.534845280785269 14.533819247025702 115.96748965992649 -3.7354701484428645 30.562390917168287 43.787646026611327 26.448273279526653 16.09875708276099 -15.183136884200671 2.6899072378653068 2.0555345782111671 0.85178109561695792 -10.873076768079331 -9.3838874727136936 9.9904940795898423 -3.4981422099129098 -4.4758616638183595 -16.121328163958605 -7.2870266028678063 -11.493439501152665 -11.124112919041369 -1.5734818305343878
leaf_weight=31 9.0000000000000018 4.9999999999999991 9.0000000000000018 5.9999999999999991 4.9999999999999991 4.9999999999999991 8.9999999999999982 11.999999999999998 7.9999999999999982 4.9999999999999991 4.9999999999999982 15.000000000000009 5 5 5.9999999999999991 4.9999999999999991 14.000000000000002 9.9999999999999982 5.9999999999999991 5.9999999999999991 5.9999999999999991
leaf_count=31 9 5 9 6 5 5 9 12 8 5 5 15 5 5 6 5 14 10 6 6 6
internal_value=0.0190177 49.5819 -5.61246 7.28689 25.2183 4.54769 2.16657 -12.4144 -1.16667 -8.34114 -9.30587 -10.4293 -4.30799 5.55288 -7.98295 -9.30415 -17.101 -4.66916 -14.7972 -13.8992 -2.88702
internal_weight=187 19 168 58 14 52 47 110 38 59 54 44 10 13 26 20 51 25 20 18 15
internal_count=187 19 168 58 14 52 47 110 38 59 54 44 10 13 26 20 51 25 20 18 15
is_linear=0
shrinkage=0.03


Tree=40
num_leaves=22
num_cat=0
split_feature=1 2 1 1 0 3 1 1 2 1 7 2 17 0 1 2 4 3 2 2 1
split_gain=9.82302e+07 2.47e+07 1.93416e+07 4.00556e+06 1.86192e+06 1.59615e+06 1.48327e+06 598748 593593 367070 316820 152692 149085 136964 128908 121058 74467.2 57484.2 17235.7 16760.9 7490.18
threshold=1.8080481886863711 1.488170921802521 0.29104016721248632 1.1938774585723879 -0.39166991412639612 0.56927071511745464 -0.50048688054084767 0.59539720416069042 0.91509580612182628 0.087154503911733641 1.0000000180025095e-35 0.44621615111827856 0.10976245999336244 -1.1030966341495512 0.70439237356185924 0.2378252372145653 1.3508467674255373 1.0000000180025095e-35 0.60250937938690197 -0.12685886025428769 -0.67693784832954396
decision_type=2 2 2 2 2 2 2 2 2 2 2 2 2 2 2 2 2 2 2 2 2
left_child=2 -2 6 4 17 -5 13 10 -9 12 16 -11 15 -1 -10 19 -6 -4 -17 -8 -15
right_child=1 -3 3 5 7 -7 9 8 14 11 -12 -13 -14 20 -16 18 -18 -19 -20 -21 -22
leaf_value=-18.295963771865662 45.625294229696081 129.16012810202207 -9.2752697603819829 13.661465137622976 3.2231245164468243 35.450553122127751 -12.886565863640751 2.5617481594398357 10.442291865114308 -9.4115499518899366 -3.6311476225011492 -2.8621553056318683 -15.503321505687275 -15.768438389626816 16.870243023079883 -6.1963195225449876 8.0737009744083164 -4.7441894441492414 -8.9565191291360282 -10.19266033333791 -13.974305575756313
leaf_weight=25 8.9999999999999982 4.9999999999999991 5.9999999999999982 7.9999999999999982 7.0000000000000018 5 9 6.0000000000000027 5.9999999999999982 4.9999999999999991 4.9999999999999991 8.9999999999999982 5.9999999999999991 26.999999999999996 7 5.9999999999999982 5 5 5 7.0000000000000044 14.000000000000002
leaf_count=25 9 5 6 8 7 5 9 6 6 5 5 9 6 27 7 6 5 5 5 7 14
internal_value=0.020846 76.1638 -6.18144 7.57629 3.47926 22.2488 -13.4867 6.77711 10.4246 -9.37886 2.66323 -5.2516 -11.1086 -16.3933 14.0061 -10.0782 5.29447 -7.27725 -7.52061 -11.7788 -15.1914
internal_weight=187 14 173 60 47 13 113 36 19 47 17 14 33 66 13 27 12 11 11 16 41
internal_count=187 14 173 60 47 13 113 36 19 47 17 14 33 66 13 27 12 11 11 16 41
is_linear=0
shrinkage=0.03


Tree=41
num_leaves=20
num_cat=0
split_feature=1 2 1 1 0 3 1 1 2 15 1 2 3 1 2 4 3 2 0
split_gain=9.25125e+07 2.32755e+07 1.82104e+07 3.77287e+06 1.75366e+06 1.50409e+06 1.40122e+06 563863 559012 298437 285761 171910 138755 121358 76438.8 70167.1 54127.7 35486.6 12114.7
threshold=1.8080481886863711 1.488170921802521 0.29104016721248632 1.1938774585723879 -0.39166991412639612 0.56927071511745464 -0.24171821773052213 0.59539720416069042 0.91509580612182628 1.2992557883262636 -0.82182225584983815 0.029434193857014183 -1.0000000180025095e-35 0.70439237356185924 0.13362987339496615 1.3508467674255373 1.0000000180025095e-35 0.49831400811672216 -1.1030966341495512
decision_type=2 2 2 2 2 2 2 2 2 2 2 2 2 2 2 2 2 2 2
left_child=2 -2 6 4 16 -5 10 9 -9 15 18 -8 -13 -10 -12 -6 -4 -14 -1
right_child=1 -3 3 5 7 -7 11 8 13 -11 14 12 17 -15 -16 -17 -18 -19 -20
leaf_value=-17.843612171980354 44.271576484428657 125.36129997702207 -9.0015731611408203 13.256681111653647 3.127792620591713 34.407890355727247 -11.271318641945163 2.486156030873782 10.134158605356689 -3.5243492148904241 -14.358348575113668 -2.1327136980900976 -5.5167805143262543 16.371264050980688 -11.434819730038672 7.8362392111385564 -4.6046544153550082 -8.6614668999095965 -15.665956490786019
leaf_weight=24 8.9999999999999982 4.9999999999999991 5.9999999999999982 7.9999999999999982 7.0000000000000018 5 8.0000000000000018 6.0000000000000027 5.9999999999999982 4.9999999999999991 31 6.0000000000000044 5.9999999999999973 7 14.999999999999998 5 5 9.9999999999999982 12.999999999999998
leaf_count=24 9 5 6 8 7 5 8 6 6 5 31 6 6 7 15 5 5 10 13
internal_value=0.0223567 73.9161 -5.99671 7.35263 3.37638 21.5925 -13.0851 6.57692 10.1165 2.58468 -15.096 -7.49001 -6.07008 13.5922 -13.432 5.13844 -7.06273 -7.52399 -17.1229
internal_weight=187 14 173 60 47 13 113 36 19 17 83 30 22 13 46 12 11 16 37
internal_count=187 14 173 60 47 13 113 36 19 17 83 30 22 13 46 12 11 16 37
is_linear=0
shrinkage=0.03


Tree=42
num_leaves=20
num_cat=0
split_feature=1 3 1 2 1 2 1 3 1 3 1 15 9 0 1 12 2 0 2
split_gain=1.05619e+08 1.81104e+07 1.53213e+07 3.61241e+06 3.0641e+06 1.7095e+06 790096 755141 626282 379493 180241 105135 97388.1 96487.8 70301.5 53728.3 52945.3 57857.5 27658.2
threshold=1.6818874478340151 1.4477552175521853 0.22252129763364795 0.86299809813499462 1.1233346462249758 0.60250937938690197 -0.57848814129829396 0.56927071511745464 0.70439237356185924 1.0000000180025095e-35 0.087154503911733641 1.2992557883262636 0.38419276475906378 -1.1030966341495512 0.51970538496971141 0.55600139498710643 0.86299809813499462 -0.39166991412639612 0.39411830902099615
decision_type=2 2 2 2 2 2 2 2 2 2 2 2 2 2 2 2 2 2 2
left_child=2 3 6 -2 5 9 13 -6 11 -4 16 14 -11 -1 15 -7 17 -8 -19
right_child=1 -3 4 -5 7 8 10 -9 -10 12 -12 -13 -14 -15 -16 -17 -18 18 -20
leaf_value=-17.314621613737824 66.987561250574416 113.48553084576717 -11.051982454111874 31.586440294609691 10.3773163959342 0.91173994220671017 -13.692124643794836 24.523433990478512 13.110143952546297 -4.6748948319231891 -6.1875873862372508 -0.42608330894919005 0.95645365097943458 -14.503556570967149 6.5868947573061343 5.119497267779181 -14.434212843951057 -10.649231529691775 -7.9695423363857589
leaf_weight=23 5.0000000000000018 5.9999999999999991 7.0000000000000027 6 6.9999999999999982 6.0000000000000053 5.9999999999999956 7 7.9999999999999991 5.9999999999999982 7.9999999999999991 4.9999999999999991 5 36 7.9999999999999991 5 4.9999999999999991 25.000000000000007 5.9999999999999991
leaf_count=23 5 6 7 6 7 6 6 7 8 6 8 5 5 36 8 5 5 25 6
internal_value=0.602798 71.7299 -6.42396 48.1367 5.22216 1.73531 -13.2606 17.5743 5.88941 -5.64133 -10.4427 3.43796 -2.12936 -15.6269 4.45188 2.85352 -11.2365 -10.7665 -10.158
internal_weight=190 17 173 11 64 50 109 14 32 18 50 24 11 59 19 11 42 37 31
internal_count=190 17 173 11 64 50 109 14 32 18 50 24 11 59 19 11 42 37 31
is_linear=0
shrinkage=0.03


Tree=43
num_leaves=20
num_cat=0
split_feature=1 1 3 1 3 0 1 1 4 1 15 15 0 1 0 17 0 1 0
split_gain=1.00125e+08 2.02562e+07 1.73688e+07 6.72288e+06 4.57186e+06 1.53513e+06 991511 544676 389067 377885 374258 200274 164200 93873 90865.9 51579.2 60366.8 22973.9 17289.7
threshold=1.9731494784355166 0.29104016721248632 1.4477552175521853 1.31683886051178 0.56927071511745464 -0.39166991412639612 -0.57848814129829396 0.70439237356185924 0.71066792309284221 0.087154503911733641 1.7488188147544863 0.8871564269065858 1.0311834812164309 0.51970538496971141 -1.1030966341495512 0.10976245999336244 -0.39166991412639612 0.22252129763364795 1.0000000180025095e-35
decision_type=2 2 2 2 2 2 2 2 2 2 2 2 2 2 2 2 2 2 2
left_child=1 6 -2 5 -5 11 14 10 -9 15 12 -3 -7 -14 -1 16 -8 -11 -18
right_child=2 3 -4 4 -6 7 9 8 -10 17 -12 -13 13 -15 -16 -17 18 -19 -20
leaf_value=-16.797431339412537 52.24430509973746 -2.7111135505227484 129.08378748276652 11.772057675962095 46.458628550044814 0.90770830123150859 -13.288094922675469 5.9211113767270689 15.693007481534716 -6.0042516369289824 -3.9478449675616099 -11.233248982149011 4.1606788355867614 9.0136719682481559 -14.069655168274434 -13.491200663606886 -10.23583880383821 -3.2828101124482987 -8.169643057364004
leaf_weight=23 5.9999999999999982 4.9999999999999982 5 7.9999999999999982 6 6.0000000000000044 5.9999999999999956 7.9999999999999982 7 7.9999999999999982 4.9999999999999991 5 7.0000000000000009 7.9999999999999991 36 6.9999999999999991 21.000000000000007 5 7.9999999999999991
leaf_count=23 6 5 5 8 6 6 6 8 7 8 5 5 7 8 36 7 21 5 8
internal_value=0.58744 -4.83163 88.0199 8.52504 26.862 3.44858 -12.4481 6.01812 10.5553 -9.51701 3.37002 -7.04151 5.12297 6.79169 -15.1597 -10.9027 -10.348 -4.99082 -9.69599
internal_weight=190 179 11 65 14 51 114 41 15 55 26 10 21 15 59 42 35 13 29
internal_count=190 179 11 65 14 51 114 41 15 55 26 10 21 15 59 42 35 13 29
is_linear=0
shrinkage=0.03


Tree=44
num_leaves=20
num_cat=0
split_feature=1 1 3 1 3 0 1 1 2 1 15 15 2 1 0 2 2 2 0
split_gain=9.43107e+07 1.90699e+07 1.63645e+07 6.33188e+06 4.3064e+06 1.44589e+06 932417 512946 519965 355683 352487 188665 154613 88382.5 85571.5 60099.9 52213.7 68435.1 32680.9
threshold=1.9731494784355166 0.29104016721248632 1.4477552175521853 1.31683886051178 0.56927071511745464 -0.39166991412639612 -0.57848814129829396 0.70439237356185924 0.91509580612182628 0.087154503911733641 1.7488188147544863 0.8871564269065858 1.0192911326885226 0.51970538496971141 -1.1030966341495512 0.44621615111827856 0.75880256295204174 0.39411830902099615 -0.39166991412639612
decision_type=2 2 2 2 2 2 2 2 2 2 2 2 2 2 2 2 2 2 2
left_child=1 6 -2 5 -5 11 14 10 -9 16 12 -3 -7 -14 -1 -11 17 18 -8
right_child=2 3 -4 4 -6 7 9 8 -10 15 -12 -13 13 -15 -16 -17 -18 -19 -20
leaf_value=-16.295689974698153 50.702671418737204 -2.6313747989430154 125.2872040153952 11.423256253842954 45.087719556464521 0.88092349818495352 -12.89598686843622 4.1827721867091219 15.428034204553674 -7.0372965252985731 -3.8317318658267747 -10.902859757367303 4.0376164546482993 8.7466001807318801 -13.648734852798757 -2.8895519998039996 -13.41110960413198 -6.5660209566004148 -10.015972609804917
leaf_weight=23 5.9999999999999982 4.9999999999999982 5 7.9999999999999982 6 6.0000000000000062 5.9999999999999991 6.9999999999999991 7.9999999999999991 5.9999999999999982 4.9999999999999991 5 6.9999999999999991 7.9999999999999991 36 7 5.9999999999999991 4.9999999999999991 25.000000000000004
leaf_count=23 6 5 5 8 6 6 6 7 8 6 5 5 7 8 36 7 6 5 25
internal_value=0.57253 -4.68684 85.4283 8.2728 26.0685 3.34617 -12.0769 5.83991 10.2429 -9.23447 3.27009 -6.83442 4.97129 6.59057 -14.7065 -4.84323 -10.5789 -10.0709 -10.6132
internal_weight=190 179 11 65 14 51 114 41 15 55 26 10 21 15 59 13 42 36 31
internal_count=190 179 11 65 14 51 114 41 15 55 26 10 21 15 59 13 42 36 31
is_linear=0
shrinkage=0.03


Tree=45
num_leaves=24
num_cat=0
split_feature=1 15 1 2 1 2 1 3 15 1 1 2 1 7 12 4 3 16 2 3 1 12 2
split_gain=8.24485e+07 2.41094e+07 1.08935e+07 3.24759e+06 1.50743e+06 1.34098e+06 1.07289e+06 989739 389436 331324 187224 174802 109176 98118.6 87864.7 72299.6 70132.8 68375.6 53398.5 22613.6 10518 6801.97 4026.61
threshold=1.5549779534339907 1.7488188147544863 0.25696944445371633 1.1234868168830874 1.1233346462249758 0.2378252372145653 -0.51738402247428883 0.56927071511745464 1.0932061672210696 0.51970538496971141 -0.19130713492631909 0.029434193857014183 -0.82182225584983815 1.0000000180025095e-35 0.55600139498710643 1.0000000180025095e-35 1.4477552175521853 1.01809298992157 1.1755844950675967 1.0000000180025095e-35 -0.01677738036960363 0.55600139498710643 -1.1688136458396909
decision_type=2 2 2 2 2 2 2 2 2 2 2 2 2 2 2 2 2 2 2 2 2 2 2
left_child=2 3 6 -2 5 13 12 -6 9 14 17 -12 22 -4 -7 -13 18 19 -11 -8 -17 -14 -1
right_child=1 -3 4 -5 7 8 10 -9 -10 16 11 15 21 -15 -16 20 -18 -19 -20 -21 -22 -23 -24
leaf_value=-15.886522848195041 54.847058085457199 116.21396146886489 -4.6181412102194397 24.250477088605852 4.2593122055951298 -0.5352073719462408 -10.575859940140328 22.369058495193226 -2.9718639508415667 5.0418757504322471 -11.127817436667042 -7.3627305127753546 -13.166070478538764 -10.698525767606846 4.8123308428596046 -4.2583150661692857 11.645912385828357 -13.413450568704045 9.073911192988005 -8.0955383878140843 -2.3124100094154252 -11.218807214807581 -14.1650108954247
leaf_weight=26 6.0000000000000018 4.9999999999999991 4.9999999999999982 7 4.9999999999999982 6.0000000000000018 8.0000000000000053 6 4.9999999999999991 6.0000000000000018 5.0000000000000027 6.0000000000000027 21.000000000000004 5 5 5.0000000000000036 4.9999999999999991 4.9999999999999991 7 10.999999999999998 5.9999999999999947 7.9999999999999991 13.999999999999998
leaf_count=26 6 5 5 7 5 6 8 6 5 6 5 6 21 5 5 5 5 5 7 11 6 8 14
internal_value=-0.129113 60.7427 -6.6063 38.6831 4.36947 1.87252 -11.8548 14.2502 4.71258 6.04325 -8.27417 -6.22157 -14.2265 -7.73446 1.91668 -4.72174 8.54035 -10.122 7.26589 -9.18994 -3.22758 -12.6694 -15.3209
internal_weight=188 18 170 13 55 44 115 11 34 29 46 22 69 10 11 17 18 24 13 19 11 29 40
internal_count=188 18 170 13 55 44 115 11 34 29 46 22 69 10 11 17 18 24 13 19 11 29 40
is_linear=0
shrinkage=0.03


Tree=46
num_leaves=23
num_cat=0
split_feature=1 17 1 2 18 1 2 1 4 15 1 15 2 1 1 4 4 16 3 1 12 2
split_gain=7.76558e+07 2.4262e+07 1.02562e+07 3.77419e+06 1.47026e+06 1.00899e+06 957244 440778 921431 233222 176208 165239 164687 119050 102688 68087.8 66986 64505.6 21312.9 9910.46 6418.96 3737.91
threshold=1.5549779534339907 0.69918152689933788 0.25696944445371633 0.86299809813499462 1.7828003764152529 -0.51738402247428883 -0.12685886025428769 0.70439237356185924 0.71066792309284221 0.8871564269065858 -0.19130713492631909 1.0932061672210696 0.029434193857014183 0.311512440443039 -0.82182225584983815 1.0000000180025095e-35 1.3508467674255373 1.01809298992157 1.0000000180025095e-35 -0.01677738036960363 1.0000000180025095e-35 -1.1688136458396909
decision_type=2 2 2 2 2 2 2 2 2 2 2 2 2 2 2 2 2 2 2 2 2 2
left_child=2 3 5 -2 6 14 9 11 -9 -4 17 13 -12 -8 21 -14 -15 18 -7 -17 -16 -1
right_child=1 -3 4 -5 -6 10 7 8 -10 -11 12 -13 15 16 20 19 -18 -19 -20 -21 -22 -23
leaf_value=-15.411753027904991 57.180688512465494 114.58040685317096 -1.2370343286850876 23.587395754213688 16.985082259916922 -10.262501152886275 -0.68849674898035296 1.5055612719500504 16.374855497118453 -10.383863103529986 -10.800528528550085 -2.8844562216366039 -7.1454697956022635 2.3552434721149385 -12.818990050358554 -4.1330704767563731 6.7213049165967478 -13.01893727022059 -7.8548602707321589 -2.2441749122494574 -10.992042243035284 -13.743074340820312
leaf_weight=26 5.0000000000000027 4.9999999999999991 4.9999999999999982 7.9999999999999991 6.9999999999999991 8.0000000000000053 5.0000000000000062 7.9999999999999982 7 5 5.0000000000000027 4.9999999999999991 6.0000000000000027 5.9999999999999982 20.000000000000004 5.0000000000000036 7 4.9999999999999991 10.999999999999998 5.9999999999999947 8.9999999999999982 13.999999999999998
leaf_count=26 5 5 5 8 7 8 5 8 7 5 5 5 6 6 20 5 7 5 11 6 9 14
internal_value=-0.123294 58.9528 -6.40941 36.846 4.24048 -11.5021 2.35038 4.52298 8.50725 -5.86827 -8.02967 1.89884 -6.03833 3.23629 -13.8021 -4.58254 4.73979 -9.82231 -8.91718 -3.13253 -12.2918 -14.8635
internal_weight=188 18 170 13 55 115 48 38 15 10 46 23 22 18 69 17 13 24 19 11 29 40
internal_count=188 18 170 13 55 115 48 38 15 10 46 23 22 18 69 17 13 24 19 11 29 40
is_linear=0
shrinkage=0.03


Tree=47
num_leaves=23
num_cat=0
split_feature=1 7 1 1 1 0 1 18 17 12 1 1 0 1 7 16 1 1 3 3 12 0
split_gain=7.34364e+07 1.84325e+07 1.1618e+07 3.5209e+06 2.33342e+06 1.32483e+06 1.09216e+06 1.0192e+06 424789 259765 230353 183797 160343 117613 83231.1 70426.8 62853.3 53211.5 43426.4 12574.5 4749.83 3469.18
threshold=1.6818874478340151 1.0000000180025095e-35 0.29104016721248632 2.0276328325271611 1.1233346462249758 1.0000000180025095e-35 -0.50048688054084767 1.7828003764152529 0.30623547732830053 1.1996002793312075 0.51970538496971141 -0.19130713492631909 1.0000000180025095e-35 -0.82182225584983815 1.0000000180025095e-35 1.01809298992157 0.70439237356185924 -0.01677738036960363 0.56927071511745464 1.0000000180025095e-35 0.55600139498710643 -1.1030966341495512
decision_type=2 2 2 2 2 2 2 2 2 2 2 2 2 2 2 2 2 2 2 2 2 2
left_child=2 3 6 -2 5 14 13 -6 9 10 -7 15 -13 21 -4 19 -12 -14 -19 -8 -15 -1
right_child=1 -3 4 -5 7 8 11 -9 -10 -11 16 12 17 20 -16 -17 -18 18 -20 -21 -22 -23
leaf_value=-14.951171741704831 56.818229621438427 109.96114559397979 -4.467061089908376 20.730752509622011 10.038965324988734 2.4726653514188826 -9.6312997336465695 27.030627926097196 -2.7996192842371324 0.53911628947538492 7.5526722158512607 -9.7981722272028637 -6.0121518255163071 -12.259236857556647 -10.078455388686235 -12.636027293485755 11.632313826005538 -0.66874886905445829 -4.4565835096015292 -7.4411899861250781 -10.63901613745359 -13.333706223508139
leaf_weight=25.999999999999996 4.9999999999999982 4.9999999999999991 4.9999999999999982 5 8.9999999999999982 5.0000000000000098 6.0000000000000062 4.9999999999999991 4.9999999999999991 4.9999999999999991 6.9999999999999991 6.0000000000000027 8.0000000000000053 22 5 4.9999999999999991 8.9999999999999982 4.9999999999999947 6 9.9999999999999982 9.9999999999999982 14.000000000000002
leaf_count=26 5 5 5 5 9 5 6 5 5 5 7 6 8 22 5 5 9 5 6 10 10 14
internal_value=-0.117753 63.3316 -5.65257 39.1587 5.72767 2.10165 -10.9573 16.2563 5.1629 6.69912 8.15614 -7.31956 -5.54072 -13.268 -7.34506 -9.40079 9.90565 -4.15184 -2.75665 -8.31739 -11.7877 -14.4198
internal_weight=188 15 173 10 55 41 118 14 31 26 21 46 25 72 10 21 16 19 11 16 32 40
internal_count=188 15 173 10 55 41 118 14 31 26 21 46 25 72 10 21 16 19 11 16 32 40
is_linear=0
shrinkage=0.03


Tree=48
num_leaves=24
num_cat=0
split_feature=3 15 2 9 18 12 4 2 15 2 15 2 4 2 2 3 2 16 9 12 2 2 4
split_gain=2.8242e+07 1.49246e+07 3.62466e+06 3.61828e+06 3.21031e+06 3.25875e+06 1.3578e+06 1.06703e+06 764889 692998 471370 138817 119612 129903 82059.9 96663.5 81205.9 36112.8 15087.7 11842.7 18671.3 4386.67 2531.73
threshold=0.56927071511745464 1.992331922054291 -0.43944527208805079 2.4030995368957524 1.7828003764152529 2.2861958742141728 1.3508467674255373 1.0192911326885226 1.8050141334533694 0.44621615111827856 1.2992557883262636 1.2797798514366152 0.71066792309284221 0.86299809813499462 1.0000000180025095e-35 1.0000000180025095e-35 -1.0125204622745512 1.9372821450233462 -0.38406378030776972 1.3751273155212405 -0.90832507610321034 -0.54364079236984242 -1.0000000180025095e-35
decision_type=2 2 2 2 2 2 2 2 2 2 2 2 2 2 2 2 2 2 2 2 2 2 2
left_child=2 3 16 4 5 7 8 17 9 10 14 12 13 -11 15 -4 -1 22 -16 20 -18 -22 -2
right_child=1 -3 6 -5 -6 -7 -8 -9 -10 11 -12 -13 -14 -15 18 -17 19 -19 -20 -21 21 -23 -24
leaf_value=-14.06983754380841 -4.4142538317512097 62.061710500248147 -2.9902478627689537 36.023775652717141 24.989706306876716 24.64454553823002 10.468734471055329 7.0015094498563402 -15.509636320226335 -5.3827849266177257 2.2654345142140109 4.9078825692569508 3.277353704115924 0.42411699083116322 -10.027501114949141 -8.2403735781387546 -10.342452262595843 -7.0570615790872013 -7.4737787942325378 -9.6957340375114907 -13.104070359614852 -10.851232407513788 -3.19914189731373
leaf_weight=32 4.9999999999999947 5.9999999999999991 6.0000000000000018 4.9999999999999991 8.9999999999999982 5.9999999999999991 5.9999999999999991 11.999999999999998 4.9999999999999991 6.0000000000000062 4.9999999999999991 4.9999999999999991 4.9999999999999991 7.9999999999999991 9.9999999999999982 7 8.0000000000000018 4.9999999999999991 4.9999999999999991 4.9999999999999991 17.000000000000004 4.9999999999999991 5.0000000000000071
leaf_count=32 5 6 6 5 9 6 6 12 5 6 5 5 5 8 10 7 8 5 5 5 17 5 5
internal_value=-0.647748 17.8896 -7.93325 12.1307 9.20746 4.84062 -3.04673 0.364942 -4.36948 -3.36677 -6.18107 0.512368 -0.663829 -2.08487 -7.69218 -5.85879 -12.8807 -4.95532 -9.23159 -11.7565 -12.0665 -12.6436 -3.84468
internal_weight=188 53 135 47 42 33 68 27 62 57 33 24 19 14 28 13 67 15 15 35 30 22 10
internal_count=188 53 135 47 42 33 68 27 62 57 33 24 19 14 28 13 67 15 15 35 30 22 10
is_linear=0
shrinkage=0.03


Tree=49
num_leaves=21
num_cat=0
