tree
version=v4
num_class=1
num_tree_per_iteration=1
label_index=0
max_feature_idx=20
objective=regression
feature_names=Column_0 Column_1 Column_2 Column_3 Column_4 Column_5 Column_6 Column_7 Column_8 Column_9 Column_10 Column_11 Column_12 Column_13 Column_14 Column_15 Column_16 Column_17 Column_18 Column_19 Column_20
feature_infos=[-1.4588099718093872:1.3868968486785889] [-1.6797181367874146:2.6369843482971191] [-1.8200353384017944:1.5142197608947754] [-1.6269408464431763:1.8869974613189697] [-0.88977921009063721:2.9512939453125] [-0.58151888847351074:1.7196344137191772] [-0.57596069574356079:1.7362295389175415] [-0.57596069574356079:1.7362295389175415] [-0.57596069574356079:1.7362295389175415] [-0.48232913017272949:3.984278678894043] [-0.50589567422866821:3.4566507339477539] [-0.404803067445755:2.4703369140625] [-0.53059417009353638:3.8157880306243896] [-0.55244201421737671:2.8154022693634033] [-0.49208986759185791:2.032149076461792] [-0.5551912784576416:2.6292128562927246] [-0.48399683833122253:3.8653380870819092] [-0.4305383563041687:4.1865777969360352] [-0.57269454002380371:2.2538993358612061] [-0.52132242918014526:3.261016845703125] [-0.53565746545791626:3.4210655689239502]
tree_sizes=2115 2104 2369 2195 2129 2531 2409 2297 2409 2573 2117 2275 2035 2093 2105 2276 2297 2246 2313 2311 2314 2144 2547 2708 2182 2265 1953 2128 2130 2208 2313 2462 2447 2643 2328 2318 2290 2376 2425 2332 2442 2453 2295 2235 2281 2570 2675 2224 2136 2278 2491 2562 2318 2655 2460 2466 2256 2489 2744 2346 2513 2610 2524 2402 2395 2367 2280 2289 2091 2539 2294 2372 2533 2461 2555 2175 2092 2013 2400 2713 2483 2314 2583 2246 2563 2025 1999 2438 2251 2344 2203 1815 2031 2227 1880 2163 2281 2253 2497 1568 1549 1552 2399 2106 1570 1946 1784 1955 1516 1740 1723 1602 1729 1642 1377 1673 1848 1774 1960 2061 2017 1534 1882 1880 1849 1875 1754 1593 1589 1893 1886 1908 2081 1546 1934 2200 2452 1980 1452 1372 1456 1279 1407 1477 1663 1642 1645 1365 1356 1366 1661 1363 1551 1638 1584 1586 1569 1167 1154 2130 1767 2034 1638 1928 1645 1576 1648 1651 1480 1936 1493 1629 1286 1467 1681 1442 1682 2158 2361 2237 1747 1916

Tree=0
num_leaves=21
num_cat=0
split_feature=1 1 1 19 1 2 1 1 1 19 13 1 19 2 4 1 1 1 4 19
split_gain=5.75512e+11 8.6164e+10 7.20333e+10 2.50381e+10 1.89357e+10 1.23693e+10 9.95143e+09 6.05199e+09 3.6909e+09 2.50053e+09 1.56181e+09 1.08768e+09 1.02125e+09 8.63139e+08 8.34947e+08 8.26138e+08 5.48093e+08 3.08958e+08 3.99545e+08 2.51449e+08
threshold=1.1233346462249758 0.22252129763364795 1.6818874478340151 0.74886608123779308 2.1099295616149907 0.75880256295204174 -0.53226572275161732 0.70439237356185924 0.69028088450431835 1.5392055511474612 1.3945930004119875 -0.86478054523468006 1.0000000180025095e-35 0.2378252372145653 0.71066792309284221 -0.01677738036960363 0.47051286697387701 -0.20920605212450025 -0.56968981772661198 1.0000000180025095e-35
decision_type=2 2 2 2 2 2 2 2 2 2 2 2 2 2 2 2 2 2 2 2
left_child=1 6 5 8 -4 -2 11 -5 14 13 -10 19 -13 17 -3 -15 -16 18 -8 -1
right_child=2 3 4 7 -6 -7 9 -9 10 -11 -12 12 -14 15 16 -17 -18 -19 -20 -21
leaf_value=72589.45684177037 77344.874343378571 73767.838849142878 78707.390849325311 75046.299581006082 81043.66095254432 75365.005492081458 73499.412522182552 76477.041491734897 74877.994141616786 73982.945706002312 74205.165480951517 72861.916365334764 73371.053692908652 73305.248915980992 73914.122745577115 73737.704749682511 74282.503665393524 72924.853727375565 73104.108925244771 72876.80965738646
leaf_weight=22.000000000000004 7.0000000000000018 9.0000000000000018 8.9999999999999982 4.9999999999999982 5.9999999999999991 5 5.0000000000000009 6 7.9999999999999982 5.9999999999999991 5 25.000000000000004 4.9999999999999991 11 5.9999999999999991 7.0000000000000009 8.9999999999999982 4.9999999999999991 7.0000000000000009 7.9999999999999991
leaf_count=22 7 9 9 5 6 5 5 6 8 6 5 25 5 11 6 7 9 5 7 8
internal_value=74274.6 73543.7 78296.2 74589.7 79680.5 76535.7 73046.7 75839.4 74215 73410.8 74620.6 72799.8 72943.5 73313.8 73994.9 73469.5 74133.7 73154.7 73261 72661.1
internal_weight=176 149 27 48 15 12 101 11 37 41 13 60 30 35 24 18 15 17 12 30
internal_count=176 149 27 48 15 12 101 11 37 41 13 60 30 35 24 18 15 17 12 30
is_linear=0
shrinkage=1


Tree=1
num_leaves=21
num_cat=0
split_feature=1 1 1 20 1 7 1 1 1 8 13 1 8 4 1 4 1 8 2 2
split_gain=5.41936e+11 8.11231e+10 6.78291e+10 2.35832e+10 1.78483e+10 1.1667e+10 9.38056e+09 5.69946e+09 3.47538e+09 1.83319e+09 1.47071e+09 1.23178e+09 1.17441e+09 7.86025e+08 5.16226e+08 4.62623e+08 7.20268e+08 2.3541e+08 1.21759e+08 3.12869e+07
threshold=1.1233346462249758 0.22252129763364795 1.6818874478340151 -0.33782130479812617 2.1099295616149907 1.0000000180025095e-35 -0.50048688054084767 0.70439237356185924 0.69028088450431835 1.0000000180025095e-35 1.3945930004119875 -0.86478054523468006 1.0000000180025095e-35 0.71066792309284221 0.47051286697387701 1.0000000180025095e-35 -0.01677738036960363 1.0000000180025095e-35 0.13362987339496615 0.029434193857014183
decision_type=2 2 2 2 2 2 2 2 2 2 2 2 2 2 2 2 2 2 2 2
left_child=1 6 5 8 -4 -2 11 -5 13 15 -10 17 -13 -3 -15 19 -17 -1 -11 -8
right_child=2 3 4 7 -6 -7 9 -9 10 18 -12 12 -14 14 -16 16 -18 -19 -20 -21
leaf_value=-1645.8420199377824 2969.1238402288723 -502.7520128933412 4290.2419265109884 737.9729584099266 6558.2899795081967 1046.3470680147057 -1004.1966585553275 2126.4229072745902 574.48868489583322 -588.28727074795086 -78.421921171300539 -1375.0395586369923 -879.57104700307377 -360.8687104572233 -3.3574729030734889 -1023.728119419643 -599.18021401848591 -1367.4013657407402 -368.93032948213465 -1238.662405790441
leaf_weight=22 7.0000000000000018 9.0000000000000018 8.9999999999999982 4.9999999999999982 5.9999999999999991 5 6.0000000000000018 6 7.9999999999999982 5.9999999999999982 5 27 5.9999999999999991 5.9999999999999991 8.9999999999999982 8.9999999999999982 6.9999999999999991 8.0000000000000018 5 5
leaf_count=22 7 9 9 5 6 5 6 6 8 6 5 27 6 6 9 9 7 8 5 5
internal_value=-10.8787 -720.186 3891.66 294.83 5234.89 2183.24 -1202.38 1507.64 -68.8274 -826.325 324.687 -1427.54 -1287.88 -282.444 -147.805 -959.885 -842.864 -1576.38 -492.802 -1120.97
internal_weight=176 149 27 48 15 12 101 11 37 38 13 63 33 24 15 27 16 30 11 11
internal_count=176 149 27 48 15 12 101 11 37 38 13 63 33 24 15 27 16 30 11 11
is_linear=0
shrinkage=0.03


Tree=2
num_leaves=23
num_cat=0
split_feature=2 12 18 15 18 19 2 19 4 16 2 2 9 15 8 2 19 2 16 12 4 9
split_gain=1.92502e+11 7.07857e+10 5.32193e+10 4.59012e+10 3.65032e+10 2.49914e+10 1.04987e+10 9.38008e+09 1.0075e+10 6.14375e+09 3.67363e+09 6.48822e+09 2.81954e+09 3.45408e+09 1.78588e+09 2.1045e+09 1.32905e+09 2.05197e+09 9.57745e+08 5.20137e+08 3.02708e+08 2.38692e+08
threshold=0.49831400811672216 2.5870993137359624 1.931568503379822 2.1234544515609746 1.7332110404968264 1.6521110534667971 -0.33524991571903223 0.74886608123779308 0.71066792309284221 0.90599676966667186 0.96719348430633556 1.3839753866195681 1.8849729895591738 1.2992557883262636 1.0000000180025095e-35 1.0000000180025095e-35 1.9908280372619631 -1.2730090618133543 1.9372821450233462 1.3751273155212405 0.71066792309284221 1.0631170868873598
decision_type=2 2 2 2 2 2 2 2 2 2 2 2 2 2 2 2 2 2 2 2 2 2
left_child=4 2 3 7 6 -6 16 8 9 -2 -10 -12 13 14 15 -8 17 -1 19 21 -17 -19
right_child=1 -3 -4 -5 5 -7 12 -9 10 -11 11 -13 -14 -15 -16 20 -18 18 -20 -21 -22 -23
leaf_value=-1567.3977783526491 -944.7311047094995 4377.2728816598365 3904.1211058134195 2937.9924147742904 2134.4560191470291 -486.85926331426049 -630.91154160048882 1348.3415063820423 1004.0166346153842 358.65386374080884 -161.87995615366341 1131.4810595703127 -80.309600513599548 -115.44253830600793 -348.99543658088237 -1398.5096649427819 -723.94320772058813 -1322.6680614505592 -723.47006318933813 -907.45226818647541 -1019.0160018382351 -1056.2363040805872
leaf_weight=14.999999999999998 8.9999999999999982 5.9999999999999991 4.9999999999999991 6.9999999999999991 5.9999999999999982 7 9.0000000000000053 6.9999999999999991 9.0000000000000018 4.9999999999999991 10.999999999999998 4.9999999999999991 7.9999999999999991 6.9999999999999991 4.9999999999999991 6.9999999999999982 4.9999999999999991 20.000000000000004 4.9999999999999991 5.9999999999999991 5 6.9999999999999991
leaf_count=15 9 6 5 7 6 7 9 7 9 5 11 5 8 7 5 7 5 20 5 6 5 7
internal_value=-10.4285 1300.9 975.668 692.567 -760.251 730.036 -956.485 345.24 162.208 -479.994 522.32 246.813 -586.806 -708.98 -867.723 -988.991 -1216.35 -1261.35 -1136.75 -1196.99 -1250.12 -1257.75
internal_weight=176 64 58 53 112 13 99 46 39 14 25 16 41 33 26 21 58 53 38 33 12 27
internal_count=176 64 58 53 112 13 99 46 39 14 25 16 41 33 26 21 58 53 38 33 12 27
is_linear=0
shrinkage=0.03


Tree=3
num_leaves=22
num_cat=0
split_feature=1 1 1 7 18 1 3 1 1 1 18 6 19 1 1 11 1 2 1 2 2
split_gain=6.94834e+11 7.13516e+10 6.01741e+10 2.79878e+10 1.71287e+10 7.33693e+09 7.28351e+09 6.30196e+09 4.40238e+09 1.63456e+09 1.63176e+09 1.19387e+09 9.99052e+08 9.3874e+08 8.10944e+08 6.6127e+08 5.10367e+08 2.47445e+08 8.37007e+07 3.29605e+07 3.06155e+07
threshold=1.1233346462249758 0.087154503911733641 2.1099295616149907 1.0000000180025095e-35 1.0000000180025095e-35 0.70439237356185924 0.56927071511745464 -0.40852676331996912 0.69028088450431835 0.311512440443039 1.3860854506492617 1.0000000180025095e-35 1.5392055511474612 -0.9149402081966399 -1.1017522215843198 1.0000000180025095e-35 0.51970538496971141 0.60250937938690197 -0.70112657546997059 -0.33524991571903223 0.2378252372145653
decision_type=2 2 2 2 2 2 2 2 2 2 2 2 2 2 2 2 2 2 2 2 2
left_child=1 7 3 6 8 -6 -2 10 9 -3 13 -10 17 -1 -12 16 -11 19 -16 -9 -21
right_child=2 4 -4 -5 5 -7 -8 12 11 15 14 -13 -14 -15 18 -17 -18 -19 -20 20 -22
leaf_value=-1566.6783108836205 3147.5203521126746 -769.96156442561573 6510.0733890845067 1838.1249045138882 522.96706420898431 1988.6311443014706 4519.5440709459463 -817.13740004595445 556.61334630831868 -284.60783698283439 -1344.6941419057378 -17.91469606993628 -415.12359604779408 -1300.7228363269792 -987.52996093750005 -492.19403404360907 90.059843549884732 -676.68026180491722 -744.15012408088239 -1095.858761526639 -899.60085937499991
leaf_weight=26 7.0000000000000027 7.0000000000000027 6.9999999999999991 8.0000000000000018 7.9999999999999982 5 10.999999999999998 5.000000000000008 6.9999999999999982 7.0000000000000018 5.9999999999999991 6 4.9999999999999991 34 4.9999999999999991 5.9999999999999991 6 4.9999999999999991 4.9999999999999991 6 7
leaf_count=26 7 7 7 8 8 5 11 5 7 7 6 6 5 34 5 6 6 5 5 6 7
internal_value=88.9384 -748.279 4037 3348.78 158.93 1097.56 4006.32 -1201.6 -155.954 -380.861 -1344.01 293.334 -811.655 -1418.39 -1058.03 -234.227 -112.317 -895.688 -874.413 -952.448 -997.856
internal_weight=189 156 33 26 52 13 18 104 39 26 76 13 28 60 16 19 13 23 10 18 13
internal_count=189 156 33 26 52 13 18 104 39 26 76 13 28 60 16 19 13 23 10 18 13
is_linear=0
shrinkage=0.03


Tree=4
num_leaves=21
num_cat=0
split_feature=1 1 1 7 19 1 3 1 1 12 1 8 19 1 0 11 1 2 2 2
split_gain=6.54223e+11 6.7173e+10 5.66796e+10 2.63484e+10 1.61335e+10 6.91284e+09 6.85057e+09 5.93576e+09 4.14589e+09 1.59918e+09 1.53925e+09 1.28492e+09 1.12888e+09 7.69948e+08 7.11635e+08 6.22857e+08 4.8064e+08 3.50107e+08 9.42235e+06 1.07275e+08
threshold=1.1233346462249758 0.087154503911733641 2.1099295616149907 1.0000000180025095e-35 0.74886608123779308 0.70439237356185924 0.56927071511745464 -0.50048688054084767 0.69028088450431835 1.483787000179291 0.311512440443039 1.0000000180025095e-35 1.2287150621414187 -1.0638231635093687 -1.1030966341495512 1.0000000180025095e-35 0.51970538496971141 0.60250937938690197 -0.33524991571903223 0.2378252372145653
decision_type=2 2 2 2 2 2 2 2 2 2 2 2 2 2 2 2 2 2 2 2
left_child=1 7 3 6 8 -6 -2 11 10 -10 -3 13 17 -1 -13 16 -12 18 -9 -20
right_child=2 4 -4 -5 5 -7 -8 12 9 -11 15 14 -14 -15 -16 -17 -18 -19 19 -21
leaf_value=-1551.8042528139808 3054.4247040052805 -747.18805127640803 6317.5217165492959 1783.6619415509253 507.47173611111106 1930.1419898897057 4385.1791849662159 -852.46572233606457 545.24660319010411 -134.80129214118509 -276.18985293106283 -1303.9703080985917 -445.23626376793032 -1290.9833007239736 -869.31209520947812 -477.67026495261268 87.40233662589651 -656.77787999770214 -1095.0855777815934 -872.9929588468309
leaf_weight=21 7.0000000000000027 7.0000000000000027 6.9999999999999991 8.0000000000000018 7.9999999999999982 5 10.999999999999998 6.0000000000000062 7.9999999999999982 5 7.0000000000000018 6.9999999999999991 5.9999999999999991 34 8.9999999999999982 5.9999999999999991 6 4.9999999999999991 8.9999999999999982 6.9999999999999991
leaf_count=21 7 7 7 8 8 5 11 6 8 5 7 7 6 34 9 6 6 5 9 7
internal_value=86.3934 -725.99 3917.34 3249.41 154.254 1065.21 3887.4 -1165.84 -151.346 284.657 -369.602 -1321.16 -828.673 -1393.21 -1066.39 -227.308 -108.992 -911.924 -966.678 -1003.95
internal_weight=189 156 33 26 52 13 18 104 39 13 26 71 33 55 16 19 13 27 22 16
internal_count=189 156 33 26 52 13 18 104 39 13 26 71 33 55 16 19 13 27 22 16
is_linear=0
shrinkage=0.03


Tree=5
num_leaves=25
num_cat=0
split_feature=2 12 18 2 18 19 19 2 4 2 19 2 16 4 16 16 4 19 2 8 9 17 2 12
split_gain=2.28017e+11 8.81113e+10 8.63342e+10 4.50866e+10 2.26163e+10 1.9092e+10 1.72087e+10 1.48902e+10 8.20027e+09 1.15571e+10 9.77945e+09 6.32516e+09 2.8485e+09 4.3814e+09 3.24198e+09 2.84023e+09 2.71599e+09 1.7308e+09 1.30427e+09 1.20496e+09 4.63575e+08 4.47861e+08 5.16098e+08 3.25834e+08
threshold=0.2378252372145653 2.5870993137359624 1.7828003764152529 1.488170921802521 1.7332110404968264 1.3133943080902102 1.6521110534667971 0.49831400811672216 0.71066792309284221 1.0192911326885226 0.74886608123779308 -0.80412936210632313 0.32309621572494512 0.71066792309284221 1.5561549067497256 0.59212723374366771 1.9910254478454592 1.2287150621414187 -1.2730090618133543 1.0000000180025095e-35 0.38419276475906378 1.0000000180025095e-35 -0.96042275428771962 0.99899810552597057
decision_type=2 2 2 2 2 2 2 2 2 2 2 2 2 2 2 2 2 2 2 2 2 2 2 2
left_child=4 2 3 7 11 -4 -6 20 10 -10 15 17 13 19 -14 -9 -11 18 -1 23 -2 22 -20 -13
right_child=1 -3 5 -5 6 -7 -8 8 9 16 -12 12 14 -15 -16 -17 -18 -19 21 -21 -22 -23 -24 -25
leaf_value=-1473.8776141197645 -843.59561207086279 4480.5791329225349 4866.2478952205893 2526.8877922175484 1716.0781456801471 2177.4555899586398 -509.42470196759263 -771.22522370515014 1590.2328906249995 -137.10326639524649 958.56975792253525 -1254.1989181774804 34.227736997251156 -145.6754335297131 -883.53858710617305 135.69281709558825 771.50779943129578 -666.62136718749991 -863.59467802444283 -609.22880055147061 -448.36791331571686 -1349.6302387764085 -1219.5436979166657 -962.97222372832118
leaf_weight=18.999999999999996 6.9999999999999982 6.9999999999999991 4.9999999999999982 8.9999999999999982 4.9999999999999991 5 7.9999999999999991 8.0000000000000018 11.000000000000002 6.9999999999999982 6.9999999999999991 13.000000000000005 7.9999999999999982 5.9999999999999991 6 4.9999999999999991 5 4.9999999999999991 10.000000000000002 4.9999999999999991 5 6.9999999999999991 8.0000000000000053 7.9999999999999991
leaf_count=19 7 7 5 9 5 5 8 8 11 7 7 13 8 6 6 5 5 5 10 5 5 7 8 8
internal_value=83.9291 1286.28 978.477 570.706 -818.19 3556.72 353.103 246.599 507.281 892.331 62.2365 -978.675 -723.17 -879.308 -362.577 -424.037 244.732 -1216.57 -1277.42 -1047.4 -683.984 -1122.83 -1027.66 -1148.35
internal_weight=189 81 74 64 108 10 13 55 43 23 20 95 46 32 14 13 12 49 44 26 12 25 18 21
internal_count=189 81 74 64 108 10 13 55 43 23 20 95 46 32 14 13 12 49 44 26 12 25 18 21
is_linear=0
shrinkage=0.03


Tree=6
num_leaves=24
num_cat=0
split_feature=1 1 1 19 17 1 1 1 3 19 0 1 8 10 1 0 1 1 1 8 4 4 1
split_gain=5.05566e+11 6.37593e+10 5.31528e+10 1.75223e+10 9.45593e+09 7.58392e+09 5.56497e+09 3.08965e+09 2.68004e+09 2.62501e+09 1.12141e+09 1.03696e+09 8.37784e+08 5.9677e+08 1.08576e+09 4.56643e+08 7.01968e+08 3.74523e+08 8.63525e+07 7.33769e+07 7.09371e+07 1.01155e+07 9.94987e+06
threshold=1.1233346462249758 0.22252129763364795 2.1099295616149907 0.74886608123779308 0.69918152689933788 -0.44295731186866755 0.70439237356185924 0.69028088450431835 0.56927071511745464 0.94645097851753246 1.0000000180025095e-35 -1.1017522215843198 1.0000000180025095e-35 1.8783484101295473 0.37803457677364355 1.0000000180025095e-35 -0.01677738036960363 -0.20920605212450025 0.57937014102935802 1.0000000180025095e-35 0.71066792309284221 -0.56968981772661198 -0.77614131569862355
decision_type=2 2 2 2 2 2 2 2 2 2 2 2 2 2 2 2 2 2 2 2 2 2 2
left_child=1 5 4 7 8 11 -5 13 -2 15 -9 19 22 14 20 17 -17 21 -16 -1 -3 -7 -13
right_child=2 3 -4 6 -6 9 -8 10 -10 -11 -12 12 -14 -15 18 16 -18 -19 -20 -21 -22 -23 -24
leaf_value=-1482.9686362390346 2866.2666290509237 -486.7161721951839 6021.2769982394366 500.8670703125 1770.1193566176473 -717.5054607077202 1864.4249884733606 548.286709190691 3830.7331161971833 -191.95179673745599 12.995951546682436 -1293.1771888706141 -877.15190676510997 -554.27110006893372 -69.540986147280094 -912.74301661531672 -474.99505845620575 -1130.5740547975352 88.052772221284741 -1238.7301882684426 -316.2331519990808 -888.08070772058807 -1166.2770819805194
leaf_weight=17.000000000000004 8.0000000000000053 6.0000000000000053 6.9999999999999991 4.9999999999999982 4.9999999999999991 5.0000000000000018 6 6.9999999999999982 6.9999999999999991 6.9999999999999991 7 16.999999999999996 8.9999999999999982 4.9999999999999991 7.9999999999999982 7 7.0000000000000018 6.9999999999999991 5 5.9999999999999991 5 5 23.000000000000004
leaf_count=17 8 6 7 5 5 5 6 7 7 7 7 17 9 5 8 7 7 7 5 6 5 5 23
internal_value=-25.1146 -651.999 3770.98 192.047 2957.34 -1066.15 1254.72 -82.08 3338.74 -719.984 282.632 -1247.59 -1161.64 -258.514 -194.854 -838.216 -698.79 -948.279 -8.71831 -1424.89 -412.771 -810.742 -1223.3
internal_weight=191 164 27 54 20 110 11 43 15 38 14 72 49 29 24 31 14 17 13 23 11 10 40
internal_count=191 164 27 54 20 110 11 43 15 38 14 72 49 29 24 31 14 17 13 23 11 10 40
is_linear=0
shrinkage=0.03


Tree=7
num_leaves=23
num_cat=0
split_feature=1 1 1 18 7 1 1 1 19 0 1 1 10 1 18 0 1 1 1 18 4 1
split_gain=4.76078e+11 6.00276e+10 5.00545e+10 1.65044e+10 8.79094e+09 7.14197e+09 5.24099e+09 2.90991e+09 2.50546e+09 1.05606e+09 8.57567e+08 7.61343e+08 5.62238e+08 1.02275e+09 5.58782e+08 5.5583e+08 6.61058e+08 2.18043e+08 8.13315e+07 6.81063e+07 6.678e+07 4.20833e+07
threshold=1.1233346462249758 0.22252129763364795 2.1099295616149907 1.0000000180025095e-35 1.0000000180025095e-35 -0.50048688054084767 0.70439237356185924 0.69028088450431835 0.94645097851753246 1.0000000180025095e-35 -1.1017522215843198 1.9731494784355166 1.8783484101295473 0.37803457677364355 1.4852641820907595 -1.0000000180025095e-35 -0.01677738036960363 -0.20920605212450025 0.57937014102935802 1.5348535776138308 0.71066792309284221 -0.38300025463104242
decision_type=2 2 2 2 2 2 2 2 2 2 2 2 2 2 2 2 2 2 2 2 2 2
left_child=1 5 4 7 11 10 -5 12 15 -9 19 -2 13 20 -12 17 -17 21 -15 -1 -3 -7
right_child=2 3 -4 6 -6 8 -8 9 -10 -11 14 -13 -14 18 -16 16 -18 -19 -20 -21 -22 -23
leaf_value=-1438.7397505482452 3001.4912225274702 -472.35407322617777 5843.1827640845067 486.13568818933828 1856.1131480532788 -932.33713947233616 1809.4092033811476 532.06978470063552 -237.73810890480325 12.611544825594189 -1189.3617107529526 3735.0663235294119 -537.96899327895221 -67.48051161024307 -881.74325665509252 -885.74641670334495 -460.94589059749097 -1097.1345356514084 85.462985153198233 -1202.1774859118852 -306.93217543658085 -743.57304175204911
leaf_weight=17.000000000000004 9.0000000000000053 6.0000000000000053 6.9999999999999991 4.9999999999999982 5.9999999999999991 5.9999999999999982 6 6.9999999999999982 7.9999999999999991 7 38 4.9999999999999991 4.9999999999999991 7.9999999999999982 7.9999999999999991 7 7.0000000000000018 6.9999999999999991 5 5.9999999999999991 5 6
leaf_count=17 9 6 7 5 6 6 6 7 8 7 38 5 5 8 8 7 7 7 5 6 5 6
internal_value=-24.2716 -632.6 3659.46 186.374 2869.89 -1034.45 1217.72 -79.6717 -717.76 274.272 -1221.31 3288.11 -250.897 -189.106 -1137.89 -833.058 -678.122 -943.074 -8.45251 -1382.5 -400.605 -844.881
internal_weight=191 164 27 54 20 110 11 43 41 14 69 14 29 24 46 33 14 19 13 23 11 12
internal_count=191 164 27 54 20 110 11 43 41 14 69 14 29 24 46 33 14 19 13 23 11 12
is_linear=0
shrinkage=0.03


Tree=8
num_leaves=24
num_cat=0
split_feature=1 1 1 8 17 1 1 1 3 19 2 1 8 10 1 2 1 2 1 8 4 4 1
split_gain=4.48316e+11 5.65117e+10 4.7135e+10 1.55456e+10 8.44575e+09 6.73319e+09 4.93587e+09 2.74062e+09 2.4841e+09 2.33759e+09 9.94508e+08 9.16837e+08 7.35055e+08 5.29704e+08 9.63392e+08 4.5801e+08 6.5373e+08 3.69729e+08 7.66025e+07 6.3203e+07 6.28664e+07 2.65828e+07 1.69953e+07
threshold=1.1233346462249758 0.22252129763364795 2.1099295616149907 1.0000000180025095e-35 0.69918152689933788 -0.44295731186866755 0.70439237356185924 0.69028088450431835 0.56927071511745464 0.94645097851753246 0.39411830902099615 -1.1017522215843198 1.0000000180025095e-35 1.8783484101295473 0.37803457677364355 0.13362987339496615 -0.01677738036960363 -0.33524991571903223 0.57937014102935802 1.0000000180025095e-35 0.71066792309284221 0.71066792309284221 -0.77614131569862355
decision_type=2 2 2 2 2 2 2 2 2 2 2 2 2 2 2 2 2 2 2 2 2 2 2
left_child=1 5 4 7 8 11 -5 13 -2 15 -9 19 22 14 20 17 21 -7 -16 -1 -3 -17 -13
right_child=2 3 -4 6 -6 9 -8 10 -10 -11 -12 12 -14 -15 18 16 -18 -19 -20 -21 -22 -23 -24
leaf_value=-1395.8300054824556 2693.9323408564792 -458.41574154713066 5670.3560915492953 471.83758674172805 1663.4655882352943 -748.03232389856544 1756.0167149077868 516.33250011820189 3616.2547711267607 -179.24264112015845 12.238537838358274 -1219.1365638706141 -827.08797733516485 -522.146375804228 -65.481090087890635 -744.10528554137295 -447.31229065801051 -1119.4124068263316 82.949367446899402 -1166.7034272540984 -297.90476275275734 -919.49354090073507 -1096.5814346590907
leaf_weight=17.000000000000004 8.0000000000000053 6.0000000000000053 6.9999999999999991 4.9999999999999982 4.9999999999999991 6 6 6.9999999999999982 6.9999999999999991 6.9999999999999991 7 16.999999999999996 8.9999999999999982 4.9999999999999991 7.9999999999999982 7.0000000000000018 6.9999999999999991 6.0000000000000018 5 5.9999999999999991 5 5 23.000000000000004
leaf_count=17 8 6 7 5 5 6 6 7 7 7 7 17 9 5 8 7 7 6 5 6 5 5 23
internal_value=-23.4351 -613.759 3551.27 180.868 2785.07 -1003.66 1181.81 -77.334 3145.45 -677.494 266.16 -1174.62 -1093.78 -243.504 -183.527 -789.065 -688.403 -941.439 -8.19481 -1341.37 -388.798 -824.179 -1151.58
internal_weight=191 164 27 54 20 110 11 43 15 38 14 72 49 29 24 31 19 12 13 23 11 12 40
internal_count=191 164 27 54 20 110 11 43 15 38 14 72 49 29 24 31 19 12 13 23 11 12 40
is_linear=0
shrinkage=0.03


Tree=9
num_leaves=25
num_cat=0
split_feature=2 12 20 15 9 3 2 20 19 4 4 16 9 16 3 2 16 8 12 17 12 9 2 19
split_gain=1.27361e+11 6.09606e+10 3.12503e+10 3.08128e+10 2.7538e+10 1.83579e+10 1.57689e+10 1.88185e+10 7.32125e+09 4.87012e+09 3.43742e+09 6.21318e+09 3.01261e+09 2.79407e+09 2.63751e+09 2.14491e+09 2.06146e+09 2.02218e+09 8.47982e+08 8.42802e+08 1.56179e+09 6.01253e+08 2.73675e+08 1.38207e+07
threshold=0.31597177684307104 2.5870993137359624 1.6405401825904848 1.992331922054291 3.0284247398376469 0.56927071511745464 -0.75203168392181385 1.2448678612709048 1.2287150621414187 -0.56968981772661198 0.71066792309284221 1.5561549067497256 2.2423017024993901 0.32309621572494512 0.56927071511745464 -1.1688136458396909 1.3768010139465334 1.0000000180025095e-35 1.483787000179291 1.0000000180025095e-35 1.0000000180025095e-35 1.4829782843589785 -0.96042275428771962 1.0000000180025095e-35
decision_type=2 2 2 2 2 2 2 2 2 2 2 2 2 2 2 2 2 2 2 2 2 2 2 2
left_child=6 2 3 4 9 -4 15 12 -9 -2 11 -11 13 17 -12 23 -15 18 21 20 22 -8 -17 -1
right_child=1 -3 5 -5 -6 -7 7 8 -10 10 14 -13 -14 16 -16 19 -18 -19 -20 -21 -22 -23 -24 -25
leaf_value=-1297.3629351668549 738.71585535386134 4069.5398069852945 974.93356141137303 2222.8176207894339 2194.8014797794121 3446.459384191176 -1085.6057509328355 1522.7662373621324 67.354208622685192 -824.56994992893999 453.36067993164039 389.44786649816177 63.982333409926468 155.21425336052394 -258.64037914379225 -374.95848296618823 -637.42651889854744 -273.95630514705886 -593.10097213995255 -1173.0087102971311 -1131.5688857581968 -688.1593841911764 -688.66964096966865 -1119.3625781250003
leaf_weight=22.000000000000004 4.999999999999992 4.9999999999999991 5.9999999999999982 6.9999999999999991 4.9999999999999991 5 20.000000000000007 4.9999999999999991 7.9999999999999991 15.000000000000009 8.0000000000000018 4.9999999999999991 4.9999999999999991 4.9999999999999982 10.999999999999998 6.0000000000000036 7 4.9999999999999991 5.9999999999999991 5.9999999999999991 5.9999999999999991 4.9999999999999991 5.0000000000000018 6.9999999999999991
leaf_count=22 5 5 6 7 5 5 20 5 8 15 8 5 5 5 11 6 7 5 6 6 6 5 5 7
internal_value=-87.112 906.493 664.732 375.748 107.891 2119.28 -693.634 -384.895 634.479 -133.697 -247.148 -520.638 -635.654 -708.514 41.9534 -1084 -308.606 -840.593 -930.811 -859.627 -742.809 -1009.17 -522.474 -1258.39
internal_weight=190 72 67 56 49 11 118 66 13 44 39 20 53 48 19 52 12 36 31 23 17 25 11 29
internal_count=190 72 67 56 49 11 118 66 13 44 39 20 53 48 19 52 12 36 31 23 17 25 11 29
is_linear=0
shrinkage=0.03


Tree=10
num_leaves=21
num_cat=0
split_feature=1 1 1 8 18 3 1 1 1 19 18 2 1 9 1 1 0 1 1 1
split_gain=3.57354e+11 4.78076e+10 2.54576e+10 2.49375e+10 1.22346e+10 1.04541e+10 5.35261e+09 2.5688e+09 1.31971e+09 1.16441e+09 1.10146e+09 9.48957e+08 7.80194e+08 6.29534e+08 5.94312e+08 5.88804e+08 5.71002e+08 5.44399e+08 5.0962e+08 3.27516e+07
threshold=1.1233346462249758 0.25696944445371633 1.5549779534339907 1.0000000180025095e-35 1.0000000180025095e-35 0.56927071511745464 -0.44295731186866755 0.70439237356185924 0.69028088450431835 1.5392055511474612 1.3860854506492617 0.13362987339496615 -0.20920605212450025 2.0815038681030278 0.47051286697387701 -0.9149402081966399 1.0000000180025095e-35 -0.01677738036960363 -0.77614131569862355 -1.1017522215843198
decision_type=2 2 2 2 2 2 2 2 2 2 2 2 2 2 2 2 2 2 2 2
left_child=1 6 3 -2 8 -4 10 -6 13 11 15 12 -8 14 -3 -1 -10 -13 19 -12
right_child=2 4 5 -5 7 -7 9 -9 16 -11 18 17 -14 -15 -16 -17 -18 -19 -20 -21
leaf_value=-1272.8365327513345 509.41757620389319 -297.23241726345458 2482.9011121323515 3243.4653765368848 613.07388327205899 4216.9113029442151 -707.39526014984619 1590.1615211397059 422.96315606846531 -231.2247219669118 -1104.057580422794 -734.62985433563938 -1241.8389338235295 -467.04831190765879 56.458409759186132 -1065.1527695427051 5.534177005391725 -421.39044610662756 -627.07889792520496 -879.31354319852949
leaf_weight=28 6.0000000000000018 8.0000000000000053 5.0000000000000027 6 4.9999999999999982 11.999999999999998 6 5 4.9999999999999982 4.9999999999999991 4.9999999999999991 12.999999999999998 4.9999999999999982 5.9999999999999991 8.9999999999999982 34 7 9.0000000000000018 5.9999999999999991 4.9999999999999991
leaf_count=28 6 8 5 6 5 12 6 5 5 5 5 13 5 6 9 34 7 9 6 5
internal_value=-84.4015 -637.025 2975.26 1891.95 192.685 3724.41 -958.784 1112.53 -72.5469 -663.676 -1101.52 -728.302 -959.324 -205.316 -110.749 -1160.84 181.521 -608.973 -865.862 -1001.5
internal_weight=190 161 29 12 45 17 116 10 35 38 78 33 11 23 17 62 12 22 16 10
internal_count=190 161 29 12 45 17 116 10 35 38 78 33 11 23 17 62 12 22 16 10
is_linear=0
shrinkage=0.03


Tree=11
num_leaves=22
num_cat=0
split_feature=2 12 18 15 18 9 19 19 2 4 16 3 9 15 17 16 8 12 2 2 8
split_gain=1.12668e+11 5.4229e+10 3.31821e+10 2.66311e+10 2.54423e+10 2.30912e+10 2.03148e+10 7.68546e+09 6.00059e+09 2.88546e+09 5.16275e+09 2.34147e+09 2.28038e+09 2.28876e+09 5.24816e+09 2.2137e+09 1.18593e+09 4.01421e+08 6.15813e+08 2.12973e+08 3.63727e+07
threshold=0.31597177684307104 2.5870993137359624 1.7828003764152529 1.992331922054291 1.7332110404968264 3.0284247398376469 1.5392055511474612 0.74886608123779308 -1.1688136458396909 0.71066792309284221 1.5561549067497256 0.56927071511745464 1.8849729895591738 0.8871564269065858 1.0921276211738589 1.5561549067497256 1.0000000180025095e-35 1.483787000179291 -0.96042275428771962 1.0000000180025095e-35 1.0000000180025095e-35
decision_type=2 2 2 2 2 2 2 2 2 2 2 2 2 2 2 2 2 2 2 2 2
left_child=4 2 3 5 8 7 -6 9 20 10 -2 -11 13 16 15 -15 17 18 -10 -18 -1
right_child=1 -3 -4 -5 6 -7 -8 -9 12 11 -12 -13 -14 14 -16 -17 19 -19 -20 -21 -22
leaf_value=-1220.9297797652712 -731.01514000934083 3836.0207812500003 2425.6487579571763 2100.3309282157793 2076.232086397059 2058.5471829044118 -343.15442563657405 843.25450566681343 -635.69293485753724 427.97818797923878 366.85962545955886 -242.87741659628375 -217.14716292496564 367.72500228131389 -1024.499318576389 -479.19723604090063 -677.782614889706 -701.59301307960789 -1025.1105890804595 -383.96340533088227 -1031.0036834016394
leaf_weight=22.000000000000004 16.000000000000004 4.9999999999999991 7.9999999999999991 6.9999999999999991 4.9999999999999991 4.9999999999999991 7.9999999999999991 6.9999999999999991 4.9999999999999956 8.0000000000000018 4.9999999999999991 10.999999999999998 8.9999999999999982 6.0000000000000018 7.9999999999999991 5 4.9999999999999982 7.9999999999999991 26.000000000000007 5 5.9999999999999991
leaf_count=22 16 5 8 7 5 5 8 7 5 8 5 11 9 6 8 5 5 8 26 5 6
internal_value=-81.8049 852.73 624.711 376.825 -652.269 141.229 596.124 -66.6786 -807.252 -227.623 -469.116 40.3498 -668.878 -728.259 -444.986 -18.0883 -836.97 -912.54 -964.547 -536.129 -1184.05
internal_weight=190 72 67 59 118 52 13 47 105 40 21 19 77 68 19 11 49 39 31 10 28
internal_count=190 72 67 59 118 52 13 47 105 40 21 19 77 68 19 11 49 39 31 10 28
is_linear=0
shrinkage=0.03


Tree=12
num_leaves=20
num_cat=0
split_feature=1 1 1 8 19 1 1 1 11 0 2 1 1 1 19 8 16 2 2
split_gain=3.13358e+11 4.21083e+10 2.51427e+10 1.69591e+10 1.49752e+10 1.30735e+10 4.44077e+09 3.78415e+09 2.35252e+09 2.11709e+09 1.84055e+09 1.00528e+09 9.18367e+08 6.34657e+08 4.65781e+08 2.76636e+08 2.4766e+08 2.55105e+08 8.78914e+07
threshold=1.1233346462249758 0.087154503911733641 1.9731494784355166 1.0000000180025095e-35 0.74886608123779308 1.5549779534339907 0.54138207435607921 -0.50048688054084767 1.0000000180025095e-35 -1.0000000180025095e-35 0.91509580612182628 0.82828688621521007 0.51970538496971141 -1.1017522215843198 1.2287150621414187 1.0000000180025095e-35 1.01809298992157 -0.23105438798665998 0.75880256295204174
decision_type=2 2 2 2 2 2 2 2 2 2 2 2 2 2 2 2 2 2 2
left_child=1 7 3 5 8 -2 -6 13 9 11 -11 -3 -12 -1 16 -15 17 -9 -19
right_child=2 4 -4 -5 6 -7 -8 14 -10 10 12 -13 -14 15 -16 -17 -18 18 -20
leaf_value=-1210.2636757635746 477.65334720799132 8.8414518827550577 4069.2712221534648 3356.356432658451 398.18775482678024 2459.8394800204915 1515.6749405809858 -836.63788278499032 -620.42008092809613 -656.28664798924103 -322.54397460937497 607.64819393382345 153.2327677162925 -1027.7232693365102 -420.2225486680328 -768.79052382172131 -932.25481158088235 -539.57235826646956 -720.92490579044113
leaf_weight=22 6.0000000000000053 4.9999999999999982 9.9999999999999982 6.9999999999999991 5.9999999999999982 6 7 7.0000000000000062 7.9999999999999991 6.0000000000000062 5.9999999999999991 5 8.9999999999999982 34 5.9999999999999991 5.9999999999999991 4.9999999999999991 10.999999999999998 4.9999999999999991
leaf_count=22 6 5 10 7 6 6 7 7 8 6 6 5 9 34 6 6 5 11 5
internal_value=0.989167 -558.226 2847.03 2185.8 129.222 1480.89 1006.89 -930.341 -165.16 -46.0561 -216.893 311.297 -37.9534 -1070.56 -672.257 -990.897 -724.577 -675.589 -600.371
internal_weight=177 148 29 19 52 12 13 96 39 31 21 10 15 62 34 40 28 23 16
internal_count=177 148 29 19 52 12 13 96 39 31 21 10 15 62 34 40 28 23 16
is_linear=0
shrinkage=0.03


Tree=13
num_leaves=21
num_cat=0
split_feature=1 1 1 8 19 1 1 1 1 2 2 1 1 19 8 4 16 2 4 1
split_gain=2.95049e+11 3.96401e+10 2.36621e+10 1.59688e+10 1.41026e+10 1.23133e+10 4.18174e+09 3.55747e+09 2.06211e+09 1.66348e+09 3.01316e+09 1.119e+09 5.97317e+08 4.38594e+08 2.59428e+08 2.38073e+08 2.33611e+08 2.40286e+08 3.33106e+08 1.16017e+08
threshold=1.1233346462249758 0.087154503911733641 1.9731494784355166 1.0000000180025095e-35 0.74886608123779308 1.5549779534339907 0.54138207435607921 -0.50048688054084767 0.34724727272987371 0.2378252372145653 1.2276821732521059 0.82828688621521007 -1.1017522215843198 1.2287150621414187 1.0000000180025095e-35 0.71066792309284221 1.01809298992157 -0.23105438798665998 -1.0000000180025095e-35 0.64048960804939281
decision_type=2 2 2 2 2 2 2 2 2 2 2 2 2 2 2 2 2 2 2 2
left_child=1 7 3 5 8 -2 -6 12 15 11 -11 -10 -1 16 -14 -3 17 -9 -19 -12
right_child=2 4 -4 -5 6 -7 -8 13 9 10 19 -13 14 -15 -16 -17 -18 18 -20 -21
leaf_value=-1174.1200892604638 463.55869748975363 -661.7626757812501 3948.4017373143561 3257.0839634683098 386.43795734342984 2387.2540804303276 1470.8451430457746 -811.89223914777642 -14.407681604604246 -743.41577621710064 -2.1519003746157792 589.77619255514696 -996.98198623075507 -407.8225574731045 -746.10489690061468 -368.01855276639338 -904.83553308823525 -394.36659403816572 -690.50854907951748 192.42999181410843
leaf_weight=22 6.0000000000000053 4.9999999999999982 9.9999999999999982 6.9999999999999991 5.9999999999999982 6 7 7.0000000000000062 6.0000000000000018 6.0000000000000027 5.9999999999999982 5 34 5.9999999999999991 5.9999999999999991 6 4.9999999999999991 6.0000000000000027 9.9999999999999947 5
leaf_count=22 6 5 10 7 6 6 7 7 6 6 6 5 34 6 6 6 5 6 10 5
internal_value=1.04404 -541.588 2762.68 2121.22 125.408 1437.19 977.12 -902.633 -160.269 -23.0106 -208.571 263.06 -1038.59 -652.393 -961.305 -506.298 -703.163 -655.594 -582.595 87.2309
internal_weight=177 148 29 19 52 12 13 96 39 28 17 11 62 34 40 11 28 23 16 11
internal_count=177 148 29 19 52 12 13 96 39 28 17 11 62 34 40 11 28 23 16 11
is_linear=0
shrinkage=0.03


Tree=14
num_leaves=21
num_cat=0
split_feature=1 1 18 1 18 7 1 1 11 1 1 19 4 6 1 8 16 4 7 4
split_gain=2.77809e+11 3.73153e+10 2.45804e+10 2.18155e+10 1.32812e+10 5.64248e+09 3.95384e+09 3.3446e+09 2.16233e+09 1.40573e+09 5.62173e+08 4.12947e+08 3.84673e+08 8.84758e+08 3.60292e+08 2.43288e+08 2.20401e+08 1.64124e+07 1.27961e+07 5.75614e+06
threshold=1.1233346462249758 0.087154503911733641 1.8323897719383242 1.8080481886863711 1.0000000180025095e-35 1.0000000180025095e-35 0.70439237356185924 -0.50048688054084767 1.0000000180025095e-35 0.47051286697387701 -1.1017522215843198 1.2287150621414187 0.71066792309284221 1.0000000180025095e-35 2.0276328325271611 1.0000000180025095e-35 1.01809298992157 0.71066792309284221 1.0000000180025095e-35 1.0000000180025095e-35
decision_type=2 2 2 2 2 2 2 2 2 2 2 2 2 2 2 2 2 2 2 2
left_child=1 7 3 5 8 -2 -6 10 9 18 -1 16 -11 -14 -5 -12 17 19 -3 -9
right_child=2 4 -4 14 6 -7 -8 11 -10 12 15 -13 13 -15 -16 -17 -18 -19 -20 -21
leaf_value=-1139.0558473557692 1888.4342825704209 -282.1267038143381 4594.1606250000004 2812.9932325819677 453.79124479052052 557.54874540441165 1508.1832108094261 -637.2271645375838 -592.00481219256358 -65.099427422417506 -967.16023838434739 -395.78843621926228 1.3954841557255495 507.05076171874992 3470.7531839139342 -724.08867955942617 -878.22271139705879 -715.00444864241808 -375.96146943933815 -534.56112328701329
leaf_weight=22 7.0000000000000053 5.0000000000000018 4.9999999999999991 5.9999999999999982 6.9999999999999982 5 6 11.000000000000009 7.9999999999999991 8.0000000000000018 34 5.9999999999999991 7.9999999999999982 5 6 5.9999999999999991 4.9999999999999991 5.9999999999999991 5 5.9999999999999991
leaf_count=22 7 5 5 6 7 5 6 11 8 8 34 6 8 5 6 6 5 6 5 6
internal_value=1.09368 -525.447 2680.84 2264.82 121.695 1343.09 948.232 -875.745 -155.538 -41.3599 -1007.57 -633.103 98.1022 198.265 3167.84 -932.596 -682.367 -636.172 -332.302 -604.33
internal_weight=177 148 29 24 52 12 13 96 39 31 62 34 21 13 12 40 28 23 10 17
internal_count=177 148 29 24 52 12 13 96 39 31 62 34 21 13 12 40 28 23 10 17
is_linear=0
shrinkage=0.03


Tree=15
num_leaves=23
num_cat=0
split_feature=1 1 18 1 1 0 3 19 0 2 1 2 18 2 1 1 1 16 9 1 13 1
split_gain=3.03301e+11 5.04726e+10 3.04382e+10 2.9248e+10 7.56125e+09 3.44294e+09 2.48307e+09 2.41122e+09 1.72521e+09 4.6845e+09 1.21055e+09 8.69741e+08 7.32159e+08 5.66072e+08 5.55011e+08 5.31813e+08 3.03559e+08 2.18223e+08 1.99944e+08 1.90852e+08 2.99246e+07 2.85779e+07
threshold=1.4099585413932803 0.34724727272987371 1.0000000180025095e-35 2.1099295616149907 -0.44295731186866755 1.0311834812164309 0.56927071511745464 1.3133943080902102 1.0000000180025095e-35 1.1755844950675967 0.78262919187545787 0.13362987339496615 1.3860854506492617 -0.33524991571903223 0.51970538496971141 -0.01677738036960363 -0.9149402081966399 0.32309621572494512 -0.12500052526593206 -0.77614131569862355 1.3945930004119875 0.22252129763364795
decision_type=2 2 2 2 2 2 2 2 2 2 2 2 2 2 2 2 2 2 2 2 2 2
left_child=1 4 8 6 12 -4 -2 11 10 -10 -3 13 16 -6 -11 20 -1 21 -16 -14 -13 -17
right_child=3 2 5 -5 7 -7 -8 -9 9 14 -12 15 19 -15 18 17 -18 -19 -20 -21 -22 -23
leaf_value=-1082.6081754233066 2022.8380147058811 -32.340242137640303 2316.6904044117655 5173.5191419057373 -532.03876148897041 1248.2351573503522 2953.8116073638612 -13.314336407001203 -905.50994503333868 -188.45369284237134 545.3672528176229 -553.83399686219263 -825.94047887731483 -985.30940629802774 305.16637110975927 -211.41919289981595 -921.27501675793053 -503.7998475922131 48.125584716796865 -558.18374655330877 -708.26401424632343 -320.62507492315569
leaf_weight=25 5.0000000000000027 6.9999999999999982 4.9999999999999982 5.9999999999999991 5 7 9.9999999999999982 8.9999999999999982 6.0000000000000027 4.9999999999999991 6 5.9999999999999982 7.9999999999999991 5.9999999999999982 5.9999999999999982 5.0000000000000053 33 5.9999999999999991 5 4.9999999999999991 5 6
leaf_count=25 5 7 5 6 5 7 10 9 6 5 6 6 8 6 6 5 33 6 5 5 5 6
internal_value=10.4657 -419.93 411.825 3398.5 -748.508 1708.89 2658.94 -456.19 -36.4855 -198.089 236.421 -558.096 -945.211 -785.927 71.1703 -466.113 -992.559 -357.148 189.816 -728.004 -629.778 -273.338
internal_weight=187 166 47 21 119 12 15 48 35 22 13 39 71 11 16 28 58 17 11 13 11 11
internal_count=187 166 47 21 119 12 15 48 35 22 13 39 71 11 16 28 58 17 11 13 11 11
is_linear=0
shrinkage=0.03


Tree=16
num_leaves=23
num_cat=0
split_feature=1 1 18 1 1 0 3 19 4 0 1 1 2 18 2 1 1 1 1 16 2 6
split_gain=2.85609e+11 4.7523e+10 2.86698e+10 2.7555e+10 7.11146e+09 3.24485e+09 2.33364e+09 2.27646e+09 2.01911e+09 5.33167e+09 1.65763e+09 1.4597e+09 7.34562e+08 6.87558e+08 5.33014e+08 4.64572e+08 2.85825e+08 2.77621e+08 1.79483e+08 1.71722e+08 2.97056e+07 7.83384e+06
threshold=1.4099585413932803 0.34724727272987371 1.0000000180025095e-35 2.1099295616149907 -0.44295731186866755 1.0311834812164309 0.56927071511745464 0.94645097851753246 0.71066792309284221 -1.0000000180025095e-35 0.82828688621521007 0.087154503911733641 0.13362987339496615 1.3860854506492617 -0.33524991571903223 -0.01677738036960363 -0.9149402081966399 0.51970538496971141 -0.77614131569862355 0.32309621572494512 1.2276821732521059 1.0000000180025095e-35
decision_type=2 2 2 2 2 2 2 2 2 2 2 2 2 2 2 2 2 2 2 2 2 2
left_child=1 4 8 6 13 -4 -2 12 9 -3 17 -9 14 16 -6 21 -1 -10 -15 -17 -19 -14
right_child=3 2 5 -5 7 -7 -8 11 10 -11 -12 -13 15 18 -16 19 -18 20 -20 -21 -22 -23
leaf_value=-1050.2593083914344 1963.3428170955872 193.91632297092016 2248.552467830883 5020.8580251024596 -516.3905616670495 1211.3155036861797 2866.0746488242576 -375.74837714523568 -182.91093771541796 -981.60345967277146 621.40923483455879 312.07613852108221 -553.24356962316187 -801.46816984953705 -956.23470366931372 -279.09656540068045 -893.72026848092901 38.471153464395499 -541.76657628676469 -488.93362865010243 137.86846909466911 -687.4327297794116
leaf_weight=25 5.0000000000000027 7.9999999999999991 4.9999999999999982 5.9999999999999991 5 7 9.9999999999999982 5.9999999999999982 5.0000000000000062 5.9999999999999991 4.9999999999999991 5 4.9999999999999982 7.9999999999999991 5.9999999999999982 10.000000000000005 33 5.9999999999999982 4.9999999999999991 5.9999999999999991 5 5
leaf_count=25 5 8 5 6 5 7 10 6 5 6 5 5 5 8 6 10 33 6 5 6 5 5
internal_value=10.2523 -407.402 399.683 3297.99 -726.234 1658.51 2580.16 -442.743 -35.4104 -313.266 150.434 -63.1057 -555.134 -916.998 -762.759 -464.706 -962.886 0.307916 -706.481 -360.334 84.487 -626.48
internal_weight=187 166 47 21 119 12 15 48 35 14 21 11 37 71 11 26 58 16 13 16 11 10
internal_count=187 166 47 21 119 12 15 48 35 14 21 11 37 71 11 26 58 16 13 16 11 10
is_linear=0
shrinkage=0.03


Tree=17
num_leaves=22
num_cat=0
split_feature=1 1 18 1 1 0 3 19 4 0 1 2 18 2 1 1 16 1 1 13 1
split_gain=2.68949e+11 4.47456e+10 2.70041e+10 2.596e+10 6.68872e+09 3.05816e+09 2.19319e+09 2.15682e+09 1.90194e+09 5.02145e+09 1.56573e+09 7.68742e+08 6.45672e+08 5.01886e+08 4.69973e+08 2.70071e+08 1.91375e+08 1.73228e+08 1.6879e+08 2.62612e+07 2.50346e+07
threshold=1.4099585413932803 0.34724727272987371 1.0000000180025095e-35 2.1099295616149907 -0.44295731186866755 1.0311834812164309 0.56927071511745464 1.3133943080902102 0.71066792309284221 -1.0000000180025095e-35 0.74745854735374462 0.13362987339496615 1.3860854506492617 -0.33524991571903223 -0.01677738036960363 -0.86478054523468006 0.32309621572494512 0.51970538496971141 -0.77614131569862355 1.3945930004119875 0.22252129763364795
decision_type=2 2 2 2 2 2 2 2 2 2 2 2 2 2 2 2 2 2 2 2 2
left_child=1 4 8 6 12 -4 -2 11 9 -3 17 13 15 -6 19 -1 20 -10 -14 -13 -16
right_child=3 2 5 -5 7 -7 -8 -9 10 -11 -12 14 18 -15 16 -17 -18 -19 -20 -21 -22
leaf_value=-1013.1816610931735 1905.5974586397047 188.1706512677228 2182.4185523897063 4872.7014805327872 -501.20260282628664 1175.4878807218308 2780.9437662438118 -10.84093027974223 -177.53120102826276 -952.63814004866799 508.91526401573498 -522.03906378073771 -777.72097656249991 -928.01792160284333 -200.4697328814336 -862.18487263866541 -474.50608238345285 40.975655007833964 -525.83227022058827 -667.21410615808816 -302.9283720222848
leaf_weight=26.999999999999996 5.0000000000000027 7.9999999999999991 4.9999999999999982 5.9999999999999991 5 7 9.9999999999999982 8.9999999999999982 5.0000000000000027 5.9999999999999991 6.9999999999999991 5.9999999999999982 7.9999999999999991 5.9999999999999982 5.0000000000000053 31.000000000000004 5.9999999999999991 8.9999999999999982 4.9999999999999991 5 6
leaf_count=27 5 8 5 6 5 7 10 9 5 6 7 6 8 6 5 31 6 9 5 5 6
internal_value=10.0458 -395.244 387.902 3200.45 -704.619 1609.61 2503.71 -429.682 -34.3629 -304.036 146.008 -526.062 -889.627 -740.274 -439.573 -934.099 -337.12 -37.7679 -685.594 -593.444 -258.582
internal_weight=187 166 47 21 119 12 15 48 35 14 21 39 71 11 28 58 17 14 13 11 11
internal_count=187 166 47 21 119 12 15 48 35 14 21 39 71 11 28 58 17 14 13 11 11
is_linear=0
shrinkage=0.03


Tree=18
num_leaves=23
num_cat=0
split_feature=1 1 1 8 1 3 8 19 1 10 1 8 1 1 3 15 1 18 9 1 1 1
split_gain=2.49027e+11 3.13304e+10 2.0827e+10 1.69512e+10 1.05978e+10 6.43337e+09 3.40045e+09 2.11688e+09 2.03043e+09 1.0513e+09 1.38923e+09 1.00724e+09 9.03609e+08 3.93066e+08 2.30069e+08 2.04093e+08 1.91152e+08 1.58414e+08 1.37096e+08 1.0629e+08 4.86749e+07 2.39278e+07
threshold=1.1233346462249758 -0.01677738036960363 1.5549779534339907 1.0000000180025095e-35 0.70439237356185924 0.56927071511745464 1.0000000180025095e-35 1.5392055511474612 -0.70112657546997059 2.0378577709198002 0.37803457677364355 1.0000000180025095e-35 2.1099295616149907 -0.24171821773052213 0.56927071511745464 1.0000000180025095e-35 0.59539720416069042 1.0000000180025095e-35 -0.12500052526593206 -1.1017522215843198 -0.40852676331996912 -1.2468267679214475
decision_type=2 2 2 2 2 2 2 2 2 2 2 2 2 2 2 2 2 2 2 2 2 2
left_child=1 8 3 -2 7 -4 -6 9 17 10 14 13 -7 -10 -3 -16 18 19 -12 -1 -13 -19
right_child=2 4 5 -5 6 12 -8 -9 11 -11 16 20 -14 -15 15 -17 -18 21 -20 -21 -22 -23
leaf_value=-1035.808160585733 346.84554751536871 -444.7609142127402 2100.0497334558813 2599.3410553278686 438.39858591603706 3093.1583825231482 1415.9437591911765 435.37944106158085 -805.93130275974033 -616.44265768612138 -136.60492141473483 -457.74623110911875 3849.3733171106555 -579.55414094783043 -92.890092145134446 -365.1221197150735 169.74516518577201 -877.39726690573764 64.634705245221227 -895.08454208933222 -311.69019473805156 -701.74721737132359
leaf_weight=18.999999999999996 6.0000000000000018 9.0000000000000018 5.0000000000000027 6 8.9999999999999982 7.9999999999999982 4.9999999999999991 4.9999999999999991 22.999999999999996 4.9999999999999991 6.0000000000000018 6 6 12.000000000000002 4.9999999999999982 5 5.9999999999999991 6 6 19.000000000000004 4.9999999999999982 4.9999999999999982
leaf_count=19 6 9 5 6 9 8 5 5 23 5 6 6 6 12 5 5 6 6 6 19 5 5
internal_value=31.5111 -456.9 2482.89 1485.27 73.6588 3101.89 795.088 -142.467 -797.293 -212.129 -155.977 -651.009 3442.25 -730.189 -334.199 -231.274 32.9518 -933.016 -36.2823 -967.98 -394.764 -804.598
internal_weight=187 156 31 12 61 19 14 47 95 42 37 46 14 35 19 10 18 49 12 38 11 11
internal_count=187 156 31 12 61 19 14 47 95 42 37 46 14 35 19 10 18 49 12 38 11 11
is_linear=0
shrinkage=0.03


Tree=19
num_leaves=23
num_cat=0
split_feature=1 1 1 4 1 3 19 19 1 10 1 19 1 4 1 1 1 19 5 1 1 1
split_gain=2.34515e+11 2.94942e+10 1.96133e+10 1.59656e+10 9.98148e+09 6.05484e+09 3.20416e+09 1.99404e+09 1.91147e+09 9.90488e+08 1.30828e+09 9.47147e+08 8.53358e+08 4.90121e+08 3.69666e+08 3.0536e+08 1.80038e+08 1.48177e+08 1.29125e+08 1.0004e+08 4.58172e+07 2.24598e+07
threshold=1.1233346462249758 -0.01677738036960363 1.5549779534339907 -0.56968981772661198 0.70439237356185924 0.56927071511745464 0.74886608123779308 1.5392055511474612 -0.70112657546997059 2.0378577709198002 0.37803457677364355 1.0000000180025095e-35 2.1099295616149907 -0.56968981772661198 -0.24171821773052213 0.25696944445371633 0.59539720416069042 1.0000000180025095e-35 1.0000000180025095e-35 -1.1017522215843198 -0.40852676331996912 -1.2468267679214475
decision_type=2 2 2 2 2 2 2 2 2 2 2 2 2 2 2 2 2 2 2 2 2 2
left_child=1 8 3 -2 7 -4 -6 9 17 10 13 14 -7 -3 -10 -15 18 19 -12 -1 -13 -19
right_child=2 4 5 -5 6 12 -8 -9 11 -11 16 20 -14 15 -16 -17 -18 21 -20 -21 -22 -23
leaf_value=-1004.8966197643981 2522.6391470286885 -67.62625179515166 2038.283556985293 336.61074667008182 425.39115839025476 3001.5092650462962 1374.2983777573529 422.57417336856616 -781.85802632913976 -598.31199721392454 -132.57395860515655 -444.23896932633187 3735.785202356557 -555.31570235131471 -562.31120609504114 -268.55830274125219 164.73629265957192 -851.50688844774572 62.727452548918173 -868.37260246236895 -302.52282628676483 -681.10759191176487
leaf_weight=18.999999999999996 6 4.9999999999999991 5.0000000000000027 6.0000000000000018 8.9999999999999982 7.9999999999999982 4.9999999999999991 4.9999999999999991 22.999999999999996 4.9999999999999991 6.0000000000000018 6 6 7.0000000000000018 12.000000000000002 7 5.9999999999999991 6 6 19.000000000000004 4.9999999999999982 4.9999999999999982
leaf_count=19 6 5 5 6 9 8 5 5 23 5 6 6 6 7 12 7 6 6 6 19 5 5
internal_value=30.6811 -443.285 2409.56 1441.44 71.4917 3010.25 771.63 -138.256 -773.553 -205.866 -151.363 -631.619 3340.46 -324.314 -708.401 -414.859 31.9794 -905.24 -35.2116 -939.093 -383.129 -780.887
internal_weight=187 156 31 12 61 19 14 47 95 42 37 46 14 19 35 14 18 49 12 38 11 11
internal_count=187 156 31 12 61 19 14 47 95 42 37 46 14 19 35 14 18 49 12 38 11 11
is_linear=0
shrinkage=0.03


Tree=20
num_leaves=23
num_cat=0
split_feature=1 1 1 4 1 3 8 19 1 10 1 8 1 4 1 1 1 8 1 5 1 1
split_gain=2.20848e+11 2.77656e+10 1.84704e+10 1.50372e+10 9.40105e+09 5.69857e+09 3.0192e+09 1.87834e+09 1.79949e+09 9.33188e+08 1.23207e+09 8.90638e+08 8.05897e+08 4.61525e+08 3.47659e+08 2.87563e+08 1.71355e+08 1.38598e+08 9.41583e+07 6.30584e+07 4.31271e+07 2.10817e+07
threshold=1.1233346462249758 -0.01677738036960363 1.5549779534339907 -0.56968981772661198 0.70439237356185924 0.56927071511745464 1.0000000180025095e-35 1.5392055511474612 -0.70112657546997059 2.0378577709198002 0.37803457677364355 1.0000000180025095e-35 2.1099295616149907 -0.56968981772661198 -0.24171821773052213 0.25696944445371633 0.57937014102935802 1.0000000180025095e-35 -1.1017522215843198 1.0000000180025095e-35 -0.40852676331996912 -1.2468267679214475
decision_type=2 2 2 2 2 2 2 2 2 2 2 2 2 2 2 2 2 2 2 2 2 2
left_child=1 8 3 -2 7 -4 -6 9 17 10 13 14 -7 -3 -10 -15 19 18 -1 -12 -13 -19
right_child=2 4 5 -5 6 12 -8 -9 11 -11 16 20 -14 15 -16 -17 -18 21 -20 -21 -22 -23
leaf_value=-974.90758385143988 2448.2006096311475 -65.637245124368107 1978.3339935661752 326.67799180327853 412.76966527917881 2912.5757002314817 1333.8778124999999 410.14552274816174 -758.50383471996759 -580.71458223230707 -125.85524964276476 -431.13027471823762 3625.5489190573767 -538.89088271664878 -545.58128615702458 -260.61502761196078 133.68751867223668 -826.38045722336051 -842.45781393160973 23.674588272992299 -293.62510971966918 -661.07502068014719
leaf_weight=18.999999999999996 6 4.9999999999999991 5.0000000000000027 6.0000000000000018 8.9999999999999982 7.9999999999999982 4.9999999999999991 4.9999999999999991 22.999999999999996 4.9999999999999991 5.0000000000000018 6 6 7.0000000000000018 12.000000000000002 7 7.9999999999999991 6 19.000000000000004 5 4.9999999999999982 4.9999999999999982
leaf_count=19 6 5 5 6 9 8 5 5 23 5 5 6 6 7 12 7 8 6 19 5 5 5
internal_value=29.8723 -430.076 2338.39 1398.91 69.3876 2921.32 748.864 -134.17 -750.52 -199.79 -146.887 -612.806 3241.68 -314.725 -687.264 -402.588 31.0358 -878.291 -911.068 -51.5959 -371.837 -757.874
internal_weight=187 156 31 12 61 19 14 47 95 42 37 46 14 19 35 14 18 49 38 10 11 11
internal_count=187 156 31 12 61 19 14 47 95 42 37 46 14 19 35 14 18 49 38 10 11 11
is_linear=0
shrinkage=0.03


Tree=21
num_leaves=21
num_cat=0
split_feature=1 1 8 1 1 3 1 15 1 8 13 1 2 1 8 4 1 2 1 8
split_gain=2.3662e+11 4.13579e+10 1.87728e+10 1.62905e+10 4.59463e+09 3.06578e+09 2.71613e+09 1.96856e+09 1.98279e+09 8.9956e+08 8.12657e+08 6.8559e+08 6.19842e+08 4.35198e+08 4.36564e+08 2.65053e+08 4.23852e+08 1.68741e+08 9.92102e+07 1.86347e+07
threshold=1.4099585413932803 0.25696944445371633 1.0000000180025095e-35 2.1099295616149907 0.74745854735374462 0.56927071511745464 -0.44295731186866755 1.7488188147544863 1.0098250210285189 1.0000000180025095e-35 1.8155735135078432 0.57937014102935802 0.86299809813499462 -0.9149402081966399 1.0000000180025095e-35 1.0000000180025095e-35 -0.13238021731376645 1.1755844950675967 0.47051286697387701 1.0000000180025095e-35
decision_type=2 2 2 2 2 2 2 2 2 2 2 2 2 2 2 2 2 2 2 2
left_child=1 6 7 5 -4 -2 13 8 10 15 11 18 -7 19 -15 -8 -17 -13 -3 -1
right_child=3 2 4 -5 -6 12 9 -9 -10 -11 -12 17 -14 14 -16 16 -18 -19 -20 -21
leaf_value=-913.08524682519919 1784.8955611795759 -186.69881218405311 580.32544577205874 4076.3167209507046 1753.2505266203705 2999.8894623161773 -697.1521450034337 -443.87672452684859 650.7357284007353 -208.60822662018157 -334.04681355195891 341.44313652663936 2295.3384283088235 -770.07732510385188 -475.97909323770489 -675.06385566086067 -342.35127548720806 129.19081027560765 -12.540140623710524 -781.93492077464794
leaf_weight=25 7.0000000000000062 5.0000000000000053 4.9999999999999991 6.9999999999999991 7.9999999999999991 4.9999999999999982 9.0000000000000018 6.9999999999999991 4.9999999999999991 8.9999999999999982 4.9999999999999991 5.9999999999999991 5 33 5.9999999999999991 5.9999999999999991 8.9999999999999982 7.9999999999999991 7 6.9999999999999991
leaf_count=25 7 5 5 7 8 5 9 7 5 9 5 6 5 33 6 6 9 8 7 7
internal_value=76.0129 -341.201 315.733 2847.31 1310 2320.38 -694.899 12.7989 102.581 -467.544 12.3603 80.0018 2673.83 -799.764 -726.165 -563.377 -479.026 221.933 -86.0497 -886.922
internal_weight=184 160 56 24 13 17 104 43 36 33 31 26 10 71 39 24 15 14 12 32
internal_count=184 160 56 24 13 17 104 43 36 33 31 26 10 71 39 24 15 14 12 32
is_linear=0
shrinkage=0.03


Tree=22
num_leaves=25
num_cat=0
split_feature=2 3 18 12 15 9 18 20 4 2 12 15 4 2 4 2 0 3 2 2 9 9 2 2
split_gain=8.28218e+10 3.14687e+10 2.59499e+10 2.09665e+10 1.54311e+10 8.99498e+09 5.6833e+09 4.45839e+09 5.48786e+09 3.51087e+09 3.38141e+09 1.30375e+09 1.42329e+09 1.01945e+09 8.76611e+08 8.45675e+08 5.10116e+08 4.85129e+08 2.90879e+08 2.40742e+08 7.06287e+08 2.37691e+08 1.64521e+08 5.4097e+07
threshold=0.2378252372145653 0.56927071511745464 1.8323897719383242 2.5870993137359624 2.1234544515609746 3.0284247398376469 1.7332110404968264 1.6405401825904848 0.71066792309284221 -0.33524991571903223 1.784690320491791 1.2992557883262636 0.71066792309284221 -1.2730090618133543 -1.0000000180025095e-35 0.49831400811672216 -1.1030966341495512 -1.1876985430717466 1.2797798514366152 0.13362987339496615 -0.38406378030776972 0.54499065876007091 0.86299809813499462 -0.69993400573730458
decision_type=2 2 2 2 2 2 2 2 2 2 2 2 2 2 2 2 2 2 2 2 2 2 2 2
left_child=6 7 3 4 5 14 9 8 15 13 22 12 19 -1 -3 -2 -15 -18 -16 20 -11 23 -10 -19
right_child=1 2 -4 -5 -6 -7 -8 -9 10 11 -12 -13 -14 16 18 -17 17 21 -20 -21 -22 -23 -24 -25
leaf_value=-851.21934741558061 -778.20703469669058 412.12996093749967 2850.8023163067855 2587.925225409836 2023.0065786693135 1474.5531341911765 274.73435004340274 849.75876552894465 -86.635900735294129 -373.45040591380575 983.82620404411762 159.63108829273898 -9.6080529269366206 -382.81598583179516 -166.25465116995338 -288.79289770776097 -794.3595246898858 -689.66747469190136 88.063476472077554 -354.14329821977458 -865.19144990808809 -359.41426843979787 154.42763567756202 -549.25131466427308
leaf_weight=21 5.0000000000000027 5.0000000000000027 7.9999999999999991 5.9999999999999991 5.9999999999999991 4.9999999999999991 7.9999999999999991 5.9999999999999991 4.9999999999999982 6.0000000000000089 4.9999999999999991 4.9999999999999991 6.9999999999999991 8.9999999999999982 8.0000000000000053 8.9999999999999982 12.999999999999995 6.9999999999999991 7.9999999999999991 5.9999999999999991 5 4.9999999999999991 5 11.000000000000009
leaf_count=21 5 5 8 6 6 5 8 6 5 6 5 5 7 9 8 9 13 7 8 6 5 5 5 11
internal_value=73.8754 791.083 1306.01 974.158 664.457 344.396 -490.363 112.533 -42.3924 -555.013 355.182 -278.519 -370.084 -675.897 69.5978 -467.863 -592.374 -643.558 -39.3382 -517.591 -602.75 -555.253 34.2312 -607.366
internal_weight=184 81 46 38 32 26 103 35 29 95 15 29 24 66 21 14 45 36 16 17 11 23 10 18
internal_count=184 81 46 38 32 26 103 35 29 95 15 29 24 66 21 14 45 36 16 17 11 23 10 18
is_linear=0
shrinkage=0.03


Tree=23
num_leaves=27
num_cat=0
split_feature=2 3 18 2 18 20 4 2 2 2 12 2 15 4 2 2 15 17 3 2 15 2 5 2 12 9
split_gain=7.79914e+10 2.96361e+10 2.4431e+10 1.98882e+10 5.35089e+09 4.19897e+09 5.16917e+09 3.8332e+09 3.55094e+09 3.30363e+09 3.18542e+09 1.94266e+09 1.2281e+09 1.34067e+09 9.63771e+08 8.06011e+08 5.09205e+08 1.28518e+09 4.21184e+08 3.65136e+08 3.01799e+08 2.26822e+08 6.6546e+08 1.54986e+08 5.95127e+07 4.17085e+06
threshold=0.2378252372145653 0.56927071511745464 1.8323897719383242 1.3839753866195681 1.7332110404968264 1.6405401825904848 0.71066792309284221 0.75880256295204174 1.1755844950675967 -0.33524991571903223 1.784690320491791 1.2797798514366152 1.2992557883262636 0.71066792309284221 -1.1688136458396909 0.86299809813499462 0.8871564269065858 0.50270853936672222 -1.1876985430717466 -0.90832507610321034 1.992331922054291 0.13362987339496615 1.0000000180025095e-35 0.86299809813499462 1.0000000180025095e-35 -0.12500052526593206
decision_type=2 2 2 2 2 2 2 2 2 2 2 2 2 2 2 2 2 2 2 2 2 2 2 2 2 2
left_child=4 5 3 7 9 6 15 -3 -9 14 23 -10 13 21 24 -2 18 -18 -16 -20 -5 22 -11 -8 -1 -21
right_child=1 2 -4 20 -6 -7 10 8 11 12 -12 -13 -14 -15 16 -17 17 -19 19 25 -22 -23 -24 -25 -26 -27
leaf_value=-829.99578032434817 -680.04449933978844 -242.13953663545482 2766.3341104239007 1772.8807982197752 266.59407588252316 824.68393042392427 -84.087787798713251 1174.7226150173608 -92.322722167968749 -362.43055718093564 954.89012867647057 642.09128383091513 154.93607306985297 -9.323871176276409 -774.93326541385136 -221.6690344410211 -25.973765510110297 -703.36604779411743 -301.61013528262862 -559.43302806712938 2265.5137930836395 -343.69317494877049 -839.74464384191162 149.88563253963693 -660.96820772058823 -667.62538870389324
leaf_weight=21.000000000000004 7.0000000000000018 5.0000000000000027 7.9999999999999991 5.9999999999999982 7.9999999999999991 5.9999999999999991 4.9999999999999982 8.0000000000000018 4.9999999999999991 6.0000000000000089 4.9999999999999991 8.9999999999999982 4.9999999999999991 6.9999999999999991 10.999999999999998 7 4.9999999999999982 5 5.0000000000000009 8.0000000000000018 5 5.9999999999999991 5 5 4.9999999999999991 6.0000000000000009
leaf_count=21 7 5 8 6 8 6 5 8 5 6 5 9 5 7 11 7 5 5 5 8 5 6 5 5 5 6
internal_value=71.7457 767.724 1267.43 945.439 -475.791 109.228 -41.1222 503.783 673.64 -538.522 344.736 381.006 -270.312 -359.181 -655.785 -454.055 -560.188 -368.281 -622.721 -531.002 2015.2 -502.343 -585.002 33.2244 -800.148 -610.207
internal_weight=184 81 46 38 103 35 29 27 22 95 15 14 29 24 66 14 40 10 30 19 11 17 11 10 26 14
internal_count=184 81 46 38 103 35 29 27 22 95 15 14 29 24 66 14 40 10 30 19 11 17 11 10 26 14
is_linear=0
shrinkage=0.03


Tree=24
num_leaves=21
num_cat=0
split_feature=1 1 1 1 6 19 4 1 10 1 4 8 1 8 4 6 17 0 8 1
split_gain=2.16954e+11 2.41513e+10 1.4121e+10 6.46219e+09 3.09371e+09 2.27481e+09 1.4522e+09 1.42882e+09 1.01734e+09 1.02509e+09 7.62142e+08 4.06663e+08 3.84711e+08 3.5569e+08 2.89632e+08 5.73158e+08 8.55465e+07 1.64492e+07 1.58679e+07 1.10163e+07
threshold=1.31683886051178 -0.01677738036960363 2.1099295616149907 0.70439237356185924 1.0000000180025095e-35 1.5392055511474612 0.71066792309284221 -0.40852676331996912 2.0378577709198002 0.47051286697387701 -0.56968981772661198 1.0000000180025095e-35 -1.1017522215843198 1.0000000180025095e-35 -0.56968981772661198 1.0000000180025095e-35 0.30623547732830053 1.0311834812164309 1.0000000180025095e-35 -0.62485185265541066
decision_type=2 2 2 2 2 2 2 2 2 2 2 2 2 2 2 2 2 2 2 2
left_child=1 7 6 5 10 8 -2 12 9 14 -5 -9 18 19 -3 -16 17 -11 -1 -14
right_child=2 3 -4 4 -6 -7 -8 11 -10 16 -12 -13 13 -15 15 -17 -18 -19 -20 -21
leaf_value=-872.409626856008 2677.2594990808789 -73.140884076286767 3829.6813666373241 1159.8952068014705 -16.10218922334559 404.93497011856294 1971.8200451962812 -544.52925678453937 -573.57078986672786 64.425701760684717 635.75754482581965 -266.60273736658235 -749.52532965290607 -501.57831258585168 -530.94252695862644 -145.51603252142246 -31.17281360250124 143.37749655330882 -726.08385569852942 -665.59902105200365
leaf_weight=18.000000000000004 5.0000000000000062 4.9999999999999991 6.9999999999999991 4.9999999999999991 4.9999999999999991 6.9999999999999991 11.999999999999998 17.000000000000004 4.9999999999999991 5.0000000000000018 5.9999999999999991 6.9999999999999991 26.999999999999996 8.9999999999999982 7.0000000000000018 7 6.9999999999999991 5 4.9999999999999991 13.000000000000002
leaf_count=18 5 5 7 5 5 7 12 17 5 5 6 7 27 9 7 7 7 5 5 13
internal_value=31.1452 -368.332 2684.8 83.0559 603.197 -91.2179 2193.75 -669.031 -176.706 -120.15 882.305 -464.91 -736.331 -684.233 -270.988 -340.628 49.0333 104.931 -843.881 -723.977
internal_weight=184 160 24 64 16 48 17 96 41 36 11 24 72 49 19 14 17 10 23 40
internal_count=184 160 24 64 16 48 17 96 41 36 11 24 72 49 19 14 17 10 23 40
is_linear=0
shrinkage=0.03


Tree=25
num_leaves=22
num_cat=0
split_feature=1 1 1 1 6 19 4 1 10 1 4 8 1 8 4 13 3 15 5 8 1
split_gain=2.04286e+11 2.27354e+10 1.33001e+10 6.0871e+09 2.91418e+09 2.1423e+09 1.37192e+09 1.34484e+09 9.58476e+08 9.65429e+08 7.18169e+08 3.82568e+08 3.62441e+08 3.3444e+08 2.72725e+08 5.39754e+08 2.5917e+08 1.73684e+08 1.53234e+07 1.45382e+07 1.02377e+07
threshold=1.31683886051178 -0.01677738036960363 2.1099295616149907 0.70439237356185924 1.0000000180025095e-35 1.5392055511474612 0.71066792309284221 -0.40852676331996912 2.0378577709198002 0.47051286697387701 -0.56968981772661198 1.0000000180025095e-35 -1.1017522215843198 1.0000000180025095e-35 -0.56968981772661198 0.76312220096588146 0.56927071511745464 1.2992557883262636 1.0000000180025095e-35 1.0000000180025095e-35 -0.62485185265541066
decision_type=2 2 2 2 2 2 2 2 2 2 2 2 2 2 2 2 2 2 2 2 2
left_child=1 7 6 5 10 8 -2 12 9 14 -5 -9 19 20 -3 -16 -8 18 -11 -1 -14
right_child=2 3 -4 4 -6 -7 16 11 -10 17 -12 -13 13 -15 15 -17 -18 -19 -20 -21 -22
leaf_value=-846.38196585807987 2598.5166222426437 -70.9896834788603 3716.4090680017607 1125.7806617647059 -15.628602366727941 392.95802232339349 1636.6232743566181 -528.28891276041657 -556.70106904871329 157.23757022633265 616.99748783299185 -258.71730525486907 -727.12254122463105 -486.6963178228022 -515.23860145246454 -141.21203564281194 2084.8430413732394 -81.373676867875915 83.329995357325814 -704.72844439338235 -645.78348252624039
leaf_weight=18.000000000000004 5.0000000000000062 4.9999999999999991 6.9999999999999991 4.9999999999999991 4.9999999999999991 6.9999999999999991 4.9999999999999982 17.000000000000004 4.9999999999999991 5.0000000000000018 5.9999999999999991 6.9999999999999991 26.999999999999996 8.9999999999999982 7.0000000000000018 7 7 5.9999999999999991 6 4.9999999999999991 13.000000000000002
leaf_count=18 5 5 7 5 5 7 5 17 5 5 6 7 27 9 7 7 7 6 6 5 13
internal_value=30.2954 -357.344 2605.32 80.6128 585.432 -88.5276 2128.75 -649.095 -171.489 -116.593 856.322 -451.064 -714.388 -663.823 -262.977 -330.553 1913.15 47.5933 118.039 -818.772 -702.364
internal_weight=184 160 24 64 16 48 17 96 41 36 11 24 72 49 19 14 12 17 11 23 40
internal_count=184 160 24 64 16 48 17 96 41 36 11 24 72 49 19 14 12 17 11 23 40
is_linear=0
shrinkage=0.03


Tree=26
num_leaves=19
num_cat=0
split_feature=2 12 18 15 19 9 18 2 4 15 2 4 8 2 2 10 12 12
split_gain=6.35063e+10 2.33868e+10 2.24395e+10 1.92349e+10 1.74265e+10 9.29102e+09 3.14862e+09 2.81873e+09 2.56582e+09 1.63724e+09 1.16945e+09 1.0786e+09 8.83189e+08 7.63588e+08 5.0491e+08 3.43489e+08 2.20549e+08 4.91945e+07
threshold=0.2378252372145653 2.5870993137359624 1.7828003764152529 1.992331922054291 1.3133943080902102 3.0284247398376469 1.7828003764152529 0.49831400811672216 0.71066792309284221 1.5615008473396303 0.13362987339496615 -0.56968981772661198 1.0000000180025095e-35 -1.5334977507591245 -1.2730090618133543 1.4375991225242617 1.3751273155212405 0.99899810552597057
decision_type=2 2 2 2 2 2 2 2 2 2 2 2 2 2 2 2 2 2
left_child=6 2 3 5 -4 7 8 -2 10 11 12 -9 14 -14 -1 16 -16 -10
right_child=1 -3 4 -5 -6 -7 -8 9 17 -11 -12 -13 13 -15 15 -17 -18 -19
leaf_value=-803.76776231374208 -464.86184521967823 2309.2062511003523 3051.93346507353 1763.9559251210389 546.1984466911764 1327.0722403492646 76.384626974587917 345.75539867132517 -120.31625746783092 548.06765625000003 -236.44592558808378 -68.097700574881642 -640.21734604779397 -154.53454545141946 -585.97542471877273 -770.98214693509613 -375.47925473072485 11.891978400735294
leaf_weight=14.999999999999991 9.9999999999999982 6.9999999999999991 4.9999999999999982 6.9999999999999991 5 4.9999999999999991 8.9999999999999982 6.999999999999992 4.9999999999999982 5.9999999999999991 8.9999999999999982 28.000000000000007 5 6.9999999999999982 34.000000000000007 8.9999999999999982 5.9999999999999991 5
leaf_count=15 10 7 5 7 5 5 9 7 5 6 9 28 5 7 34 9 6 5
internal_value=29.4979 664.512 503.859 292.894 1816.88 106.194 -459.144 -15.8624 -509.905 94.5141 -563.325 15.4221 -601.673 -360.521 -646.256 -596.5 -555.416 -54.7486
internal_weight=184 80 73 63 10 56 104 51 95 41 85 35 76 12 64 49 40 10
internal_count=184 80 73 63 10 56 104 51 95 41 85 35 76 12 64 49 40 10
is_linear=0
shrinkage=0.03


Tree=27
num_leaves=21
num_cat=0
split_feature=1 1 1 19 19 1 1 1 1 2 19 1 1 1 1 2 19 5 2 1
split_gain=1.73701e+11 2.21896e+10 1.76036e+10 4.32284e+09 2.66938e+09 3.18925e+09 1.83768e+09 1.54644e+09 7.28162e+08 5.04516e+08 3.64637e+08 2.70167e+08 2.63702e+08 2.46228e+08 2.12298e+08 2.14837e+08 1.01136e+08 5.46441e+07 2.90402e+07 142022
threshold=1.1233346462249758 2.1099295616149907 0.087154503911733641 0.74886608123779308 1.0000000180025095e-35 1.6818874478340151 0.54138207435607921 0.51970538496971141 -0.86478054523468006 0.60250937938690197 0.94645097851753246 0.311512440443039 -0.11439673230051993 0.69028088450431835 -0.40852676331996912 0.49831400811672216 1.0000000180025095e-35 1.0000000180025095e-35 -1.0000000180025095e-35 -1.2876555323600767
decision_type=2 2 2 2 2 2 2 2 2 2 2 2 2 2 2 2 2 2 2 2
left_child=2 4 8 7 5 -2 -5 11 16 -9 12 17 14 -11 -10 18 -1 -4 -16 -18
right_child=1 -3 3 6 -6 -7 -8 9 10 13 -12 -13 -14 -15 15 -17 19 -19 -20 -21
leaf_value=-783.58166038074717 969.64449090676112 3860.554445440574 -327.02266113281235 231.80846119068289 2317.0203265881146 1913.4278993055555 964.62581341911755 -118.00369592737263 -630.85368672163281 60.957675024757933 -385.46559902987639 -181.86054827008928 -820.20129021139712 322.79334624743848 -475.42606043198509 -654.7205859375 -698.76548483455861 -487.83728802849254 -355.44550822513173 -572.10513327205888
leaf_weight=26 6.0000000000000062 5.9999999999999991 5.0000000000000018 7.9999999999999982 5.9999999999999991 7.9999999999999991 5 8.0000000000000018 26.999999999999996 6.9999999999999982 8.9999999999999982 8.9999999999999982 4.9999999999999991 6 5.0000000000000009 4.9999999999999991 5 5 7.0000000000000044 4.9999999999999982
leaf_count=26 6 6 5 8 6 8 5 8 27 7 9 9 5 6 5 5 5 5 7 5
internal_value=8.79311 2264.25 -391.399 45.8103 1768.53 1518.7 518.874 -108.846 -637.697 68.5312 -569.265 -304.226 -602.171 183.347 -575.591 -484.644 -746.064 -411.464 -408.954 -641.727
internal_weight=173 26 147 53 20 14 13 40 94 21 58 19 49 13 44 17 36 10 12 10
internal_count=173 26 147 53 20 14 13 40 94 21 58 19 49 13 44 17 36 10 12 10
is_linear=0
shrinkage=0.03


Tree=28
num_leaves=21
num_cat=0
split_feature=1 1 1 19 19 1 1 1 1 4 1 19 1 1 1 2 19 5 2 1
split_gain=1.6358e+11 2.09014e+10 1.65731e+10 4.07175e+09 2.51518e+09 3.00221e+09 1.73142e+09 1.45661e+09 6.85097e+08 4.9042e+08 8.51112e+08 3.43254e+08 2.54621e+08 2.48911e+08 1.99103e+08 2.02453e+08 9.44923e+07 5.14769e+07 2.74052e+07 133665
threshold=1.1233346462249758 2.1099295616149907 0.087154503911733641 0.74886608123779308 1.0000000180025095e-35 1.6818874478340151 0.54138207435607921 0.51970538496971141 -0.86478054523468006 0.71066792309284221 0.74745854735374462 0.94645097851753246 0.311512440443039 -0.11439673230051993 -0.40852676331996912 0.49831400811672216 1.0000000180025095e-35 1.0000000180025095e-35 -1.0000000180025095e-35 -1.2876555323600767
decision_type=2 2 2 2 2 2 2 2 2 2 2 2 2 2 2 2 2 2 2 2
left_child=2 4 8 7 5 -2 -5 12 16 -9 -11 13 17 14 -10 18 -1 -4 -16 -18
right_child=1 -3 3 6 -6 -7 -8 9 11 10 -12 -13 -14 -15 15 -17 19 -19 -20 -21
leaf_value=-760.16427307830463 941.03202932889235 3746.6362845799181 -317.40434053308809 224.9400642903646 2248.6492392418036 1856.7336863425926 936.25445542279385 -117.38953712745945 -611.99791094903139 -13.192511121961806 482.57776079963224 -374.02871394230772 -176.46468786218665 -796.07771484374996 -461.44294347426455 -635.46409466911757 -678.21355468749982 -473.48913488051465 -344.932336494553 -555.27851332720593
leaf_weight=26 6.0000000000000062 5.9999999999999991 5.0000000000000018 7.9999999999999982 5.9999999999999991 7.9999999999999991 5 8.0000000000000018 26.999999999999996 7.9999999999999982 5 8.9999999999999982 8.9999999999999982 4.9999999999999991 5.0000000000000009 4.9999999999999991 5 5 7.0000000000000044 4.9999999999999982
leaf_count=26 6 6 5 8 6 8 5 8 27 8 5 9 9 5 5 5 5 5 7 5
internal_value=8.60122 2197.36 -379.757 44.4623 1716.25 1473.75 503.581 -105.635 -618.737 66.5131 179.716 -552.359 -295.256 -584.285 -558.467 -470.366 -723.853 -399.362 -396.891 -622.853
internal_weight=173 26 147 53 20 14 13 40 94 21 13 58 19 49 44 17 36 10 12 10
internal_count=173 26 147 53 20 14 13 40 94 21 13 58 19 49 44 17 36 10 12 10
is_linear=0
shrinkage=0.03


Tree=29
num_leaves=22
num_cat=0
split_feature=1 1 1 18 18 1 1 1 1 12 1 8 1 1 1 1 8 1 5 18 15
split_gain=1.54049e+11 1.96879e+10 1.56032e+10 3.83516e+09 2.9272e+09 2.60553e+09 1.63131e+09 1.3721e+09 6.45696e+08 4.81419e+08 3.57469e+08 6.4929e+08 3.47259e+08 2.3997e+08 1.71362e+08 9.44741e+07 6.45987e+07 5.76255e+07 4.84933e+07 3.74847e+07 2.02068e+07
threshold=1.1233346462249758 2.1099295616149907 0.087154503911733641 1.0000000180025095e-35 1.7828003764152529 1.8080481886863711 0.54138207435607921 0.51970538496971141 -0.77614131569862355 1.483787000179291 -0.11439673230051993 1.0000000180025095e-35 0.70439237356185924 0.311512440443039 -0.24171821773052213 -1.3435896039009092 1.0000000180025095e-35 0.59539720416069042 1.0000000180025095e-35 1.5844429731369021 1.5615008473396303
decision_type=2 2 2 2 2 2 2 2 2 2 2 2 2 2 2 2 2 2 2 2 2
left_child=2 4 8 7 5 -2 -5 13 15 12 11 14 17 18 20 -1 -17 -9 -4 -13 -10
right_child=1 -3 3 6 -6 -7 -8 9 10 -11 -12 19 -14 -15 -16 16 -18 -19 -20 -21 -22
leaf_value=-770.10827826812977 1091.870033267513 3636.0798680840167 -308.06892003676455 218.27516216136792 2310.4187821691175 1927.4896529200821 908.71757582720579 -13.3997508364818 -578.97068942397391 -189.86357874253218 -772.66366957720595 -221.92268626493572 349.46314252068015 -171.22891938261932 -444.3166429455444 -682.46909060378948 -552.43966869212932 123.56132582720588 -459.56298598345575 -345.13243436219255 -694.85261718749996
leaf_weight=12.999999999999998 9.0000000000000053 5.9999999999999991 5.0000000000000018 7.9999999999999982 4.9999999999999991 5.9999999999999991 5 6.0000000000000053 20 4.9999999999999991 4.9999999999999991 4.9999999999999982 4.9999999999999991 8.9999999999999982 10.000000000000002 22 8.0000000000000018 5 5 6 4.9999999999999991
leaf_count=13 9 6 5 8 5 6 5 6 20 5 5 5 5 9 10 22 8 5 5 6 5
internal_value=8.41461 2132.45 -368.459 43.1593 1665.51 1436.67 488.74 -102.512 -600.341 64.5677 -525.369 -496.872 144.763 -286.55 -560.361 -687.836 -649.745 49.4073 -387.616 -291.632 -604.823
internal_weight=173 26 147 53 20 15 13 40 94 21 51 46 16 19 35 43 30 11 10 11 25
internal_count=173 26 147 53 20 15 13 40 94 21 51 46 16 19 35 43 30 11 10 11 25
is_linear=0
shrinkage=0.03


Tree=30
num_leaves=23
num_cat=0
split_feature=1 1 1 4 4 18 2 1 2 2 1 1 3 19 2 1 1 3 1 2 8 3
split_gain=1.56707e+11 1.6361e+10 1.5419e+10 1.11976e+10 7.16292e+09 4.17598e+09 2.548e+09 2.5356e+09 2.06656e+09 9.71653e+08 8.45009e+08 6.89638e+08 4.02533e+08 3.01759e+08 1.86933e+08 3.6066e+08 1.70083e+08 1.07787e+08 2.03676e+08 5.98018e+07 4.13181e+07 9.32076e+06
threshold=1.1233346462249758 1.5549779534339907 1.0000000180025095e-35 -0.56968981772661198 0.71066792309284221 1.0000000180025095e-35 1.3839753866195681 0.70439237356185924 0.31597177684307104 0.91509580612182628 0.78262919187545787 -0.77614131569862355 1.4477552175521853 0.94645097851753246 -0.23105438798665998 -0.40852676331996912 -1.3435896039009092 1.0000000180025095e-35 -0.62485185265541066 0.2378252372145653 1.0000000180025095e-35 1.0000000180025095e-35
decision_type=2 2 2 2 2 2 2 2 2 2 2 2 2 2 2 2 2 2 2 2 2 2
left_child=2 3 11 -2 -3 8 -6 -7 10 -10 21 16 -11 14 17 -16 -1 18 -13 -17 -18 -4
right_child=1 4 5 -5 6 7 -8 -9 9 12 -12 13 -14 -15 15 19 20 -19 -20 -21 -22 -23
leaf_value=-771.03005133006195 1905.45298539959 3383.6903829405719 -14.239930491727936 -9.4746932444852892 1752.4344874656595 177.39671608051788 2666.2419439338237 1060.0139568014704 -525.28867675781225 29.940024052372678 456.26797083119874 -548.24541400748228 -261.43407054859199 -334.2676793226305 -591.40129155585112 -290.78798115714619 -651.18158756996274 -503.62944010416663 -825.26936810661732 -424.41213867187497 -541.47662560096137 40.796362084560698
leaf_weight=11.999999999999998 6 6.0000000000000027 5.0000000000000018 5.0000000000000018 8.9999999999999982 6.9999999999999982 4.9999999999999991 5 8.0000000000000018 8 5.9999999999999991 7.0000000000000009 9 8.9999999999999982 13.999999999999998 6.0000000000000062 20 7.9999999999999991 5.0000000000000009 9.9999999999999982 9.0000000000000018 6
leaf_count=12 6 6 5 5 9 7 5 5 8 8 6 7 9 9 14 6 20 8 5 10 9 6
internal_value=43.364 1985.87 -348.694 1042.79 2496.79 59.7724 2095.39 550.875 -81.5179 -254.636 173.068 -569.105 -124.943 -501.215 -530.538 -478.377 -665.344 -606.011 -669.539 -376.421 -619.113 15.8767
internal_weight=185 31 154 11 20 54 14 12 42 25 17 100 17 59 50 30 41 20 12 16 29 11
internal_count=185 31 154 11 20 54 14 12 42 25 17 100 17 59 50 30 41 20 12 16 29 11
is_linear=0
shrinkage=0.03


Tree=31
num_leaves=25
num_cat=0
split_feature=1 18 1 1 2 18 2 1 2 4 1 1 1 19 2 1 1 0 2 1 8 2 1 5
split_gain=1.47579e+11 1.59112e+10 1.45181e+10 1.38673e+10 4.69765e+09 3.93336e+09 3.48813e+09 2.3888e+09 1.94607e+09 9.63611e+08 7.95878e+08 6.4942e+08 3.62007e+08 3.02299e+08 2.13285e+08 3.39306e+08 1.11032e+08 8.02846e+07 5.62382e+07 4.67475e+07 4.08626e+07 2.92766e+07 2.77829e+07 8.36903e+06
threshold=1.1233346462249758 1.8323897719383242 1.0000000180025095e-35 1.8080481886863711 0.81090039014816295 1.0000000180025095e-35 1.3839753866195681 0.70439237356185924 0.31597177684307104 0.71066792309284221 0.78262919187545787 -0.86478054523468006 0.51970538496971141 0.94645097851753246 -0.23105438798665998 -0.40852676331996912 -1.3435896039009092 -0.39166991412639612 0.2378252372145653 0.311512440443039 1.0000000180025095e-35 -0.33524991571903223 -0.64405506849288929 1.0000000180025095e-35
decision_type=2 2 2 2 2 2 2 2 2 2 2 2 2 2 2 2 2 2 2 2 2 2 2 2
left_child=2 3 11 4 -2 8 -5 -7 10 -10 23 16 19 14 17 -16 -1 22 -17 -11 -18 -15 -13 -4
right_child=1 -3 5 6 -6 7 -8 -9 9 12 -12 13 -14 21 15 18 20 -19 -20 -21 -22 -23 -24 -25
leaf_value=-748.09029313016526 1334.2474430071709 3312.955450819672 -8.4787046138575786 1753.2297511574075 91.851313189338228 172.14976239701394 2773.6355801741802 1028.8370726102939 -493.72494639637688 -281.43431956571698 442.80432056864748 -588.75240573347071 77.300201996349898 -395.34107364430139 -573.78507230718083 -282.20735511654681 -654.91975101383582 -691.41110090228869 -411.80583839340966 -146.12146412568933 -533.34487340856469 -273.82084443933826 -482.30752712673598 43.675865478515618
leaf_weight=11.999999999999998 6.0000000000000053 5.9999999999999991 6.0000000000000018 7.9999999999999982 5 6.9999999999999982 6 5 9.0000000000000018 4.9999999999999982 5.9999999999999991 12.000000000000004 5.9999999999999991 5 13.999999999999998 6.0000000000000062 13 6.9999999999999991 9.9999999999999982 5 8 4.9999999999999982 8 5
leaf_count=12 6 6 6 8 5 7 6 5 9 5 6 12 6 5 14 6 13 7 10 5 8 5 8 5
internal_value=42.147 1927.23 -338.321 1582.78 775.437 58.0326 2207.12 534.656 -79.0919 -247.088 167.961 -552.197 -106.149 -496.623 -523.83 -464.155 -663.186 -588.178 -365.261 -215.895 -611.353 -337.894 -548.786 15.4076
internal_weight=185 31 154 25 11 54 14 12 42 25 17 100 16 67 57 30 33 27 16 10 21 10 20 11
internal_count=185 31 154 25 11 54 14 12 42 25 17 100 16 67 57 30 33 27 16 10 21 10 20 11
is_linear=0
shrinkage=0.03


Tree=32
num_leaves=25
num_cat=0
split_feature=1 18 1 1 2 18 2 1 2 4 1 1 1 19 2 1 1 1 2 1 8 2 1 3
split_gain=1.38982e+11 1.49873e+10 1.367e+10 1.30586e+10 4.42443e+09 3.70493e+09 3.287e+09 2.25051e+09 1.83274e+09 9.0713e+08 7.49594e+08 6.111e+08 3.41008e+08 2.8428e+08 2.00924e+08 3.19216e+08 1.04483e+08 7.90139e+07 5.28868e+07 4.40381e+07 3.8363e+07 2.75797e+07 1.83089e+07 8.5455e+06
threshold=1.1233346462249758 1.8323897719383242 1.0000000180025095e-35 1.8080481886863711 0.81090039014816295 1.0000000180025095e-35 1.3839753866195681 0.70439237356185924 0.31597177684307104 0.71066792309284221 0.78262919187545787 -0.86478054523468006 0.51970538496971141 0.94645097851753246 -0.23105438798665998 -0.40852676331996912 -1.3435896039009092 -0.2779343426227569 0.2378252372145653 0.311512440443039 1.0000000180025095e-35 -0.33524991571903223 -0.64405506849288929 1.0000000180025095e-35
decision_type=2 2 2 2 2 2 2 2 2 2 2 2 2 2 2 2 2 2 2 2 2 2 2 2
left_child=2 3 11 4 -2 8 -5 -7 10 -10 23 16 19 14 17 -16 -1 22 -17 -11 -18 -15 -13 -4
right_child=1 -3 5 6 -6 7 -8 -9 9 12 -12 13 -14 21 15 18 20 -19 -20 -21 -22 -23 -24 -25
leaf_value=-725.83306011105378 1294.8762467981546 3215.1960630122953 -13.878524816176464 1701.2822106481483 89.149796645220576 167.05801871286315 2691.7905814549176 998.57718060661739 -479.07596400669621 -273.15683938419124 429.73796955046106 -570.83435754654238 75.019221151383192 -383.71339958639697 -556.69360787898938 -273.87992011398535 -635.42213949188931 -697.08152918198527 -399.5739898862933 -141.82377771714155 -517.54206669560165 -265.76729147518387 -476.89292209201381 38.816733518506652
leaf_weight=11.999999999999998 6.0000000000000053 5.9999999999999991 5.0000000000000018 7.9999999999999982 5 6.9999999999999982 6 5 9.0000000000000018 4.9999999999999982 5.9999999999999991 14.000000000000004 5.9999999999999991 5 13.999999999999998 6.0000000000000062 13 4.9999999999999991 9.9999999999999982 5 8 4.9999999999999982 8 6
leaf_count=12 6 6 5 8 5 7 6 5 9 5 6 14 6 5 14 6 13 5 10 5 8 5 8 6
internal_value=40.955 1870.3 -328.265 1536.01 752.56 56.338 2141.87 518.914 -76.7452 -239.776 163.006 -535.8 -103.03 -481.89 -508.274 -450.357 -643.465 -570.728 -354.433 -209.545 -593.181 -327.956 -538.986 14.9548
internal_weight=185 31 154 25 11 54 14 12 42 25 17 100 16 67 57 30 33 27 16 10 21 10 22 11
internal_count=185 31 154 25 11 54 14 12 42 25 17 100 16 67 57 30 33 27 16 10 21 10 22 11
is_linear=0
shrinkage=0.03


Tree=33
num_leaves=26
num_cat=0
split_feature=2 18 15 12 18 19 2 16 4 15 12 2 2 12 12 2 5 2 17 9 2 10 9 9 4
split_gain=2.85765e+10 8.84105e+09 7.92371e+09 7.71529e+09 6.93702e+09 7.26209e+09 2.77557e+09 2.62875e+09 1.81304e+09 1.77239e+09 1.01293e+09 1.52278e+09 1.4199e+09 9.53019e+08 8.53059e+08 5.91474e+08 5.23391e+08 6.8414e+08 6.09194e+08 3.8189e+08 1.02428e+08 9.14917e+07 4.03703e+08 3.32463e+07 2.24491e+07
threshold=0.60250937938690197 1.931568503379822 2.1234544515609746 2.5870993137359624 1.7828003764152529 1.5392055511474612 1.1234868168830874 0.50245019793510448 0.71066792309284221 1.5615008473396303 1.784690320491791 0.13362987339496615 0.18572755157947543 1.2413924932479861 1.0000000180025095e-35 1.3318775296211245 1.0000000180025095e-35 -1.5334977507591245 -0.28318359702825541 1.0631170868873598 0.91509580612182628 1.4375991225242617 0.54499065876007091 2.0815038681030278 1.3508467674255373
decision_type=2 2 2 2 2 2 2 2 2 2 2 2 2 2 2 2 2 2 2 2 2 2 2 2 2
left_child=4 2 3 6 8 -6 9 15 10 14 11 16 -13 19 20 24 17 -1 -19 -10 -2 22 -18 -23 -8
right_child=1 -3 -4 -5 5 -7 7 -9 13 -11 -12 12 -14 -15 -16 -17 21 18 -20 -21 -22 23 -24 -25 -26
leaf_value=-621.73806425995929 294.94633156698228 1713.6479354319856 1532.9658122702206 1396.3842003676471 1254.8536856617645 -191.79174388744212 21.53748890596275 -600.27681332447492 -348.39908664279494 896.21667394301471 -830.52818014705883 288.92599724264704 -316.17869140624998 262.45222656250002 -72.547962718290449 334.59207925286091 -628.67247395833306 -245.44247883466124 -524.01514450224317 -14.669026309742648 482.62188003289884 -701.28264248206972 -276.65893971162683 -550.41843749999987 -67.59250581629135
leaf_weight=8.9999999999999911 6.0000000000000053 4.9999999999999991 4.9999999999999991 4.9999999999999991 4.9999999999999991 7.9999999999999991 5.0000000000000053 5.9999999999999991 8.0000000000000018 4.9999999999999991 4.9999999999999991 4.9999999999999991 10.999999999999998 4.9999999999999991 4.9999999999999991 6.9999999999999991 8.0000000000000018 25.000000000000007 9.9999999999999982 4.9999999999999991 6 5.9999999999999982 4.9999999999999991 6 5
leaf_count=9 6 5 5 5 5 8 5 6 8 5 5 5 11 5 5 7 8 25 10 5 6 6 5 6 5
internal_value=-17.29 517.508 405.855 290.309 -282.687 369.942 164.588 -65.8425 -361.514 404.7 -416.441 -391.136 -126.463 -86.096 255.741 125.188 -452.237 -388.004 -326.301 -221.133 391.997 -563.291 -496.428 -631.023 -23.2552
internal_weight=181 60 55 50 121 13 45 23 108 22 90 85 16 18 17 17 69 44 35 13 12 25 13 12 10
internal_count=181 60 55 50 121 13 45 23 108 22 90 85 16 18 17 17 69 44 35 13 12 25 13 12 10
is_linear=0
shrinkage=0.03


Tree=34
num_leaves=23
num_cat=0
split_feature=1 1 18 4 1 17 2 18 1 6 1 2 9 11 8 18 1 15 1 15 2 8
split_gain=8.58179e+10 1.95299e+10 1.03334e+10 8.02022e+09 3.96284e+09 2.04046e+09 1.63113e+09 1.34641e+09 1.2486e+09 1.115e+09 6.88603e+08 4.38483e+08 3.85735e+08 3.77096e+08 2.90639e+08 9.67741e+08 1.6534e+08 1.23998e+08 5.50691e+07 4.78618e+07 1.56357e+07 5.74816e+06
threshold=1.5549779534339907 0.51970538496971141 1.0000000180025095e-35 0.71066792309284221 1.0000000180025095e-35 0.30623547732830053 1.0192911326885226 1.5348535776138308 1.0098250210285189 1.0000000180025095e-35 -0.70112657546997059 -1.0000000180025095e-35 1.1881821751594546 1.0000000180025095e-35 1.0000000180025095e-35 1.7332110404968264 -0.24171821773052213 1.0000000180025095e-35 -1.3435896039009092 1.4116464257240298 0.86299809813499462 1.0000000180025095e-35
decision_type=2 2 2 2 2 2 2 2 2 2 2 2 2 2 2 2 2 2 2 2 2 2
left_child=1 4 5 -2 10 8 -4 13 11 -5 18 -3 -13 17 16 -16 19 20 -1 -12 -6 -20
right_child=3 2 6 9 7 -7 -8 -9 -10 -11 14 12 -14 -15 15 -17 -18 -19 21 -21 -22 -23
leaf_value=-664.80484391141533 3019.2195863970569 275.13364961511911 1535.2020657169119 1926.2353033088241 -42.280539670850338 -435.21818955718493 777.39233366419046 335.72724702722888 549.85636014344254 1278.4390883582746 -492.81627011427236 -221.5286485815829 132.18782154756431 -430.14692655675555 -86.655145399305553 -569.13726314920768 -376.5849696539255 -230.56499421296297 -582.98820255770227 -624.14885454963235 -111.63286385958311 -500.71912797095075
leaf_weight=11.999999999999998 5.0000000000000027 5.0000000000000062 4.9999999999999982 4.9999999999999982 6.0000000000000089 5.9999999999999991 6 4.9999999999999991 5.9999999999999991 7 20 6.0000000000000018 5 4.9999999999999991 7.9999999999999982 7 12.000000000000002 7.9999999999999991 24.000000000000004 4.9999999999999991 6 6.9999999999999991
leaf_count=12 5 5 5 5 6 6 6 5 6 7 20 6 5 5 8 7 12 8 24 5 6 7
internal_value=-16.7301 -227.474 357.978 2005.77 -410.276 50.7227 1132.58 -109.236 184.622 1562.04 -505.126 45.0941 -61.0058 -199.211 -429.717 -314.092 -475.619 -139.625 -595.111 -521.465 -77.593 -566.081
internal_weight=181 164 39 17 125 28 11 30 22 12 95 16 11 25 52 15 37 20 43 25 12 31
internal_count=181 164 39 17 125 28 11 30 22 12 95 16 11 25 52 15 37 20 43 25 12 31
is_linear=0
shrinkage=0.03


Tree=35
num_leaves=23
num_cat=0
split_feature=1 1 18 4 1 17 2 18 1 6 1 2 9 11 18 18 1 15 1 15 2 18
split_gain=8.08299e+10 1.83908e+10 9.73369e+09 7.55682e+09 3.7301e+09 1.92188e+09 1.53694e+09 1.26828e+09 1.17594e+09 1.05129e+09 6.47876e+08 4.13039e+08 3.63334e+08 3.55304e+08 2.73415e+08 9.11359e+08 1.55658e+08 1.16743e+08 5.20993e+07 4.53566e+07 1.47265e+07 1.8813e+06
threshold=1.5549779534339907 0.51970538496971141 1.0000000180025095e-35 0.71066792309284221 1.0000000180025095e-35 0.30623547732830053 1.0192911326885226 1.5348535776138308 1.0098250210285189 1.0000000180025095e-35 -0.70112657546997059 -1.0000000180025095e-35 1.1881821751594546 1.0000000180025095e-35 1.0000000180025095e-35 1.7332110404968264 -0.24171821773052213 1.0000000180025095e-35 -1.1017522215843198 1.4116464257240298 0.86299809813499462 1.0000000180025095e-35
decision_type=2 2 2 2 2 2 2 2 2 2 2 2 2 2 2 2 2 2 2 2 2 2
left_child=1 4 5 -2 10 8 -4 13 11 -5 18 -3 -13 17 16 -16 19 20 21 -12 -6 -1
right_child=3 2 6 9 7 -7 -8 -9 -10 -11 14 12 -14 -15 15 -17 -18 -19 -20 -21 -22 -23
leaf_value=-638.21245819627177 2930.4190349264686 267.04148868336358 1490.0490900735297 1869.5813051470593 -41.03291663998457 -422.37567912117379 754.45289254610645 325.85290656594674 533.63110719774591 1240.6261317121478 -478.10533698694024 -214.99174672611417 128.29995102826288 -417.49553782743561 -84.087588071469909 -552.30362744828335 -365.38079141916313 -223.73344174985533 -529.86555591184697 -605.79152458639703 -108.33877523953797 -544.47495165215162
leaf_weight=17.000000000000004 5.0000000000000027 5.0000000000000062 4.9999999999999982 4.9999999999999982 6.0000000000000089 5.9999999999999991 6 4.9999999999999991 5.9999999999999991 7 20 6.0000000000000018 5 4.9999999999999991 7.9999999999999982 7 12.000000000000002 7.9999999999999991 20 4.9999999999999991 6 5.9999999999999991
leaf_count=17 5 5 5 5 6 6 6 5 6 7 20 6 5 5 8 7 12 8 20 5 6 6
internal_value=-16.1543 -220.683 347.439 1946.69 -398.073 49.2331 1099.23 -106.006 179.183 1515.98 -490.095 43.7759 -59.1997 -193.332 -416.949 -304.799 -461.471 -135.493 -577.379 -505.954 -75.3033 -616.222
internal_weight=181 164 39 17 125 28 11 30 22 12 95 16 11 25 52 15 37 20 43 25 12 23
internal_count=181 164 39 17 125 28 11 30 22 12 95 16 11 25 52 15 37 20 43 25 12 23
is_linear=0
shrinkage=0.03


Tree=36
num_leaves=23
num_cat=0
split_feature=1 1 0 1 1 1 1 18 19 9 2 15 3 1 3 1 18 2 18 2 2 0
split_gain=9.79949e+10 1.15349e+10 4.26649e+09 3.66859e+09 1.58151e+09 1.10777e+09 1.09793e+09 8.09452e+08 6.2904e+08 5.77038e+08 5.47982e+08 3.76647e+08 3.62109e+08 2.38135e+08 2.04986e+08 1.85944e+08 1.42468e+08 9.4856e+07 5.5216e+07 4.55991e+07 2.78329e+07 1.65047e+07
threshold=1.1233346462249758 0.25696944445371633 1.0311834812164309 0.70439237356185924 2.1099295616149907 1.5549779534339907 -0.44295731186866755 1.5844429731369021 1.8214695453643801 2.0815038681030278 0.13362987339496615 1.7488188147544863 1.0000000180025095e-35 -0.11439673230051993 1.4477552175521853 -0.9149402081966399 1.3860854506492617 0.81090039014816295 1.0000000180025095e-35 0.96719348430633556 0.49831400811672216 1.0000000180025095e-35
decision_type=2 2 2 2 2 2 2 2 2 2 2 2 2 2 2 2 2 2 2 2 2 2
left_child=1 6 5 9 -4 -2 15 21 10 11 12 14 -8 20 19 18 -17 -15 -1 -3 -12 -5
right_child=2 3 4 7 -6 -7 8 -9 -10 -11 13 -13 -14 17 -16 16 -18 -19 -20 -21 -22 -23
leaf_value=-606.87667385243776 1020.7652409771127 41.058396271181714 1732.4741303790977 383.53436982996334 2553.1904503676469 1563.2690277300824 -740.33868393841931 807.71151539522054 -10.344745806525735 -366.22310776654416 -330.95901005497683 -246.19821691176472 -366.26769071691172 -120.22705583599247 -122.24650873520797 -499.10643286206567 -328.11059698386265 -293.50329360064336 -494.78797304258239 146.40657712583189 -437.28566342213105 282.45292415843289
leaf_weight=24 6.9999999999999991 7.0000000000000098 6.0000000000000018 4.9999999999999982 5 8.9999999999999982 4.9999999999999982 4.9999999999999991 4.9999999999999991 4.9999999999999991 7.9999999999999982 4.9999999999999991 5 7.0000000000000018 4.9999999999999991 33 5.9999999999999991 5 8.9999999999999982 7.9999999999999991 6 5
leaf_count=24 7 7 6 5 5 9 5 5 5 5 8 5 5 7 5 33 6 5 9 8 6 5
internal_value=-3.97805 -289.683 1662.82 116.33 2125.17 1333.74 -451.329 497.74 -325.916 -75.3953 -369.595 -16.0023 -558.782 -294.969 42.4851 -522.194 -473.706 -194.255 -577.894 97.8418 -379.306 336.291
internal_weight=185 158 27 45 11 16 113 15 41 30 36 25 10 26 20 72 39 12 33 15 14 10
internal_count=185 158 27 45 11 16 113 15 41 30 36 25 10 26 20 72 39 12 33 15 14 10
is_linear=0
shrinkage=0.03


Tree=37
num_leaves=23
num_cat=0
split_feature=1 1 1 1 20 1 1 8 9 15 2 2 4 3 1 1 8 1 9 2 1 2
split_gain=9.22835e+10 1.08601e+10 3.45609e+09 3.12143e+09 4.54482e+09 1.6523e+09 1.03207e+09 7.62538e+08 5.43555e+08 3.54778e+08 3.18047e+08 1.19976e+09 2.27018e+08 1.93069e+08 1.86304e+08 1.79019e+08 1.28771e+08 5.71157e+07 5.24617e+07 4.29351e+07 2.47304e+07 1.55481e+07
threshold=1.1233346462249758 0.25696944445371633 0.70439237356185924 2.1099295616149907 1.6405401825904848 1.8080481886863711 -0.44295731186866755 1.0000000180025095e-35 2.0815038681030278 1.7488188147544863 -0.33524991571903223 0.13362987339496615 -0.56968981772661198 1.4477552175521853 0.15878819674253467 -1.3435896039009092 1.0000000180025095e-35 -0.86478054523468006 1.0000000180025095e-35 0.96719348430633556 -0.86478054523468006 0.60250937938690197
decision_type=2 2 2 2 2 2 2 2 2 2 2 2 2 2 2 2 2 2 2 2 2 2
left_child=1 6 8 4 5 -2 15 21 9 13 -8 -12 -13 19 18 -1 20 -18 -14 -3 -17 -4
right_child=3 2 7 -5 -6 -7 10 -9 -10 -11 11 12 14 -15 -16 16 17 -19 -20 -21 -22 -23
leaf_value=-609.14495428856389 843.48919849536924 39.843990770796594 372.25393841911773 2232.4688345286886 2219.9813281249999 1476.4259678819446 -144.12973849826389 783.95529698988969 -355.45184527228861 -238.95709501378678 -782.21648724724264 -141.52615596064808 -429.05860999381173 -118.65101570465987 -169.68679472081803 -550.08898929014913 -443.86551331426045 -294.65430319393391 -293.75963694852942 142.06860122115523 -481.57569577723064 274.14548181870401
leaf_weight=13.999999999999998 8.0000000000000089 7.0000000000000098 4.9999999999999982 5.9999999999999991 4.9999999999999991 7.9999999999999991 7.9999999999999991 4.9999999999999991 4.9999999999999991 4.9999999999999991 4.9999999999999991 8.0000000000000018 10.000000000000002 4.9999999999999991 4.9999999999999991 14.999999999999995 7 4.9999999999999982 4.9999999999999991 7.9999999999999991 31.000000000000004 5
leaf_count=14 8 7 5 6 5 8 8 5 5 5 5 8 10 5 5 15 7 5 5 8 31 5
internal_value=-3.80088 -281.055 112.901 1613.7 1427.17 1167.16 -437.902 483.1 -73.188 -15.5438 -316.307 -357.485 -279.126 41.2203 -333.188 -506.609 -480.853 -384.643 -386.203 94.9438 -505.062 326.4
internal_weight=185 158 45 27 21 16 113 15 30 25 41 33 28 20 20 72 58 12 15 15 46 10
internal_count=185 158 45 27 21 16 113 15 30 25 41 33 28 20 20 72 58 12 15 15 46 10
is_linear=0
shrinkage=0.03


Tree=38
num_leaves=24
num_cat=0
split_feature=1 1 0 1 1 1 1 8 10 18 8 17 4 2 3 1 1 18 2 1 2 1 0
split_gain=8.69066e+10 1.02249e+10 3.83907e+09 3.2559e+09 1.44473e+09 1.02644e+09 9.70586e+08 7.18342e+08 5.12014e+08 3.47402e+08 1.05288e+09 3.34179e+08 1.81915e+08 2.04909e+08 1.81845e+08 1.68548e+08 1.63504e+08 1.20863e+08 6.89908e+07 5.37386e+07 4.04267e+07 2.33558e+07 1.46469e+07
threshold=1.1233346462249758 0.25696944445371633 1.0311834812164309 0.70439237356185924 2.1099295616149907 1.5549779534339907 -0.44295731186866755 1.0000000180025095e-35 1.8783484101295473 1.7332110404968264 1.0000000180025095e-35 1.0921276211738589 1.0000000180025095e-35 0.029434193857014183 1.4477552175521853 -1.3435896039009092 -0.19130713492631909 1.3860854506492617 0.49831400811672216 -0.86478054523468006 0.96719348430633556 -0.86478054523468006 1.0000000180025095e-35
decision_type=2 2 2 2 2 2 2 2 2 2 2 2 2 2 2 2 2 2 2 2 2 2 2
left_child=1 6 5 8 -4 -2 15 22 11 10 12 14 13 -8 20 -1 -14 21 -18 -19 -3 -17 -5
right_child=2 3 4 7 -6 -7 9 -9 -10 -11 -12 -13 16 -15 -16 17 18 19 -20 -21 -22 -23 -24
leaf_value=-591.00022149268625 953.99299185739437 38.665506437059797 1630.4716041239747 361.30529411764712 2412.4357743566175 1474.3963650412088 -314.54548587986665 760.89778320312496 -344.99736816406255 -518.30081074699024 91.134083712218256 -231.92893841911766 -428.49320772058792 -585.39393152573518 -115.16128601971795 -533.69560857305487 -144.39456725073646 -430.73709672095066 -287.32230798855625 -285.98799460018387 137.85916202121311 -467.1748799864348 266.0823786477481
leaf_weight=13.999999999999998 6.9999999999999991 7.0000000000000098 6.0000000000000018 4.9999999999999982 5 8.9999999999999982 6.0000000000000018 4.9999999999999991 4.9999999999999991 5.9999999999999991 5.9999999999999991 4.9999999999999991 5.0000000000000027 5 4.9999999999999991 14.999999999999995 5.9999999999999982 7 7 4.9999999999999982 7.9999999999999991 31.000000000000004 5
leaf_count=14 7 7 6 5 5 9 6 5 5 6 6 5 5 5 5 15 6 7 7 5 8 31 5
internal_value=-3.63285 -272.689 1566.04 109.574 2004.44 1254.06 -424.88 468.892 -71.0453 -306.96 -269.357 -15.0985 -343.999 -441.823 39.9931 -491.509 -282.106 -466.518 -222.962 -373.287 92.1316 -489.977 316.8
internal_weight=185 158 27 45 11 16 113 15 30 41 35 25 29 11 20 72 18 58 13 12 15 46 10
internal_count=185 158 27 45 11 16 113 15 30 41 35 25 29 11 20 72 18 58 13 12 15 46 10
is_linear=0
shrinkage=0.03


Tree=39
num_leaves=23
num_cat=0
split_feature=3 18 12 15 4 18 9 12 17 15 18 2 15 12 9 4 2 7 2 20 0 2
split_gain=2.63378e+10 1.3874e+10 1.06338e+10 1.16846e+10 4.61545e+09 3.41981e+09 2.42866e+09 1.39149e+09 1.39135e+09 2.10396e+09 8.57e+08 7.26895e+08 4.83548e+08 4.10532e+08 4.57416e+08 3.50182e+08 3.32524e+08 2.19152e+08 1.28295e+08 1.10314e+08 9.33082e+07 6.07489e+07
threshold=0.56927071511745464 1.7828003764152529 2.5870993137359624 1.992331922054291 0.71066792309284221 1.7332110404968264 2.4030995368957524 1.784690320491791 0.89565455913543712 1.1868651509284975 1.0000000180025095e-35 0.60250937938690197 1.8050141334533694 1.784690320491791 1.8849729895591738 0.71066792309284221 -1.5334977507591245 1.0000000180025095e-35 0.2378252372145653 1.6405401825904848 1.0000000180025095e-35 1.0000000180025095e-35
decision_type=2 2 2 2 2 2 2 2 2 2 2 2 2 2 2 2 2 2 2 2 2 2
left_child=4 2 3 6 5 8 11 17 9 10 13 18 -10 14 -1 -13 -12 20 -2 -7 -6 -18
right_child=1 -3 -4 -5 7 19 -8 -9 12 -11 16 15 -14 -15 -16 -17 21 -19 -20 -21 -22 -23
leaf_value=-370.90549324090011 -175.62590605683374 1903.7860724577358 1682.0778814338237 1348.8010423085389 34.695764016544089 14.978513327205883 567.35434798443907 596.06827665441176 -896.19564338235296 134.27893645109955 -416.99387408088199 187.77499312789345 -505.13784215856475 -675.5851047003074 -654.41703189036878 -83.497016843020276 -191.00796838831019 -81.985342655888303 -368.43957720588236 190.70350937392683 217.90154943129593 -68.828080882757476
leaf_weight=42 9.0000000000000018 5.9999999999999991 4.9999999999999991 6.9999999999999991 5.0000000000000036 4.9999999999999991 5.9999999999999991 4.9999999999999991 4.9999999999999991 7.9999999999999991 5.0000000000000027 8.0000000000000018 7.9999999999999991 5.9999999999999991 5.9999999999999991 8.9999999999999982 7.9999999999999982 8 4.9999999999999991 8.9999999999999982 5 7
leaf_count=42 9 6 5 7 5 5 6 5 5 8 5 8 8 6 6 9 8 8 5 9 5 7
internal_value=2.7988 553.774 384.926 234.042 -227.02 -308.464 20.0747 158.62 -372.926 -326.468 -376.392 -87.334 -661.238 -438.598 -407.631 44.5118 -207.09 34.4843 -246.613 128.496 127.549 -134.824
internal_weight=187 55 49 44 132 109 37 23 95 82 74 31 13 54 48 17 20 18 14 14 10 15
internal_count=187 55 49 44 132 109 37 23 95 82 74 31 13 54 48 17 20 18 14 14 10 15
is_linear=0
shrinkage=0.03


Tree=40
num_leaves=24
num_cat=0
split_feature=1 1 19 1 4 1 19 3 2 2 8 11 9 15 1 19 2 1 3 1 4 19 2
split_gain=8.12392e+10 1.2578e+10 6.8628e+09 6.21794e+09 3.65819e+09 3.62054e+09 1.21142e+09 7.33521e+08 5.93777e+08 4.27245e+08 6.16278e+08 3.83664e+08 6.7838e+08 3.84153e+08 3.18898e+08 2.18937e+08 1.57197e+08 1.10537e+08 1.02599e+08 1.0151e+08 8.70403e+07 3.01803e+07 1.82532e+07
threshold=1.5549779534339907 0.69028088450431835 1.0000000180025095e-35 2.1099295616149907 0.71066792309284221 1.0000000180025095e-35 1.5392055511474612 0.56927071511745464 1.1755844950675967 -0.12685886025428769 1.0000000180025095e-35 1.0000000180025095e-35 2.2423017024993901 1.7488188147544863 0.47051286697387701 2.4706770181655888 -0.33524991571903223 -0.86478054523468006 1.0000000180025095e-35 -0.19130713492631909 0.71066792309284221 1.0000000180025095e-35 -0.59573864936828602
decision_type=2 2 2 2 2 2 2 2 2 2 2 2 2 2 2 2 2 2 2 2 2 2 2
left_child=1 5 4 7 -3 9 11 -2 -6 15 19 13 -13 14 18 16 17 21 -7 20 -11 -1 -19
right_child=3 2 -4 -5 8 6 -8 -9 -10 10 -12 12 -14 -15 -16 -17 -18 22 -20 -21 -22 -23 -24
leaf_value=-532.59853669605809 1143.8571189805323 -500.14199191241147 1042.5263852163462 2573.1810227772885 531.42871272557227 -58.048485021456813 337.23011675666362 1675.0077625512295 123.40302222079916 -391.09468449519215 -105.34818693938075 -516.35336037807781 -44.017914033777565 -303.46004066342215 101.53477716466882 -272.15684082031254 -659.54971622242647 -443.77207571476049 -236.11527264763325 -310.47582017495591 -556.06552061987702 -442.98042239010988 -365.85294771634614
leaf_weight=24 6.0000000000000018 7.0000000000000062 8.9999999999999982 6.9999999999999991 6.9999999999999982 7.0000000000000053 4.9999999999999991 6 6 9.0000000000000018 8.0000000000000018 5.9999999999999982 5 5.9999999999999991 8.9999999999999982 4.9999999999999991 4.9999999999999991 14.000000000000002 5 6.9999999999999991 5.9999999999999991 8.9999999999999982 8.9999999999999982
leaf_count=24 6 7 9 7 7 7 5 6 6 9 8 6 5 6 9 5 5 14 5 7 6 9 9
internal_value=2.75315 -207.909 359.515 1856.79 48.5022 -326.466 -97.3979 1421.08 345.489 -428.861 -332.514 -155.321 -303.986 -93.8552 -32.8135 -472.086 -488.002 -471.537 -133.581 -414.269 -460.329 -509.569 -414.998
internal_weight=187 168 29 19 20 139 43 12 13 96 30 38 11 27 21 66 61 56 12 22 15 33 23
internal_count=187 168 29 19 20 139 43 12 13 96 30 38 11 27 21 66 61 56 12 22 15 33 23
is_linear=0
shrinkage=0.03


Tree=41
num_leaves=24
num_cat=0
split_feature=1 1 18 1 4 1 19 3 2 2 8 11 4 15 1 18 1 3 1 4 18 3 1
split_gain=7.65076e+10 1.18427e+10 6.4615e+09 5.85444e+09 3.44503e+09 3.4082e+09 1.14117e+09 6.9087e+08 5.59147e+08 4.01905e+08 5.80366e+08 3.61331e+08 4.48882e+08 3.61785e+08 3.00331e+08 2.14796e+08 1.80732e+08 9.66637e+07 9.55842e+07 8.20653e+07 5.58808e+07 2.03329e+07 1.84094e+07
threshold=1.5549779534339907 0.69028088450431835 1.0000000180025095e-35 2.1099295616149907 0.71066792309284221 1.0000000180025095e-35 1.5392055511474612 0.56927071511745464 1.1755844950675967 -0.12685886025428769 1.0000000180025095e-35 1.0000000180025095e-35 0.71066792309284221 1.7488188147544863 0.47051286697387701 1.7828003764152529 -0.77614131569862355 1.0000000180025095e-35 -0.19130713492631909 0.71066792309284221 1.0000000180025095e-35 -1.1876985430717466 -1.1017522215843198
decision_type=2 2 2 2 2 2 2 2 2 2 2 2 2 2 2 2 2 2 2 2 2 2 2
left_child=1 5 4 7 -3 9 11 -2 -6 15 18 13 -13 14 17 16 20 -7 19 -11 22 -18 -1
right_child=3 2 -4 -5 8 6 -8 -9 -10 10 -12 12 -14 -15 -16 -17 21 -19 -20 -21 -22 -23 -24
leaf_value=-533.94005167895966 1110.103977971311 -485.34907181860643 1011.5942648952609 2497.0728086487679 515.71040286641733 -56.331557651573455 327.31157858455884 1625.5813025102457 119.7616181720671 -379.4907685868817 -102.2267622432002 -467.88798631011468 -82.467420008042268 -294.50548203765368 98.522206320291033 -654.27335872874539 -420.30994941086038 -229.17070082720585 -301.2927291483274 -539.65700851690565 -398.05713834993134 -334.4953880277593 -462.17870293090044
leaf_weight=15.999999999999995 6.0000000000000018 7.0000000000000062 8.9999999999999982 6.9999999999999991 6.9999999999999982 7.0000000000000053 4.9999999999999991 6 6 9.0000000000000018 8.0000000000000018 5.9999999999999982 5 5.9999999999999991 8.9999999999999982 4.9999999999999991 6.0000000000000027 5 6.9999999999999991 5.9999999999999991 8.9999999999999982 13.999999999999998 16.000000000000004
leaf_count=16 6 7 9 7 7 7 5 6 6 9 8 6 5 6 9 5 6 5 7 6 9 14 16
internal_value=2.69926 -201.736 348.853 1801.93 47.0702 -316.776 -94.5261 1379.15 335.274 -416.123 -322.674 -150.745 -295.018 -91.0944 -31.8565 -458.047 -440.918 -129.647 -402.012 -446.707 -478.342 -362.203 -499.611
internal_weight=187 168 29 19 20 139 43 12 13 96 30 38 11 27 21 66 61 12 22 15 41 20 32
internal_count=187 168 29 19 20 139 43 12 13 96 30 38 11 27 21 66 61 12 22 15 41 20 32
is_linear=0
shrinkage=0.03


Tree=42
num_leaves=23
num_cat=0
split_feature=1 18 1 1 2 18 15 2 2 4 1 2 18 1 4 1 18 1 8 4 1 0
split_gain=6.42504e+10 1.45443e+10 6.37593e+09 5.73182e+09 3.00827e+09 2.80674e+09 2.29421e+09 8.63198e+08 1.46837e+09 1.07628e+09 4.7368e+08 4.20474e+08 2.7937e+08 3.82453e+08 2.05154e+08 1.59784e+08 1.42312e+08 1.22931e+08 7.43286e+07 5.17436e+07 3.45504e+07 2.60347e+07
threshold=1.0098250210285189 1.8323897719383242 1.0000000180025095e-35 1.6818874478340151 0.75880256295204174 1.5348535776138308 1.8050141334533694 1.0000000180025095e-35 0.91509580612182628 0.71066792309284221 0.51970538496971141 1.1234868168830874 1.7828003764152529 -0.44295731186866755 0.71066792309284221 0.59539720416069042 1.0000000180025095e-35 -0.95355659723281849 1.0000000180025095e-35 1.3508467674255373 0.34724727272987371 -1.1030966341495512
decision_type=2 2 2 2 2 2 2 2 2 2 2 2 2 2 2 2 2 2 2 2 2 2
left_child=2 3 12 4 -2 7 11 15 9 -9 20 -5 13 16 18 -4 17 -1 -15 -12 -10 -18
right_child=1 -3 5 6 -6 -7 -8 8 10 -11 19 -13 -14 14 -16 -17 21 -19 -20 -21 -22 -23
